svm_type c_svc
kernel_type rbf
gamma 0.01
nr_class 5
total_sv 30
rho 0.0229818 0.0662146 -0.0478573 -0.0446097 0.0460527 -0.0475687 -0.0377707 -0.0458542 -0.0952176 0.0273308
label 1 2 3 4 5
probA 0.686796 0.882459 -2.77575 0.776663 0.18861 -2.88143 -0.717179 -0.988275 -1.70007 -2.62415
probB 0.132662 0.0328613 0.154575 -0.0614223 -0.00269822 -0.0258164 0.0279727 -0.0541883 -0.0614237 0.165485
nr_sv 6 6 6 6 6
SV
1 1 1 1 1:0.905818 2:0.431997 3:0.263301 6:0.889019 9:0.0209699 16:0.171485 17:0.0323112 20:0.0529624 21:0.222238 23:0.594618 25:0.0783278 26:0.494454 27:0.890052 28:0.132154 31:0.191266 33:0.0351891 34:0.0228328 36:0.0121335 38:0.620685 39:0.153915 41:0.0510517 44:0.0251706 45:0.00830881 46:1 48:0.0135059 51:0.0773487 53:0.0248272 54:0.113095 58:0.00597197 61:0.0464602 62:0.17926 64:0.0420482 65:0.227792 66:0.0230092 67:0.456713 68:0.028656 69:0.00510244 70:0.037535 73:1 79:0.0322491 84:0.191126 85:0.597807 86:0.0811518 88:0.0338997 90:0.467642 92:0.4817 95:0.0936096 96:0.140864 97:0.181802 98:0.00458759 
1 1 1 1 2:0.570915 3:0.073331 6:0.0346636 12:0.00379506 16:0.445757 23:0.586954 26:0.0116844 27:0.962262 28:0.0343521 32:0.0564874 34:0.0771565 37:0.0499823 44:0.0785138 45:0.00647936 46:0.45463 47:0.136061 52:0.026392 54:0.0988831 56:0.543466 58:0.0698556 60:0.0159199 62:0.227806 65:0.659211 68:0.0670394 69:0.00397897 70:0.0512232 73:0.72344 78:0.00870221 83:0.00429546 85:1 89:0.029943 90:1 92:0.262946 95:0.0145997 97:0.220535 98:0.0357749 99:0.427652 
1 1 1 1 1:0.0374305 2:0.221839 4:0.100604 9:0.0147309 12:0.0205121 14:0.60656 16:0.16062 23:0.544605 26:0.0105256 27:0.808283 32:0.015729 34:0.0320791 37:0.748548 43:0.0204474 46:0.22468 47:0.171594 54:0.630755 56:0.108648 57:0.00989883 58:0.247516 60:0.0430232 61:0.538518 62:0.116599 65:0.6593 68:0.347247 69:0.13979 70:0.00659189 73:0.547312 78:0.00783917 85:0.793784 87:0.0058651 90:0.678609 92:0.389142 95:0.0328795 97:0.127712 98:0.206252 99:0.264853 
1 1 0.8566250928628858 1 2:0.388828 4:0.793188 5:0.0372879 6:0.424167 9:0.0513079 14:0.025352 16:0.272728 20:0.00647929 23:1 26:0.0329946 27:0.669786 28:0.0485024 32:0.00504704 34:1 37:0.70571 38:1 43:0.0106828 44:0.0184759 45:0.0365932 46:0.701337 47:0.128071 54:0.397462 56:0.0752431 57:0.0792989 59:0.00541138 62:0.175441 64:0.0176368 65:0.247661 66:0.00562977 67:0.125715 68:0.047327 69:1 70:0.0137758 73:0.54241 78:0.0573383 79:0.00789051 85:0.0120456 89:0.0169108 90:0.0064709 92:0.618766 93:0.011007 96:0.0103397 97:0.637581 98:0.104389 99:0.0125794 
1 1 0.3636267774353969 1 2:0.325154 3:0.0216908 4:0.427941 6:0.307598 12:0.0112255 14:0.756842 16:0.362594 20:0.0101805 23:0.555575 25:0.0301124 26:0.0172808 27:1 28:0.0762086 32:0.0638351 34:0.12289 37:0.341891 38:0.0303326 40:0.0247472 43:0.151067 44:0.0580597 46:0.513627 47:0.040246 51:0.044604 53:0.0572675 54:1 56:0.0791734 62:0.160801 64:0.0138558 65:0.739165 67:0.043895 68:0.0247873 69:0.0765021 73:0.63919 74:0.00755998 78:0.0900919 85:0.0892251 87:0.115551 88:0.0195487 90:0.168024 92:1 96:0.0812307 97:0.81541 98:1 100:0.00519143 
1 1 1 1 1:0.0959216 2:0.133798 3:0.0225713 4:1 6:0.360095 9:0.151001 14:1 16:0.30871 19:0.657814 20:0.0582655 23:0.763309 24:0.00978096 26:0.139363 27:0.932557 30:0.0704083 32:0.0248052 33:0.00422319 34:0.269458 35:0.00276284 37:1 38:0.0220948 43:0.0261999 45:0.00498588 46:0.0898895 47:0.460676 48:0.0891493 52:0.152315 54:0.896634 56:0.0105252 58:0.0143344 59:0.0840531 61:0.0278794 62:0.131472 64:0.0360456 65:0.634399 66:0.0322167 67:0.205546 68:0.0128968 69:0.462336 70:0.0563092 72:0.0128235 73:0.204843 78:0.100445 80:0.0116772 83:0.0264429 84:0.0127432 85:0.0196948 86:0.0162322 90:0.0666429 91:0.0194205 92:0.505845 93:0.076486 97:0.533348 98:0.806595 99:0.0308512 
-1 1 1 1 1:0.0693127 2:0.103797 3:0.838799 5:0.0453129 6:0.487367 7:0.0144078 9:0.324741 13:0.00239492 16:0.743579 17:0.00600449 18:0.708788 19:0.674998 20:0.0393686 22:0.524487 23:0.00279746 24:0.551282 26:0.219969 27:0.0808803 29:0.0137885 31:0.0157971 32:0.0753824 33:0.0287729 36:0.374297 38:0.00195498 43:0.275867 45:0.345867 46:0.00300944 47:0.363146 48:0.752953 52:1 55:0.0631345 56:0.221561 57:0.0192033 58:0.270788 59:0.5754 60:0.500777 61:0.146775 63:0.0452419 64:0.122791 65:0.0297388 66:0.74115 67:0.0282909 68:0.119818 70:0.216233 72:0.107224 73:0.00746318 74:0.363001 75:0.00573343 76:0.0858063 78:0.588948 81:1 82:0.972502 83:0.632597 85:0.0209115 89:0.0256878 90:0.0185717 91:0.643524 92:0.0716128 94:0.71625 97:0.0976006 99:1 
-1 1 1 1 1:0.482026 2:0.0497611 3:1 6:0.369298 7:0.111648 8:0.157288 9:0.632344 10:0.151612 11:0.0198804 16:0.875927 17:0.0178961 18:0.0158241 20:0.0130374 22:0.620321 23:0.00833769 25:0.00964065 26:0.33472 27:0.172552 28:0.357847 29:1 30:0.0025485 31:0.423741 32:0.00912482 33:0.0103947 35:0.0119005 36:0.488346 41:0.135724 42:0.104196 43:0.048365 44:0.455411 45:0.524625 46:0.00298983 47:0.41232 48:0.44384 49:0.0879922 51:0.0357006 52:0.0624831 53:0.0366692 55:0.796585 56:0.150683 58:0.434408 59:0.0653315 60:0.248757 61:0.0171552 62:0.019612 63:0.0599295 64:0.12199 65:0.0496406 66:0.730656 67:0.1054 68:0.0476148 70:0.100482 71:0.0187458 72:0.0197269 73:0.014829 74:0.638979 75:0.00569606 76:0.0106559 78:0.642799 79:0.0119077 81:0.120136 83:0.459661 84:0.0156827 85:0.0545352 86:0.0499411 88:0.118914 89:0.00567121 90:0.0315241 91:0.872358 92:0.0978258 95:0.0622166 96:0.358891 97:0.111882 99:0.392333 
-1 1 1 1 1:0.0349556 2:0.00360038 3:0.468851 6:0.184688 7:0.0135634 9:0.531934 10:0.0168354 11:0.200154 12:0.00212843 15:0.00687553 16:1 17:0.0211972 20:0.0154423 22:0.715151 24:0.0427725 25:0.102771 26:0.0491483 27:0.170446 29:0.587363 30:0.0573536 31:0.0464728 32:0.005723 33:0.0738726 35:0.0503417 36:0.313093 41:0.0357243 42:0.0379743 43:0.152764 44:0.176136 45:0.610496 47:0.488377 48:0.761985 49:0.0501075 53:0.260599 55:0.921236 56:0.23575 58:0.621625 59:0.0322428 60:1 62:0.00290371 63:0.0532381 64:0.00788143 65:0.0263078 66:0.992902 67:0.249683 68:0.0689307 70:0.0943927 71:0.0277545 72:0.032712 74:0.64504 75:0.0134935 76:0.0694183 77:0.033209 78:0.668639 79:0.141043 80:0.0680865 81:0.33096 83:0.373407 84:0.0650141 85:0.0430628 86:0.201122 90:0.0759567 91:0.877575 92:0.0948033 94:0.043898 95:0.0245644 96:0.0184822 97:0.0441735 99:0.779501 
-1 1 1 1 1:0.024123 2:0.0273265 3:0.834428 5:0.00919937 6:0.150932 7:0.0421206 8:0.0335392 9:1 11:0.0243753 13:0.0204209 16:0.46582 17:0.0585129 18:0.950689 19:1 20:0.0119888 21:0.050307 22:0.324512 24:0.701037 26:0.0915767 27:0.0340673 28:0.00997173 31:0.0481065 32:0.0209487 33:0.0254898 35:0.0396046 36:0.42847 37:0.00362722 39:0.0557457 42:0.00982734 43:0.408513 45:0.379927 46:0.0128304 47:0.489747 48:0.324069 49:0.00622427 52:0.79675 55:0.0153809 56:0.196661 57:0.00850608 58:0.127073 59:0.397177 60:0.0184849 61:0.199822 62:0.00300579 64:0.0625485 66:0.538209 67:0.155076 68:0.366499 70:0.0212415 72:0.0290246 73:0.0545456 74:0.459981 76:0.0587932 78:0.762873 80:0.01762 81:0.498169 82:1 83:1 85:0.135853 86:0.0244931 89:0.0312905 90:0.0539227 91:1 92:0.010904 94:0.427145 96:0.00637733 97:0.146324 99:0.962074 
-1 1 1 1 1:0.433217 2:0.0241754 3:0.98419 6:0.144562 7:0.00229221 8:0.476378 9:0.498048 11:0.0716318 15:0.069718 16:0.515451 17:0.0620937 20:0.0469753 22:1 25:0.0154385 26:0.0708784 27:0.0410078 28:0.175823 29:0.552809 30:0.0163246 31:0.622029 32:0.0131273 33:0.024969 35:0.00408371 36:0.685175 39:0.0273032 41:0.0784864 42:0.0128353 43:0.0430285 44:0.394413 45:0.474108 47:0.495214 48:0.966318 49:0.0216785 51:0.154361 55:0.637821 56:0.152487 58:0.460828 59:0.0632087 60:0.736357 61:0.00686803 62:0.0235549 63:0.143956 64:0.0248633 65:0.031995 66:1 67:0.0843931 68:0.0444791 70:0.10265 71:0.191373 72:0.0126362 73:0.00474942 74:1 75:0.0182433 76:0.0341284 77:0.0149662 78:0.867707 79:0.101701 80:0.109313 81:0.155638 83:0.491818 84:0.276255 85:0.0159415 86:0.0559828 88:0.215484 89:0.00227046 90:0.0646722 91:0.755903 92:0.135295 95:0.0110704 96:0.191575 97:0.0597225 99:0.461074 
-1 1 0.63544442241349 1 1:0.0697049 2:0.0174465 3:0.848822 6:0.0436129 7:0.644051 8:0.0242284 9:0.146307 11:0.0704342 16:0.710399 20:0.392616 22:0.161167 26:0.0686046 27:0.106796 29:0.165012 30:0.00451455 31:0.0695037 32:0.00332327 33:0.0736546 35:0.255985 36:1 43:0.0190392 44:0.016464 45:1 46:0.00794451 47:0.365202 48:0.291528 49:0.551555 53:0.0974364 55:1 56:0.0662316 58:1 59:0.0144664 60:0.0133533 62:0.0260563 64:0.0157163 65:0.11123 66:0.953183 67:0.211605 68:0.0328017 70:0.0613788 73:0.00788067 74:0.505934 75:0.0403611 77:0.115888 78:1 79:0.00703132 81:0.0286942 83:0.590885 84:0.0138905 85:0.010734 88:0.0443474 90:0.00754882 91:0.333412 92:0.0630156 97:0.171768 99:0.638948 
-1 -1 1 1 1:0.741045 2:0.173484 3:0.107702 6:0.418197 7:0.951412 8:1 9:0.0686212 10:0.356904 11:0.0220234 16:0.631313 17:0.0132168 20:0.794351 25:0.790313 26:0.269674 27:0.625484 28:0.342364 29:0.0910517 31:0.173859 32:0.00244932 33:0.40879 35:0.316399 36:0.00992636 38:0.00430321 41:0.0668242 42:0.230857 43:0.071438 44:0.370655 47:0.399671 48:0.0110491 49:0.517381 51:0.174016 52:0.318405 53:0.142177 56:0.0109312 57:0.0153707 58:0.146569 59:0.0542805 60:0.517741 61:0.0190044 62:0.152083 64:0.39805 65:0.658888 67:0.280227 68:0.738465 70:0.798386 71:0.124599 72:0.00874136 73:0.0657102 75:0.656249 76:0.0354138 77:0.0207063 78:0.200846 79:0.105531 80:0.0159199 81:0.00299071 82:0.305803 83:0.0135189 85:0.053701 86:0.442598 87:0.0136608 88:0.332799 90:0.131501 92:0.413781 95:0.41354 96:0.702961 97:0.165257 99:0.0140201 
-1 -1 1 1 1:0.126247 2:0.118361 3:0.144822 5:0.517553 6:0.394949 7:0.541905 9:0.00414038 12:0.00576531 15:0.0558714 16:0.152365 17:0.0287087 18:0.799615 19:0.930391 20:0.277115 22:0.0663405 23:0.00445839 24:0.444124 25:0.0309308 26:0.745519 27:0.320777 29:0.0131851 30:0.00408827 31:0.0125881 32:0.0722503 33:0.0625311 35:0.169088 37:0.0142372 38:0.0342727 39:0.273507 41:0.00604793 43:1 44:0.238551 45:0.0098432 46:0.00959248 47:0.516747 48:1 49:0.119439 50:0.00267794 51:0.137449 52:0.922159 53:0.014706 54:0.01015 56:0.228455 57:0.022258 58:0.0955099 59:1 60:0.120925 61:0.866879 62:0.0825857 63:0.0240344 64:0.366483 65:0.703004 66:0.0408874 67:0.665048 68:0.0891132 70:0.333499 72:1 73:0.116564 76:1 78:0.11237 79:0.00636739 81:0.0974427 82:0.583728 83:0.00326275 84:0.150947 85:0.0458251 86:0.0480691 87:0.0148365 88:0.0602399 89:0.0864276 90:0.0924767 91:0.00479253 92:0.413724 94:0.392395 96:0.0417192 97:0.0717917 98:0.013587 99:0.101511 100:0.0159975 
-1 -1 1 1 1:0.539351 2:0.0143561 3:0.401326 6:0.182411 7:0.500569 8:0.830948 9:0.00382456 10:0.554631 11:0.471344 15:0.395674 16:0.250209 17:0.132594 20:0.734122 21:0.0405327 25:1 26:0.315631 27:0.229663 28:0.940011 29:0.00405977 31:1 32:0.00691682 33:0.331164 35:0.229246 36:0.152694 39:0.0336859 41:1 42:0.736368 43:0.0557419 44:0.908964 45:0.00454619 46:0.011076 47:0.458236 48:0.184744 49:0.173015 51:0.201027 53:0.502617 55:0.011618 56:0.198117 58:0.0653515 60:0.0781905 61:0.0762622 62:0.0726535 63:0.488425 64:0.203774 65:0.505663 66:0.0125895 67:0.71844 68:0.0705564 70:0.646926 71:1 72:0.00584633 73:0.0769087 74:0.00358655 75:0.565515 76:0.0789504 77:0.304671 78:0.305291 79:0.852845 80:0.276833 81:0.00600067 84:0.569349 85:0.0243715 86:0.902846 87:0.00456825 88:0.556448 90:0.0605014 92:0.276741 95:0.22024 96:0.408492 97:0.0221052 99:0.0375074 100:0.00246288 
-1 -1 1 1 1:0.0599348 2:0.284582 3:0.0705168 5:0.0304753 6:1 7:1 8:0.0138883 9:0.0366918 12:0.0145977 16:0.364353 17:0.0121149 18:0.257094 19:0.134964 20:0.344205 22:0.0167973 23:0.0225772 24:0.110006 25:0.0783163 26:1 27:0.497389 29:0.0222562 30:0.0103514 32:0.118595 33:0.485538 35:0.504084 38:0.0276111 40:0.010727 42:0.0162777 43:0.240102 46:0.03036 47:0.444854 48:0.0708954 49:0.319601 52:0.114206 53:0.148941 56:0.325041 57:0.0035223 58:0.322439 59:0.281946 60:0.153089 61:0.3484 62:0.139403 63:0.0304274 64:1 65:0.70505 66:0.00575146 67:0.841945 68:0.633922 70:0.218141 71:0.095176 72:0.240377 73:0.0451739 74:0.0294929 76:0.292151 78:0.242678 80:0.0145927 81:0.00548274 82:0.637066 85:0.01758 86:0.202849 89:0.207315 90:0.0695248 92:0.379283 94:0.677407 95:0.0140394 97:0.121184 99:0.0514051 
-1 -1 1 1 1:0.594864 2:0.0102764 3:0.0190879 6:0.315801 7:0.645241 8:0.0375939 9:0.0922255 11:0.0273222 15:0.287197 16:0.377097 17:0.0983804 20:0.869005 21:0.0751851 22:0.090936 25:0.980461 26:0.653906 27:0.649779 28:0.044709 29:0.263569 31:0.323534 32:0.011105 33:1 35:1 36:0.0985169 39:0.0937271 41:0.238342 47:0.460413 48:0.16449 49:1 51:0.0392516 53:0.201582 56:0.0382557 58:0.266689 59:0.00748224 60:0.352235 62:0.134767 63:0.0411814 64:0.201186 65:0.689911 67:0.444216 68:0.0436256 70:1 71:0.18034 73:0.024456 74:0.00665279 75:0.187878 77:0.0513765 78:0.0113258 79:0.327302 80:0.0197502 83:0.0055905 84:0.452615 85:0.0380693 86:0.439268 90:0.036266 92:0.048889 95:0.0380027 96:0.0285932 97:0.225519 
-1 -1 1 1 1:1 2:0.108982 3:0.0770107 6:0.242687 7:0.423291 8:0.0252789 9:0.0333924 10:0.157622 11:0.165348 15:0.439878 16:0.273073 17:0.264612 20:1 22:0.0917208 25:0.623645 26:0.986767 27:0.290871 28:0.240506 29:0.0759556 30:0.00471029 31:0.464107 32:0.0628067 33:0.485104 35:0.16025 36:0.0165612 39:0.252097 41:0.578354 42:0.711072 43:0.119188 44:0.498158 45:0.0113408 46:0.0193409 47:0.619185 48:0.0184344 49:0.146994 51:0.0923777 52:0.0692909 53:0.576077 55:0.00579641 56:0.269487 57:0.0128222 58:0.321974 59:0.070437 60:0.222917 61:0.443901 62:0.086089 63:0.110765 64:0.483734 65:0.597942 67:1 68:0.303126 70:0.320201 71:0.407101 72:0.145841 73:0.0465933 74:0.0268408 75:0.147389 76:0.0590844 77:0.656384 78:0.0304629 79:0.740955 80:0.172646 82:0.0231911 83:0.00751833 84:1 85:0.0639965 86:0.627666 88:0.219784 89:0.0209637 90:0.0828034 92:0.37805 95:0.0319423 96:0.163427 97:0.0413575 99:0.0701737 
-1 -1 -1 1 1:0.476292 2:0.00122877 3:0.235796 5:0.594441 6:0.479901 8:0.430004 9:0.0227207 10:0.533263 11:0.975049 15:0.646046 16:0.145988 17:0.521384 18:0.62685 19:0.440661 21:0.498787 22:0.930924 24:0.552523 25:0.472832 26:0.0469641 27:0.0718715 28:0.654577 29:0.160212 30:0.00160248 31:0.661178 32:0.013001 33:0.0081701 35:0.00106899 36:0.0197199 39:0.450268 41:0.376926 42:0.781174 43:0.82111 44:0.86492 45:0.162046 46:0.000939991 47:0.61575 48:0.282217 51:0.978744 52:0.553972 53:0.835822 55:0.00394397 56:0.137332 58:0.00138656 59:0.383411 60:0.331791 61:0.372151 62:0.0154148 63:0.452197 64:0.0153413 65:0.0529145 66:0.0641065 67:0.450664 70:0.0413951 71:0.539263 72:0.503607 73:0.0027973 74:0.0289163 75:0.494265 76:0.482424 77:0.575897 78:0.0259094 79:0.499164 80:0.772597 81:0.0390434 82:0.844208 83:0.0268569 84:0.266249 85:0.00163291 86:0.960917 88:0.771332 89:0.014264 91:0.0507203 92:0.318743 94:0.871569 95:0.536831 96:0.61813 99:0.67642 100:0.00418037 
-1 -1 -1 1 1:0.230506 2:6.03644e-05 3:0.162721 5:0.871049 6:0.571061 7:0.00203273 8:0.18452 9:0.00916325 10:0.121109 11:0.966958 15:0.436901 16:0.0149869 17:0.698898 18:1 19:0.274544 20:0.0324004 21:0.796319 22:0.581412 24:1 25:0.403879 26:0.0923179 27:0.132369 28:0.802697 29:0.167301 30:0.00361917 31:0.663053 32:0.0344513 33:0.0055356 36:0.0858928 37:0.00210059 38:0.0013791 39:0.573025 41:0.366746 42:0.785384 43:0.789861 44:0.844715 45:0.145955 46:0.00212295 47:0.530646 48:0.113313 51:0.988629 52:0.244016 53:0.943845 55:0.0111342 56:0.0673705 58:0.0109603 59:0.19522 60:0.321148 61:0.3228 62:0.0348141 63:1 64:0.017324 65:0.108809 66:0.0281523 67:0.86315 70:0.132854 71:0.352728 72:0.423018 73:0.00105295 74:0.0292163 75:0.461075 76:0.465327 77:0.729958 78:0.0117031 79:0.535493 80:1 81:0.0134185 82:0.757306 83:0.0332162 84:0.295092 85:0.00184394 86:1 88:0.919904 89:0.0181209 90:0.0147546 91:0.0360623 92:0.353623 94:1 95:0.380415 96:0.480119 97:0.0158885 99:0.826744 100:0.00118016 
-0.2202518702982826 -0.63544442241349 -1 0.01048513544766125 1:0.873217 2:0.00135143 3:0.479447 5:0.209669 6:0.329161 8:0.755419 9:0.00848537 10:1 11:1 15:1 16:0.0902081 17:0.549134 18:0.421391 19:0.317792 20:0.0021431 21:0.818345 22:0.500329 24:0.316589 25:0.526139 26:0.0600238 28:1 29:0.203562 31:0.887461 32:0.0219419 33:0.0256305 36:0.00589175 39:0.590426 41:0.399109 42:0.964438 43:0.24381 44:0.959448 45:0.0605184 46:0.000982945 47:0.686249 48:0.0819766 51:1 52:0.221856 53:0.95841 55:0.00206211 56:0.0216822 58:0.0217489 59:0.0429572 60:0.307302 61:0.868558 62:0.0322386 63:0.807804 64:0.0335432 65:0.0595057 66:0.0279318 67:0.48512 68:0.00347867 70:0.125304 71:0.468382 72:0.142681 73:0.0126756 74:0.00795731 75:1 76:0.210196 77:0.90947 78:0.00541869 79:0.493269 80:0.737035 82:0.412519 83:0.0133734 84:0.623862 86:0.728996 88:1 89:0.00186448 90:0.0267464 91:0.00392876 92:0.228054 94:0.453262 95:1 96:0.885778 97:0.0196175 99:0.757263 100:0.00437141 
-1 -1 -1 1 1:0.61986 2:0.00361931 3:0.350889 5:0.225237 6:0.61956 8:0.552865 9:0.00153427 10:0.726634 11:0.768161 15:0.507244 16:0.0439139 17:1 18:0.672569 19:0.800866 20:0.0445628 21:1 22:0.471998 23:0.00660843 24:0.461525 25:0.58455 26:0.0986645 27:0.0189975 28:0.957247 29:0.107489 30:0.00302991 31:0.797662 32:0.0270865 33:0.0401641 35:0.00404241 36:0.0319592 39:1 41:0.466155 42:0.981501 43:0.252365 44:1 45:0.0583602 46:0.020439 47:0.589779 48:0.0622544 51:0.912554 52:0.739147 53:0.615793 55:0.00186428 56:0.0221808 58:0.0235949 59:0.0728178 60:0.31367 61:0.392618 62:0.0510051 63:0.846094 64:0.0435102 65:0.109098 66:0.0488209 67:0.989942 68:0.00314495 70:0.107104 71:0.398375 72:0.239223 73:0.00528905 74:0.00863273 75:0.755082 76:0.145691 77:1 78:0.0097977 79:0.542688 80:0.657788 81:0.00722172 82:0.708595 83:0.00604525 84:0.484771 85:0.00102915 86:0.469061 88:0.833378 89:0.0084281 90:0.0175253 92:0.211463 94:0.431811 95:0.766402 96:0.853366 97:0.0133017 99:0.677093 100:0.000988017 
-1 -1 -1 1 1:0.621228 2:0.00138222 3:0.336988 5:1 6:0.218212 8:0.390947 9:0.00514708 10:0.255106 11:0.911857 15:0.49777 16:0.0420915 17:0.567055 18:0.841514 19:0.401598 20:0.0281662 21:0.409116 22:0.362871 23:0.00184746 24:0.480094 25:0.44219 26:0.038616 27:0.0808864 28:0.875814 29:0.107451 31:0.719846 32:0.0395047 36:0.00893458 39:0.324897 41:0.408501 42:0.84715 43:0.610855 44:0.648711 45:0.108089 46:0.00397493 47:0.496781 48:0.195588 51:0.835358 52:0.481809 53:0.737359 56:0.0699712 58:0.0219874 59:0.229809 60:0.450979 61:0.416237 62:0.0505181 63:0.577645 64:0.0457065 65:0.0721217 66:0.0150604 67:0.719319 68:0.00175841 70:0.0621879 71:0.657322 72:0.49306 73:0.00394299 74:0.00482677 75:0.469516 76:0.630425 77:0.838689 78:0.0191734 79:1 80:0.69736 81:0.00269189 82:0.884133 83:0.00946409 84:0.479547 85:0.00230169 86:0.730357 88:0.628217 89:0.00188494 90:0.0231166 91:0.0139015 92:0.384261 94:0.77851 95:0.493997 96:0.739911 97:0.00991638 99:0.824463 100:0.00331453 
-1 -1 -1 1 1:0.60361 3:0.411905 4:0.00655495 5:0.30436 6:0.167851 7:0.00585528 8:0.424274 9:0.0035193 10:0.778462 11:0.975882 15:0.850868 16:0.129509 17:0.471775 18:0.577178 19:0.527215 21:0.494192 22:0.687943 23:0.00189479 24:0.233887 25:0.670419 26:0.0282896 27:0.0622699 28:0.94261 29:0.30633 31:0.71154 32:0.0353639 33:0.0159453 35:0.00231812 36:0.0152725 39:0.457209 41:0.555195 42:1 43:0.278447 44:0.880765 45:0.0439249 46:0.00917271 47:0.597354 48:0.122399 49:0.00115366 51:0.924908 52:0.178917 53:1 55:0.00427628 56:0.0454654 58:0.0120271 59:0.139191 60:0.519064 61:1 62:0.0434555 63:0.786517 64:0.0529261 65:0.0141442 66:0.0115847 67:0.522172 70:0.0992151 71:0.645405 72:0.266296 73:0.003033 74:0.0280524 75:0.687365 76:0.203417 77:0.860173 78:0.0196647 79:0.85784 80:0.587856 81:0.000920284 82:0.222419 83:0.00693328 84:0.61479 85:0.00177049 86:0.858023 88:0.785119 89:0.00193323 90:0.0327119 91:0.00611043 92:0.357726 94:0.404281 95:0.659829 96:1 99:0.871468 100:0.00113315 
-1 -1 -1 -1 2:0.59691 3:0.0173857 6:0.0205456 12:0.368899 13:0.154874 16:0.0528414 23:0.0208737 26:0.027702 27:0.596774 30:0.23607 32:0.866404 34:0.0633208 35:0.00425618 38:0.0145874 40:0.70085 44:0.442094 45:0.0230424 47:1 50:0.179709 56:1 57:0.282234 58:0.0772881 62:0.638292 65:1 67:0.140731 68:1 69:0.00471678 70:0.00867449 73:0.037125 78:0.103158 82:0.125654 83:0.213862 85:0.199377 87:0.316441 89:0.638912 90:0.0983222 92:0.512085 93:0.0901034 97:0.0560202 100:0.399461 
-1 -1 -1 -0.01048513544766125 2:0.0168071 4:0.013713 6:0.444785 12:0.820145 13:0.183251 14:0.0363785 16:0.0903116 27:0.0773262 30:0.218092 32:0.937582 34:0.336691 37:0.194092 38:0.0443225 40:0.760884 47:0.44106 50:1 56:0.0241515 57:0.846 62:1 65:0.731106 69:0.193475 70:0.00988376 83:0.0116036 87:0.694728 89:0.493409 90:0.00379688 92:0.101473 93:0.663369 97:1 100:0.251279 
-1 -1 -1 -1 2:0.500957 3:0.0242214 4:0.0503018 6:0.400734 7:0.0149775 9:0.0630154 11:0.0346702 12:0.441865 13:1 14:0.00556013 16:0.110426 20:0.0056841 24:0.020992 26:0.0337696 27:0.228521 30:1 31:0.0136848 32:0.506518 33:0.00453193 34:0.191137 38:0.00338715 40:0.502023 43:0.0187435 44:0.632125 45:0.0214015 46:0.00260705 47:0.404472 48:0.00869697 50:0.302769 51:0.161876 53:0.0479614 55:0.00273464 56:0.0989675 57:0.278267 58:0.115367 62:0.427527 64:0.0348126 65:0.655693 66:0.00493884 67:0.0245081 68:0.0415187 69:0.0361423 70:0.0845959 73:0.0025861 78:0.100603 82:0.350116 83:0.017735 85:0.00150961 86:0.0174189 87:1 89:0.262092 90:0.00738507 93:0.81112 94:0.0646332 96:0.00907077 97:0.598354 100:1 
-1 -1 -1 -1 1:0.0273166 2:1 3:0.0192836 6:0.0227885 12:0.573836 13:0.165174 16:0.322354 26:0.0230446 27:0.222265 30:0.3963 32:0.663646 34:0.00780371 40:0.579354 44:0.567782 46:0.0498138 47:0.572473 50:0.301309 51:0.039654 56:0.624452 57:0.313045 58:0.428627 60:0.0627962 61:0.0238186 62:0.823699 64:0.00615905 65:0.858573 68:0.727203 70:0.0288644 73:0.00823556 78:0.045768 82:0.592324 83:0.0451826 85:0.0168261 86:0.0277357 87:0.24826 88:0.260689 89:1 90:0.0564999 92:0.617378 93:0.0538137 94:0.0411656 96:0.0144432 97:0.082848 100:0.429223 
-1 -1 -1 -1 2:0.0597596 6:0.0470822 12:1 13:0.0204754 14:0.00914564 27:0.00657975 30:0.0584838 32:1 34:0.0967369 37:0.076375 40:1 44:0.0799815 46:0.00428822 47:0.554416 50:0.775755 54:0.0145198 56:0.00840639 57:1 58:0.101207 60:0.086493 62:0.893092 65:0.800551 68:0.432518 69:0.059449 70:0.0198784 73:0.0297763 75:0.0326789 82:0.0359932 83:0.128355 85:0.0521451 87:0.406793 89:0.943547 90:0.0789504 92:0.535722 93:0.174714 97:0.192563 99:0.0181519 100:0.200243 
-1 -1 -1 -1 2:0.324659 3:0.0385905 6:0.20522 12:0.264623 13:0.634651 16:0.146613 18:0.065951 24:0.0167226 27:0.173006 30:0.339891 32:0.968287 34:0.14836 35:0.014171 37:0.0246594 40:0.697111 43:0.0447943 44:0.826362 47:0.680222 50:0.589066 51:0.317424 53:0.0509429 55:0.00435693 56:0.293235 57:0.202397 58:0.0367616 62:0.912746 65:0.746758 67:0.097618 68:0.110249 69:0.0104697 70:0.00962726 73:0.00412027 78:0.183182 82:0.278909 83:0.0621635 85:0.00240518 87:0.985068 88:0.0521692 89:0.567271 90:0.00362064 92:0.02471 93:1 94:0.123571 97:0.974049 100:0.461808 
