svm_type c_svc
kernel_type rbf
gamma 0.01
nr_class 5
total_sv 30
rho -0.000879169 -0.00128147 -0.00117648 -0.00119662 -0.0001311 -0.000419468 -0.00016287 2.37823e-05 0.000184298 0.000310868
label 1 2 3 4 5
probA 1.37013 1.35307 0.975452 1.3521 0.969389 0.50621 1.35294 0.969898 0.505326 0.975322
probB 0.577156 0.252382 -0.341351 -0.2513 0.000175556 0.000130806 -0.251961 0.000288685 -6.19701e-06 -0.342298
nr_sv 6 6 6 6 6
SV
1 1 1 1 1:0.02 2:0.0441176 3:0.00823529 6:0.0235294 9:0.00176471 16:0.00352941 17:0.00117647 20:0.00352941 21:0.00352941 23:0.0464706 25:0.00176471 26:0.0388235 27:0.0570588 28:0.00352941 31:0.00529412 32:0.00117647 33:0.00294118 34:0.00176471 36:0.000588235 38:0.0694118 39:0.00294118 41:0.00294118 44:0.000588235 45:0.000588235 46:0.145294 48:0.000588235 51:0.00235294 53:0.000588235 54:0.0194118 56:0.000588235 58:0.000588235 61:0.00117647 62:0.0158824 64:0.00411765 65:0.0211765 66:0.00176471 67:0.0141176 68:0.00235294 69:0.000588235 70:0.00235294 73:0.146471 79:0.00176471 84:0.00529412 85:0.15 86:0.00176471 88:0.00117647 90:0.0858824 92:0.0117647 95:0.00588235 96:0.00588235 97:0.00529412 98:0.000588235 
1 1 1 1 2:0.0582569 3:0.00229358 6:0.000917431 12:0.000458716 16:0.00917431 23:0.0458716 26:0.000917431 27:0.0614679 28:0.000917431 32:0.00733945 34:0.0059633 37:0.00366972 44:0.00183486 45:0.000458716 46:0.066055 47:0.00229358 52:0.000917431 54:0.0169725 56:0.0431193 58:0.00688073 60:0.000458716 62:0.0201835 65:0.0582569 68:0.00550459 69:0.000458716 70:0.00321101 73:0.105963 78:0.000458716 83:0.000458716 85:0.250917 89:0.00229358 90:0.183028 92:0.00642202 95:0.000917431 97:0.00642202 98:0.00458716 99:0.0146789 
1 1 1 1 1:0.000826446 2:0.0227273 4:0.00909091 9:0.00123967 12:0.00247934 14:0.0413223 16:0.00330579 23:0.042562 26:0.000826446 27:0.0520661 32:0.00289256 34:0.00247934 37:0.0549587 43:0.000826446 46:0.0326446 47:0.00289256 54:0.108264 56:0.00909091 57:0.00123967 58:0.0243802 60:0.00123967 61:0.0136364 62:0.0103306 65:0.0582645 68:0.0285124 69:0.0161157 70:0.000413223 73:0.0801653 78:0.000413223 85:0.199174 87:0.000413223 90:0.12438 92:0.00950413 95:0.00206612 97:0.00371901 98:0.0264463 99:0.00909091 
1 1 1 1 2:0.0397237 4:0.0716753 5:0.00215889 6:0.0112263 9:0.00431779 14:0.00172712 16:0.00561313 20:0.000431779 23:0.078152 26:0.00259067 27:0.0436097 28:0.00129534 32:0.00172712 34:0.0772884 37:0.0518135 38:0.111831 43:0.000431779 44:0.000431779 45:0.00259067 46:0.1019 47:0.00215889 54:0.0682211 56:0.00647668 57:0.00993092 59:0.000431779 62:0.015544 64:0.00172712 65:0.0228843 66:0.000431779 67:0.00388601 68:0.00388601 69:0.115285 70:0.000863558 73:0.0794473 78:0.00302245 79:0.000431779 85:0.00302245 89:0.00129534 90:0.00172712 92:0.0151123 93:0.000863558 96:0.000431779 97:0.0185665 98:0.0133851 99:0.000431779 
1 1 1 1 2:0.0332429 3:0.000678426 4:0.0386703 6:0.00814111 12:0.00135685 14:0.0515604 16:0.00746269 20:0.000678426 23:0.0434193 25:0.000678426 26:0.00135685 27:0.0637721 28:0.00203528 32:0.00814111 34:0.00949796 37:0.0251018 38:0.00339213 40:0.00203528 43:0.00610583 44:0.00135685 46:0.0746269 47:0.000678426 51:0.00135685 53:0.00135685 54:0.171642 56:0.00678426 62:0.0142469 64:0.00135685 65:0.0651289 67:0.00135685 68:0.00203528 69:0.00881954 73:0.0936228 74:0.000678426 78:0.00474898 85:0.0223881 87:0.00814111 88:0.000678426 90:0.0312076 92:0.0244233 96:0.00339213 97:0.0237449 98:0.128223 100:0.000678426 
1 1 1 1 1:0.0021179 2:0.0137663 3:0.000705965 4:0.0903636 6:0.00953053 9:0.0127074 14:0.0681257 16:0.00635369 19:0.0236498 20:0.00388281 23:0.0596541 24:0.000352983 26:0.0109425 27:0.0596541 30:0.00600071 32:0.00388281 33:0.000352983 34:0.020826 35:0.000352983 37:0.0734204 38:0.00247088 43:0.00105895 45:0.000352983 46:0.0130604 47:0.00776562 48:0.00388281 52:0.00529474 54:0.1539 56:0.00141193 58:0.00141193 59:0.00670667 61:0.000705965 62:0.0116484 64:0.00352983 65:0.0561243 66:0.00247088 67:0.00635369 68:0.00105895 69:0.0533004 70:0.00352983 72:0.000705965 73:0.0300035 78:0.00529474 80:0.000352983 83:0.00282386 84:0.000352983 85:0.00494176 86:0.000352983 90:0.0127074 91:0.00141193 92:0.0123544 93:0.00600071 97:0.0155312 98:0.103424 99:0.00105895 
-1 1 1 1 1:0.00153039 2:0.0107127 3:0.0262352 5:0.00262352 6:0.012899 7:0.00109314 9:0.0273284 13:0.000218627 16:0.0153039 17:0.000218627 18:0.0194578 19:0.0242676 20:0.00262352 22:0.0137735 23:0.000218627 24:0.0198951 26:0.0172715 27:0.00765195 29:0.00109314 31:0.000437254 32:0.00940096 33:0.0024049 36:0.018146 38:0.000218627 43:0.01115 45:0.0244862 46:0.000437254 47:0.00612156 48:0.0327941 52:0.0347617 55:0.00874508 56:0.0179274 57:0.0024049 58:0.0266725 59:0.0459117 60:0.0144294 61:0.00371666 63:0.000655881 64:0.0120245 65:0.00415391 66:0.056843 67:0.000874508 68:0.00983822 70:0.0135549 72:0.00590293 73:0.00109314 74:0.0325754 75:0.000218627 76:0.00349803 78:0.031045 81:0.160909 82:0.0168343 83:0.0675557 85:0.00524705 89:0.00196764 90:0.00393529 91:0.0467862 92:0.00174902 94:0.0209882 97:0.00284215 99:0.0343244 
-1 1 1 1 1:0.0106429 2:0.00521286 3:0.0312771 6:0.00977411 7:0.00847089 8:0.00499566 9:0.0532146 10:0.00695048 11:0.000434405 16:0.0180278 17:0.000651607 18:0.000434405 20:0.00086881 22:0.0162902 23:0.000651607 25:0.000217202 26:0.0262815 27:0.0132493 28:0.00955691 29:0.0792789 30:0.000217202 31:0.0117289 32:0.00217202 33:0.00086881 35:0.00152042 36:0.0236751 41:0.00781929 42:0.00282363 43:0.00195482 44:0.0106429 45:0.0371416 46:0.000434405 47:0.00695048 48:0.019331 49:0.0112945 51:0.00108601 52:0.00217202 53:0.00086881 55:0.110339 56:0.0123805 58:0.0427889 59:0.00521286 60:0.00716768 61:0.000434405 62:0.00173762 63:0.00086881 64:0.0119461 65:0.00586447 66:0.0560382 67:0.00325804 68:0.00390964 70:0.00629887 71:0.00086881 72:0.00108601 73:0.00217202 74:0.0573414 75:0.000217202 76:0.000434405 78:0.0338836 79:0.000651607 81:0.019331 83:0.0490877 84:0.000434405 85:0.0136838 86:0.00108601 88:0.00412685 89:0.000434405 90:0.00629887 91:0.0634231 92:0.00238923 95:0.00390964 96:0.014987 97:0.00325804 99:0.0134666 
-1 1 1 1 1:0.000771803 2:0.000514536 3:0.0146643 6:0.00488809 7:0.00102907 9:0.0447646 10:0.000771803 11:0.00437355 12:0.000257268 15:0.000257268 16:0.0205814 17:0.000771803 20:0.00102907 22:0.0187805 24:0.00154361 25:0.00231541 26:0.00385902 27:0.0131207 29:0.0465655 30:0.00488809 31:0.00128634 32:0.00180087 33:0.00617443 35:0.0064317 36:0.0151788 41:0.00205814 42:0.00102907 43:0.00617443 44:0.00411629 45:0.043221 47:0.00823257 48:0.0331875 49:0.0064317 53:0.00617443 55:0.127605 56:0.0190378 58:0.0612297 59:0.00257268 60:0.028814 62:0.000257268 63:0.000771803 64:0.000771803 65:0.00385902 66:0.0761513 67:0.00771803 68:0.00565989 70:0.00591716 71:0.00128634 72:0.00180087 74:0.0578853 75:0.000514536 76:0.00282995 77:0.000771803 78:0.0352457 79:0.00771803 80:0.00205814 81:0.0532544 83:0.0398765 84:0.00180087 85:0.0108052 86:0.00437355 90:0.014407 91:0.0638024 92:0.00231541 94:0.00128634 95:0.00154361 96:0.000771803 97:0.00128634 99:0.0267559 
-1 1 1 1 1:0.000532623 2:0.00292943 3:0.0260985 5:0.000532623 6:0.00399467 7:0.00319574 8:0.00106525 9:0.0841545 11:0.000532623 13:0.00186418 16:0.00958722 17:0.00213049 18:0.0260985 19:0.0359521 20:0.000798935 21:0.000798935 22:0.00852197 24:0.0252996 26:0.00719041 27:0.00479361 28:0.000266312 31:0.00133156 32:0.00346205 33:0.00213049 35:0.00505992 36:0.0207723 37:0.000266312 39:0.00106525 42:0.000266312 43:0.0165113 45:0.0268975 46:0.00186418 47:0.00825566 48:0.0141145 49:0.000798935 52:0.0276964 55:0.00213049 56:0.0159787 57:0.00106525 58:0.0125166 59:0.0316911 60:0.000532623 61:0.00505992 62:0.000266312 64:0.00612517 65:0.00159787 66:0.0412783 67:0.00479361 68:0.0300932 70:0.00133156 72:0.00159787 73:0.00798935 74:0.0412783 76:0.0023968 78:0.040213 80:0.000532623 81:0.0801598 82:0.0173103 83:0.106791 85:0.0340879 86:0.000532623 89:0.0023968 90:0.0103862 91:0.0727031 92:0.000266312 94:0.0125166 96:0.000266312 97:0.00426099 99:0.0330226 
-1 1 1 1 1:0.00956522 2:0.0026087 3:0.0307826 6:0.00382609 7:0.000173913 8:0.0151304 9:0.041913 11:0.00156522 15:0.0026087 16:0.0106087 17:0.00226087 20:0.00313043 22:0.0262609 25:0.000347826 26:0.00556522 27:0.00521739 28:0.00469565 29:0.0438261 30:0.0013913 31:0.0172174 32:0.0026087 33:0.00208696 35:0.000521739 36:0.0332174 39:0.000521739 41:0.00452174 42:0.000347826 43:0.00173913 44:0.00921739 45:0.0335652 47:0.00834783 48:0.042087 49:0.00278261 51:0.00469565 55:0.0883478 56:0.0125217 58:0.0453913 59:0.00504348 60:0.0212174 61:0.000173913 62:0.00208696 63:0.00208696 64:0.00243478 65:0.00434783 66:0.0766957 67:0.0026087 68:0.00365217 70:0.00643478 71:0.00886957 72:0.000695652 73:0.000695652 74:0.0897391 75:0.000695652 76:0.0013913 77:0.000347826 78:0.0457391 79:0.00556522 80:0.00330435 81:0.0250435 83:0.0525217 84:0.00765217 85:0.004 86:0.00121739 88:0.00747826 89:0.000173913 90:0.0123478 91:0.0549565 92:0.00330435 95:0.000695652 96:0.008 97:0.00173913 99:0.0158261 
-1 1 1 1 1:0.00153905 2:0.00192382 3:0.0265487 6:0.00115429 7:0.0488649 8:0.000769527 9:0.0123124 11:0.00153905 16:0.014621 20:0.0261639 22:0.0042324 26:0.00538669 27:0.00923432 29:0.013082 30:0.000384763 31:0.00192382 32:0.00153905 33:0.00615621 35:0.0327049 36:0.0484802 43:0.000769527 44:0.000384763 45:0.0707965 46:0.00115429 47:0.00615621 48:0.0126972 49:0.0707965 53:0.00230858 55:0.138515 56:0.00577145 58:0.0984994 59:0.00115429 60:0.000384763 62:0.00230858 64:0.00153905 65:0.0111581 66:0.073105 67:0.00654098 68:0.00269334 70:0.00384763 73:0.00115429 74:0.0454021 75:0.00153905 77:0.00269334 78:0.0527126 79:0.000384763 81:0.00461716 83:0.0631012 84:0.000384763 85:0.00269334 88:0.00153905 90:0.00192382 91:0.0242401 92:0.00153905 97:0.00500192 99:0.0219315 
-1 -1 1 1 1:0.0163619 2:0.0178056 3:0.00336862 6:0.0110683 7:0.0721848 8:0.0317613 9:0.00577478 10:0.0163619 11:0.000481232 16:0.0129933 17:0.000481232 20:0.0529355 25:0.0178056 26:0.0211742 27:0.0409047 28:0.00914341 29:0.00721848 31:0.00481232 32:0.0014437 33:0.0341675 35:0.0404235 36:0.000481232 38:0.000481232 41:0.00384986 42:0.00625602 43:0.00288739 44:0.00866218 47:0.00673725 48:0.000481232 49:0.06641 51:0.00529355 52:0.0110683 53:0.00336862 56:0.0014437 57:0.00192493 58:0.014437 59:0.00433109 60:0.0149182 61:0.000481232 62:0.0134745 64:0.0389798 65:0.0582291 67:0.00866218 68:0.0606352 70:0.0500481 71:0.00577478 72:0.000481232 73:0.00962464 75:0.0250241 76:0.0014437 77:0.000481232 78:0.0105871 79:0.00577478 80:0.000481232 81:0.000481232 82:0.00529355 83:0.0014437 85:0.0134745 86:0.00962464 87:0.000962464 88:0.0115496 90:0.0245428 92:0.0101059 95:0.0259865 96:0.0293551 97:0.00481232 99:0.000481232 
-1 -1 1 1 1:0.00278746 2:0.0121951 3:0.00452962 5:0.0299652 6:0.010453 7:0.041115 9:0.000348432 12:0.000696864 15:0.00209059 16:0.00313589 17:0.0010453 18:0.0219512 19:0.0334495 20:0.0184669 22:0.00174216 23:0.000348432 24:0.0160279 25:0.000696864 26:0.0585366 27:0.0222997 29:0.0010453 30:0.000348432 31:0.000348432 32:0.00905923 33:0.00522648 35:0.0216028 37:0.0010453 38:0.00383275 39:0.00522648 41:0.000348432 43:0.0404181 44:0.00557491 45:0.000696864 46:0.00139373 47:0.0087108 48:0.043554 49:0.015331 50:0.000348432 51:0.00418118 52:0.0320558 53:0.000348432 54:0.00174216 56:0.0184669 57:0.00278746 58:0.00940767 59:0.0797909 60:0.00348432 61:0.0219512 62:0.00731707 63:0.000348432 64:0.0358885 65:0.0620209 66:0.00313589 67:0.0205575 68:0.00731707 70:0.0209059 72:0.0550523 73:0.0170732 76:0.0407666 78:0.00592334 79:0.000348432 81:0.0156794 82:0.0101045 83:0.000348432 84:0.00418118 85:0.0114983 86:0.0010453 87:0.0010453 88:0.00209059 89:0.00662021 90:0.0174216 91:0.000348432 92:0.0101045 94:0.0114983 96:0.00174216 97:0.00209059 98:0.00174216 99:0.00348432 100:0.00209059 
-1 -1 1 1 1:0.0119086 2:0.00160927 3:0.0125523 6:0.00482781 7:0.0379788 8:0.026392 9:0.000321854 10:0.0254265 11:0.0102993 15:0.0148053 16:0.00514966 17:0.00482781 20:0.0489218 21:0.000643708 25:0.0225298 26:0.0247827 27:0.0167364 28:0.0251046 29:0.000321854 31:0.0276794 32:0.00193112 33:0.0276794 35:0.0292887 36:0.00740264 39:0.000643708 41:0.0576118 42:0.0199549 43:0.00225298 44:0.0212424 45:0.000321854 46:0.00160927 47:0.00772449 48:0.00804635 49:0.0222079 51:0.00611522 53:0.0119086 55:0.00160927 56:0.0160927 58:0.00643708 60:0.00225298 61:0.00193112 62:0.00643708 63:0.00708079 64:0.0199549 65:0.0450595 66:0.000965562 67:0.0222079 68:0.00579337 70:0.0405536 71:0.046347 72:0.000321854 73:0.0112649 74:0.000321854 75:0.0215642 76:0.00321854 77:0.00708079 78:0.0160927 79:0.0466688 80:0.0083682 81:0.000965562 84:0.0157708 85:0.00611522 86:0.0196331 87:0.000321854 88:0.0193112 90:0.0115867 92:0.00675893 95:0.0138397 96:0.0170583 97:0.000643708 99:0.00128742 100:0.000321854 
-1 -1 1 1 1:0.00132333 2:0.0291134 3:0.00220556 5:0.00176445 6:0.0264667 7:0.0758712 8:0.000441112 9:0.00308778 12:0.00176445 16:0.0074989 17:0.000441112 18:0.00705779 19:0.00485223 20:0.0229378 22:0.000441112 23:0.00176445 24:0.00397 25:0.00176445 26:0.0785179 27:0.0330834 29:0.00176445 30:0.000882223 32:0.0141156 33:0.0405823 35:0.0644023 38:0.00308778 40:0.000882223 42:0.000441112 43:0.00970445 46:0.00441112 47:0.0074989 48:0.00308778 49:0.0410234 52:0.00397 53:0.00352889 56:0.0260256 57:0.000441112 58:0.03176 59:0.0224967 60:0.00441112 61:0.00882223 62:0.0123511 63:0.000441112 64:0.0979268 65:0.0621967 66:0.000441112 67:0.0260256 68:0.0520512 70:0.0136745 71:0.00441112 72:0.0132333 73:0.00661667 74:0.00264667 76:0.01191 78:0.0127922 80:0.000441112 81:0.000882223 82:0.0110278 85:0.00441112 86:0.00441112 89:0.01588 90:0.0132333 92:0.00926334 94:0.01985 95:0.000882223 97:0.00352889 99:0.00176445 
-1 -1 1 1 1:0.0131343 2:0.00119403 3:0.000597015 6:0.00835821 7:0.0489552 8:0.00119403 9:0.00776119 11:0.000597015 15:0.0107463 16:0.00776119 17:0.00358209 20:0.0579104 21:0.00119403 22:0.00238806 25:0.0220896 26:0.0513433 27:0.0423881 28:0.00119403 29:0.0208955 31:0.00895522 32:0.00238806 33:0.0835821 35:0.127761 36:0.00477612 39:0.00179104 41:0.0137313 47:0.00776119 48:0.00716418 49:0.128358 51:0.00119403 53:0.00477612 56:0.00358209 58:0.0262687 59:0.000597015 60:0.0101493 62:0.0119403 63:0.000597015 64:0.0197015 65:0.0608955 67:0.0137313 68:0.00358209 70:0.0626866 71:0.00835821 73:0.00358209 74:0.000597015 75:0.00716418 77:0.00119403 78:0.000597015 79:0.0179104 80:0.000597015 83:0.000597015 84:0.0125373 85:0.00955224 86:0.00955224 90:0.00716418 92:0.00119403 95:0.00238806 96:0.00119403 97:0.00656716 
-1 -1 1 1 1:0.0220795 2:0.0112405 3:0.00240867 6:0.00642312 7:0.0321156 8:0.00080289 9:0.00281012 10:0.00722601 11:0.00361301 15:0.0164593 16:0.00562023 17:0.00963468 20:0.0666399 22:0.00240867 25:0.0140506 26:0.0774789 27:0.0204737 28:0.00642312 29:0.00602168 30:0.000401445 31:0.0128462 32:0.0080289 33:0.040546 35:0.0204737 36:0.00080289 39:0.00481734 41:0.03332 42:0.0192694 43:0.00481734 44:0.0116419 45:0.00080289 46:0.00281012 47:0.0104376 48:0.00080289 49:0.0188679 51:0.00281012 52:0.00240867 53:0.0136491 55:0.00080289 56:0.021678 57:0.00160578 58:0.0317142 59:0.00562023 60:0.00642312 61:0.0112405 62:0.00762746 63:0.00160578 64:0.0473705 65:0.0529908 67:0.0309113 68:0.0248896 70:0.0200723 71:0.0188679 72:0.0080289 73:0.00682457 74:0.00240867 75:0.00562023 76:0.00240867 77:0.0152549 78:0.00160578 79:0.040546 80:0.00521879 82:0.000401445 83:0.00080289 84:0.0276997 85:0.0160578 86:0.0136491 88:0.00762746 89:0.00160578 90:0.0156564 92:0.00923324 95:0.00200723 96:0.00682457 97:0.00120434 99:0.00240867 
-1 -1 -1 1 1:0.0105163 2:0.000273149 3:0.00737503 5:0.0344168 6:0.0127014 8:0.0136575 9:0.00191205 10:0.0244469 11:0.0213057 15:0.0241737 16:0.00300464 17:0.0189839 18:0.0172084 19:0.0158427 21:0.00792133 22:0.0244469 24:0.0199399 25:0.0106528 26:0.00368752 27:0.00710188 28:0.0174816 29:0.0127014 30:0.000136575 31:0.018301 32:0.00259492 33:0.000682874 35:0.000136575 36:0.000956023 39:0.00860421 41:0.0217154 42:0.0211691 43:0.0331877 44:0.0202131 45:0.0114723 46:0.000136575 47:0.0103797 48:0.0122917 51:0.0297733 52:0.019257 53:0.0198033 55:0.000546299 56:0.0113357 58:0.000136575 59:0.0305927 60:0.00956023 61:0.00942365 62:0.00136575 63:0.00655559 64:0.00150232 65:0.00614586 66:0.00491669 67:0.0139306 70:0.00259492 71:0.0249932 72:0.0277247 73:0.000409724 74:0.00259492 75:0.0188473 76:0.0196668 77:0.0133843 78:0.00136575 79:0.0273149 80:0.0233543 81:0.00628244 82:0.0146135 83:0.00286807 84:0.00737503 85:0.000409724 86:0.0208959 88:0.0267686 89:0.0010926 90:0.000546299 91:0.00368752 92:0.00778476 94:0.0255395 95:0.033734 96:0.0258126 99:0.0232177 100:0.000546299 
-1 -1 -1 1 1:0.00508945 2:0.000154226 3:0.00508945 5:0.0504318 6:0.0151141 7:0.000154226 8:0.00586058 9:0.000771129 10:0.00555213 11:0.0211289 15:0.0163479 16:0.000308452 17:0.0254473 18:0.0274522 19:0.00987045 20:0.00215916 21:0.0126465 22:0.0152684 24:0.0360888 25:0.00909932 26:0.00724861 27:0.0107958 28:0.0214374 29:0.0132634 30:0.000308452 31:0.0183529 32:0.00493523 33:0.000462677 36:0.0041641 37:0.000154226 38:0.000154226 39:0.01095 41:0.0211289 42:0.0212832 43:0.0319247 44:0.0197409 45:0.0103331 46:0.000308452 47:0.0089451 48:0.00493523 51:0.030074 52:0.00848242 53:0.0223627 55:0.00154226 56:0.00586058 58:0.00107958 59:0.0155768 60:0.00925355 61:0.00817397 62:0.00308452 63:0.0144972 64:0.00169648 65:0.01095 66:0.00215916 67:0.0266811 70:0.00832819 71:0.0163479 72:0.0232881 73:0.000154226 74:0.00262184 75:0.0175817 76:0.0189698 77:0.0169648 78:0.000616903 79:0.0293029 80:0.0302283 81:0.00215916 82:0.0131092 83:0.00354719 84:0.00817397 85:0.000462677 86:0.0217458 88:0.0319247 89:0.00138803 90:0.00323874 91:0.00262184 92:0.00863664 94:0.0293029 95:0.023905 96:0.0200494 97:0.000462677 99:0.0283775 100:0.000154226 
-1 -1 -1 1 1:0.0192802 2:0.000285633 3:0.0149957 5:0.0121394 6:0.0087118 8:0.0239931 9:0.000714082 10:0.045844 11:0.0218509 15:0.0374179 16:0.00185661 17:0.0199943 18:0.0115681 19:0.0114253 20:0.000142816 21:0.0129963 22:0.0131391 24:0.0114253 25:0.0118538 26:0.00471294 27:0.00271351 28:0.0267067 29:0.0161382 31:0.0245644 32:0.00357041 33:0.00214225 36:0.000285633 39:0.0112825 41:0.0229934 42:0.0261354 43:0.00985433 44:0.0224222 45:0.00428449 46:0.000142816 47:0.0115681 48:0.00357041 51:0.0304199 52:0.00771208 53:0.0227078 55:0.000285633 56:0.00228506 58:0.00214225 59:0.00342759 60:0.00885461 61:0.0219937 62:0.00285633 63:0.0117109 64:0.00328478 65:0.00671237 66:0.00214225 67:0.0149957 68:0.000285633 70:0.0078549 71:0.0217081 72:0.0078549 73:0.00185661 74:0.000714082 75:0.038132 76:0.00856898 77:0.0211368 78:0.000285633 79:0.0269923 80:0.0222793 82:0.00714082 83:0.00142816 84:0.0172808 86:0.0158526 88:0.0347044 89:0.000142816 90:0.00542702 91:0.000285633 92:0.00556984 94:0.0132819 95:0.0628392 96:0.0369894 97:0.000571265 99:0.0259926 100:0.000571265 
-1 -1 -1 1 1:0.0136862 2:0.000516462 3:0.0109748 5:0.0130407 6:0.0163977 8:0.0175597 9:0.000129116 10:0.0333118 11:0.016785 15:0.01898 16:0.000903809 17:0.0364106 18:0.0184635 19:0.0287928 20:0.00296966 21:0.0158812 22:0.0123951 23:0.000516462 24:0.0166559 25:0.0131698 26:0.00774693 27:0.00387347 28:0.0255649 29:0.00852163 30:0.000258231 31:0.0220788 32:0.0041317 33:0.003357 35:0.000516462 36:0.00154939 39:0.0191091 41:0.026856 42:0.0265978 43:0.0102001 44:0.0233699 45:0.0041317 46:0.00296966 47:0.0099419 48:0.00271143 51:0.0277598 52:0.025694 53:0.0145901 55:0.000258231 56:0.00232408 58:0.00232408 59:0.0058102 60:0.00903809 61:0.0099419 62:0.00451904 63:0.012266 64:0.00426081 65:0.0109748 66:0.00374435 67:0.0306004 68:0.000258231 70:0.00671401 71:0.0184635 72:0.0131698 73:0.000774693 74:0.000774693 75:0.0287928 76:0.00593932 77:0.0232408 78:0.000516462 79:0.0296966 80:0.0198838 81:0.00116204 82:0.012266 83:0.000645578 84:0.013428 85:0.000258231 86:0.0102001 88:0.0289219 89:0.000645578 90:0.00374435 92:0.00516462 94:0.0126533 95:0.0481601 96:0.0356359 97:0.000387347 99:0.0232408 100:0.000129116 
-1 -1 -1 1 1:0.0137164 2:0.000288767 3:0.01054 5:0.0578978 6:0.00577534 8:0.012417 9:0.00043315 10:0.0116951 11:0.0199249 15:0.0186255 16:0.000866301 17:0.0206468 18:0.0231014 19:0.0144383 20:0.00187699 21:0.00649726 22:0.00952931 23:0.000144383 24:0.017326 25:0.00996246 26:0.00303205 27:0.00765232 28:0.0233901 29:0.00851863 31:0.0199249 32:0.00548657 36:0.00043315 39:0.00620849 41:0.0235345 42:0.022957 43:0.0246896 44:0.0151603 45:0.00765232 46:0.000577534 47:0.00837424 48:0.00851863 51:0.0254115 52:0.0167485 53:0.0174704 56:0.00606411 58:0.00216575 59:0.0183367 60:0.0129945 61:0.01054 62:0.00447589 63:0.00837424 64:0.00447589 65:0.00779671 66:0.00115507 67:0.0222351 68:0.000144383 70:0.00389835 71:0.0304649 72:0.0271441 73:0.000577534 74:0.00043315 75:0.0179036 76:0.0257003 77:0.0194918 78:0.00101068 79:0.0547213 80:0.02108 81:0.00043315 82:0.0153046 83:0.00101068 84:0.0132833 85:0.000577534 86:0.0158822 88:0.0218019 89:0.000144383 90:0.00476466 91:0.00101068 92:0.00938493 94:0.0228126 95:0.0310424 96:0.0308981 97:0.000288767 99:0.0282992 100:0.00043315 
-1 -1 -1 1 1:0.0133274 2:0.000148082 3:0.0128832 4:0.000592329 5:0.0176218 6:0.00444247 7:0.000444247 8:0.0134755 9:0.000296165 10:0.0356878 11:0.0213239 15:0.0318377 16:0.00266548 17:0.0171776 18:0.0158448 19:0.0189545 21:0.00784836 22:0.018066 23:0.000148082 24:0.00844069 25:0.0151044 26:0.00222124 27:0.00651562 28:0.025174 29:0.0242855 31:0.019695 32:0.0050348 33:0.00133274 35:0.000296165 36:0.000740412 39:0.00873686 41:0.0319858 42:0.0270991 43:0.0112543 44:0.0205834 45:0.00310973 46:0.00133274 47:0.0100696 48:0.00533096 49:0.000148082 51:0.0281356 52:0.00621946 53:0.0236932 55:0.000592329 56:0.00414631 58:0.00118466 59:0.0111062 60:0.0149563 61:0.0253221 62:0.00385014 63:0.0114023 64:0.00518288 65:0.00281356 66:0.000888494 67:0.016141 70:0.00621946 71:0.0299126 72:0.0146602 73:0.000444247 74:0.0025174 75:0.0262106 76:0.00829261 77:0.0199911 78:0.00103658 79:0.0469421 80:0.0177699 81:0.000148082 82:0.00385014 83:0.000740412 84:0.0170295 85:0.000444247 86:0.0186584 88:0.0272471 89:0.000148082 90:0.00651562 91:0.000444247 92:0.00873686 94:0.0118466 95:0.0414631 96:0.0417592 99:0.0299126 100:0.000148082 
-1 -1 -1 -1 2:0.0609027 3:0.000543774 6:0.000543774 12:0.0445895 13:0.0141381 16:0.00108755 23:0.00163132 26:0.0021751 27:0.0391517 30:0.0201196 32:0.0957042 34:0.00489396 35:0.000543774 38:0.00163132 40:0.05764 44:0.0103317 45:0.00163132 47:0.016857 50:0.0233823 56:0.0788472 57:0.0353453 58:0.00761283 62:0.0565525 65:0.0875476 67:0.00435019 68:0.0821098 69:0.000543774 70:0.000543774 73:0.00543774 78:0.00543774 82:0.0021751 83:0.0228385 85:0.0500272 87:0.0222947 89:0.0489396 90:0.0184883 92:0.0125068 93:0.00706906 97:0.00163132 100:0.0522023 
-1 -1 -1 -1 2:0.00185874 4:0.00123916 6:0.011772 12:0.0991326 13:0.0167286 14:0.00247831 16:0.00185874 27:0.00743494 30:0.0185874 32:0.10347 34:0.0260223 37:0.0142503 38:0.00495663 40:0.0625774 47:0.00743494 50:0.130112 56:0.00247831 57:0.105948 62:0.0885997 65:0.0644362 69:0.0223048 70:0.000619579 83:0.00123916 87:0.0489467 89:0.0377943 90:0.00123916 92:0.00247831 93:0.0520446 97:0.0291202 100:0.0328377 
-1 -1 -1 -1 2:0.0511364 3:0.000757576 4:0.00454545 6:0.0106061 7:0.00113636 9:0.00530303 11:0.000757576 12:0.0534091 13:0.0912879 14:0.000378788 16:0.00227273 20:0.000378788 24:0.000757576 26:0.00265152 27:0.0166667 30:0.0852273 31:0.000378788 32:0.0564394 33:0.000378788 34:0.0147727 38:0.000378788 40:0.0412879 43:0.000757576 44:0.0147727 45:0.00151515 46:0.000378788 47:0.00681818 48:0.000378788 50:0.0393939 51:0.00492424 53:0.00113636 55:0.000378788 56:0.00833333 57:0.0348485 58:0.0113636 62:0.0378788 64:0.00340909 65:0.0579545 66:0.000378788 67:0.000757576 68:0.00340909 69:0.00416667 70:0.00530303 73:0.000378788 78:0.00530303 82:0.00606061 83:0.00189394 85:0.000378788 86:0.000378788 87:0.0704545 89:0.0200758 90:0.00189394 93:0.0636364 94:0.00189394 96:0.000378788 97:0.0174242 100:0.130682 
-1 -1 -1 -1 1:0.000603136 2:0.10193 3:0.000603136 6:0.000603136 12:0.0693607 13:0.0150784 16:0.0066345 26:0.00180941 27:0.0162847 30:0.0337756 32:0.0735826 34:0.000603136 40:0.0476478 44:0.013269 46:0.00723764 47:0.00965018 50:0.0392039 51:0.00120627 56:0.0494572 57:0.0392039 58:0.0422195 60:0.00180941 61:0.000603136 62:0.0729795 64:0.000603136 65:0.075392 68:0.0597105 70:0.00180941 73:0.00120627 78:0.00241255 82:0.0102533 83:0.00482509 85:0.00422195 86:0.000603136 87:0.017491 88:0.00904704 89:0.0765983 90:0.0108565 92:0.0150784 93:0.00422195 94:0.00120627 96:0.000603136 97:0.00241255 100:0.0560917 
-1 -1 -1 -1 2:0.00623053 6:0.00124611 12:0.120872 13:0.00186916 14:0.000623053 27:0.00311526 30:0.00498442 32:0.11028 34:0.00747664 37:0.00560748 40:0.082243 44:0.00186916 46:0.000623053 47:0.00934579 50:0.100935 54:0.00249221 56:0.00124611 57:0.125234 58:0.00996885 60:0.00249221 62:0.0791277 65:0.070405 68:0.035514 69:0.00685358 70:0.00124611 73:0.00436137 75:0.00124611 82:0.000623053 83:0.0137072 85:0.0130841 87:0.0286604 89:0.0722741 90:0.0149533 92:0.0130841 93:0.0137072 97:0.00560748 99:0.000623053 100:0.0261682 
-1 -1 -1 -1 2:0.0331925 3:0.001207 6:0.0054315 12:0.0319855 13:0.057936 16:0.0030175 18:0.0018105 24:0.0006035 27:0.013277 30:0.028968 32:0.10682 34:0.0114665 35:0.0018105 37:0.0018105 40:0.0573325 43:0.0018105 44:0.019312 47:0.0114665 50:0.0766445 51:0.009656 53:0.001207 55:0.0006035 56:0.0235365 57:0.025347 58:0.003621 62:0.080869 65:0.0657815 67:0.0030175 68:0.0090525 69:0.001207 70:0.0006035 73:0.0006035 78:0.009656 82:0.004828 83:0.0066385 85:0.0006035 87:0.0694025 88:0.0018105 89:0.043452 90:0.001207 92:0.0006035 93:0.078455 94:0.003621 97:0.0283645 100:0.06035 
