svm_type c_svc
kernel_type rbf
gamma 0.01
nr_class 5
total_sv 30
rho -0.00106826 -0.00113553 -0.00127399 -0.000605583 -0.00021562 -0.000323921 0.000509024 3.26931e-05 0.000532031 0.000737935
label 1 2 3 4 5
nr_sv 6 6 6 6 6
SV
1 1 1 1 1:0.0338983 2:0.0976271 3:0 4:0 5:0 6:0.0020339 7:0 8:0 9:0 10:0 11:0 12:0 13:0 14:0.00135593 15:0 16:0 17:0 18:0 19:0 20:0.00542373 21:0 22:0.00271186 23:0 24:0.0162712 25:0.0311864 26:0.000677966 27:0 28:0.0162712 29:0 30:0.00542373 31:0 32:0.0020339 33:0.0379661 34:0.00610169 35:0.000677966 36:0.000677966 37:0.0711864 38:0 39:0 40:0.00271186 41:0.0237288 42:0.0020339 43:0 44:0 45:0 46:0 47:0 48:0.00474576 49:0 50:0 51:0.00338983 52:0 53:0.0101695 54:0 55:0 56:0 57:0 58:0 59:0.00813559 60:0.0020339 61:0 62:0.0020339 63:0 64:0.118644 65:0 66:0.000677966 67:0.0237288 68:0.00135593 69:0 70:0 71:0 72:0 73:0 74:0 75:0 76:0.098983 77:0.0413559 78:0 79:0 80:0 81:0.000677966 82:0 83:0.000677966 84:0.00135593 85:0 86:0.00135593 87:0.0216949 88:0 89:0.000677966 90:0.00542373 91:0 92:0 93:0 94:0 95:0.000677966 96:0.170169 97:0.060339 98:0 99:0.0616949 100:0 
1 1 1 1 1:0.0334709 2:0.105456 3:0 4:0 5:0 6:0.000458505 7:0 8:0 9:0 10:0 11:0 12:0 13:0 14:0.00641907 15:0 16:0 17:0 18:0 19:0 20:0.0137552 21:0 22:0 23:0 24:0.00137552 25:0.0618982 26:0 27:0 28:0.0206327 29:0 30:0.00366804 31:0 32:0 33:0.0412655 34:0.00917011 35:0.000458505 36:0 37:0.167813 38:0 39:0 40:0 41:0.00641907 42:0.000458505 43:0 44:0 45:0 46:0 47:0 48:0 49:0 50:0.000917011 51:0.00550206 52:0 53:0.0394315 54:0 55:0 56:0 57:0 58:0 59:0 60:0 61:0.000917011 62:0 63:0 64:0.261348 65:0 66:0.00320954 67:0.00641907 68:0.000458505 69:0 70:0 71:0 72:0 73:0 74:0 75:0 76:0.0458505 77:0.0935351 78:0.000458505 79:0 80:0 81:0 82:0 83:0.00366804 84:0 85:0 86:0.00229253 87:0 88:0 89:0.000458505 90:0 91:0 92:0 93:0.00550206 94:0 95:0.00229253 96:0.00183402 97:0 98:0 99:0.0531866 100:0 
1 1 1 1 1:0.00364964 2:0.122263 3:0 4:0.00182482 5:0 6:0 7:0 8:0 9:0.00182482 10:0 11:0 12:0 13:0 14:0.0145985 15:0 16:0 17:0 18:0 19:0 20:0.00547445 21:0 22:0.0164234 23:0 24:0 25:0.0529197 26:0 27:0 28:0.020073 29:0 30:0.00547445 31:0.00729927 32:0.00547445 33:0.0437956 34:0.00182482 35:0 36:0 37:0.19708 38:0.0383212 39:0 40:0.00182482 41:0.0145985 42:0 43:0 44:0 45:0 46:0 47:0 48:0.0109489 49:0 50:0 51:0.0145985 52:0 53:0.00547445 54:0 55:0 56:0 57:0 58:0 59:0 60:0 61:0 62:0 63:0 64:0.0109489 65:0 66:0 67:0.0291971 68:0.020073 69:0 70:0.00182482 71:0 72:0 73:0 74:0 75:0 76:0.00182482 77:0.0784672 78:0 79:0 80:0 81:0 82:0 83:0 84:0 85:0 86:0.0894161 87:0.14781 88:0 89:0.00182482 90:0 91:0 92:0 93:0.00182482 94:0 95:0 96:0 97:0.00182482 98:0.00364964 99:0.0255474 100:0 
1 1 1 1 1:0.0144568 2:0.0640231 3:0 4:0 5:0 6:0 7:0 8:0 9:0 10:0 11:0 12:0 13:0 14:0.00123916 15:0 16:0 17:0 18:0 19:0 20:0.00413052 21:0 22:0.00165221 23:0 24:0.00454358 25:0.0524577 26:0 27:0 28:0.0227179 29:0 30:0.00206526 31:0.00247831 32:0.00123916 33:0.124742 34:0.00413052 35:0.000413052 36:0 37:0.0904585 38:0.000413052 39:0 40:0 41:0.00371747 42:0 43:0 44:0 45:0 46:0 47:0 48:0.00123916 49:0 50:0 51:0.00371747 52:0 53:0.0140438 54:0.000413052 55:0 56:0 57:0 58:0 59:0.00165221 60:0.00536968 61:0 62:0 63:0 64:0.273028 65:0 66:0 67:0.00950021 68:0 69:0 70:0 71:0 72:0 73:0 74:0 75:0 76:0.123916 77:0.0532838 78:0 79:0 80:0 81:0.00536968 82:0 83:0.00330442 84:0 85:0 86:0.0148699 87:0.00330442 88:0 89:0.000413052 90:0 91:0 92:0 93:0.00660884 94:0 95:0.00289137 96:0.0148699 97:0.0202396 98:0.00454358 99:0.0425444 100:0 
1 1 1 1 1:0.0303204 2:0.0726545 3:0 4:0.00171625 5:0 6:0.00171625 7:0.00800915 8:0.0223112 9:0.00171625 10:0.000572082 11:0 12:0 13:0 14:0.0223112 15:0 16:0 17:0 18:0 19:0.000572082 20:0.0097254 21:0 22:0.00343249 23:0 24:0.00514874 25:0.028032 26:0.000572082 27:0 28:0.00915332 29:0 30:0.00743707 31:0 32:0.00400458 33:0.020595 34:0.00629291 35:0.0612128 36:0.00171625 37:0.0612128 38:0.00286041 39:0 40:0.00743707 41:0.020595 42:0.00686499 43:0 44:0 45:0.000572082 46:0 47:0 48:0.00400458 49:0 50:0 51:0.00343249 52:0.00114416 53:0.00171625 54:0 55:0.00343249 56:0 57:0 58:0 59:0.0778032 60:0.00114416 61:0.000572082 62:0 63:0 64:0.00343249 65:0 66:0.00114416 67:0.0194508 68:0.00915332 69:0 70:0.00286041 71:0.00114416 72:0 73:0 74:0.00114416 75:0.00343249 76:0.00686499 77:0.0543478 78:0.00114416 79:0.00228833 80:0 81:0.000572082 82:0 83:0 84:0 85:0.00858124 86:0 87:0.248284 88:0 89:0.000572082 90:0 91:0 92:0 93:0 94:0.000572082 95:0.00286041 96:0.0337529 97:0.0503432 98:0.00343249 99:0.0326087 100:0 
1 1 1 1 1:0.0137615 2:0.0342272 3:0.0172901 4:0.00388144 5:0 6:0.00176429 7:0.00741002 8:0 9:0 10:0 11:0 12:0 13:0 14:0 15:0.00705716 16:0.000352858 17:0.0151729 18:0 19:0.00105857 20:0.00564573 21:0 22:0.00176429 23:0 24:0.0194072 25:0.0261115 26:0.000352858 27:0 28:0.0155258 29:0 30:0.00211715 31:0 32:0.00247001 33:0.0719831 34:0.00388144 35:0.0151729 36:0.000705716 37:0.0285815 38:0.0299929 39:0 40:0 41:0.0155258 42:0 43:0.000705716 44:0 45:0.000705716 46:0.00105857 47:0 48:0.0042343 49:0 50:0 51:0 52:0 53:0.00599859 54:0.00141143 55:0 56:0 57:0 58:0 59:0.0515173 60:0.0649259 61:0 62:0.00352858 63:0 64:0.0437544 65:0 66:0 67:0.0119972 68:0.00917431 69:0 70:0 71:0 72:0 73:0.00388144 74:0.000352858 75:0 76:0.111856 77:0.0352858 78:0.00105857 79:0.00247001 80:0.00282287 81:0.00105857 82:0 83:0 84:0 85:0 86:0.000352858 87:0.0529287 88:0 89:0.000352858 90:0 91:0 92:0 93:0.000705716 94:0 95:0.00776288 96:0.101976 97:0.0793931 98:0 99:0.0575159 100:0 
-1 1 1 1 1:0.00262295 2:0.00327869 3:0.029071 4:0.0609836 5:0 6:0.0052459 7:0.00546448 8:0 9:0.000437158 10:0 11:0.00896175 12:0.00459016 13:0.0745355 14:0.000437158 15:0 16:0.0325683 17:0.0177049 18:0.0157377 19:0 20:0.0179235 21:0.00131148 22:0.000874317 23:0.0666667 24:0.00218579 25:0 26:0 27:0 28:0.00939891 29:0.0102732 30:0.00459016 31:0.0231694 32:0.0203279 33:0 34:0.00393443 35:0 36:0.00568306 37:0.00131148 38:0.0115847 39:0.000218579 40:0 41:0.00284153 42:0 43:0.00590164 44:0 45:0 46:0.0251366 47:0.0365027 48:0.0251366 49:0.00808743 50:0.0454645 51:0.00721311 52:0 53:0.0183607 54:0.00393443 55:0 56:0.00327869 57:0 58:0 59:0 60:0.000218579 61:0 62:0.0535519 63:0 64:0.00262295 65:0 66:0 67:0.000655738 68:0.0161749 69:0.0205464 70:0.00131148 71:0.016612 72:0 73:0.0292896 74:0.00480874 75:0 76:0 77:0.0107104 78:0.0351913 79:0.0181421 80:0 81:0.0253552 82:0 83:0.0170492 84:0.00218579 85:0.00480874 86:0.0052459 87:0 88:0 89:0.000655738 90:0.0122404 91:0 92:0.0196721 93:0.0397814 94:0 95:0.00612022 96:0 97:0 98:0.0190164 99:0.0122404 100:0.00284153 
-1 1 1 1 1:0.00673181 2:0.00369164 3:0.00108578 4:0.0627579 5:0 6:0.00738328 7:0.0110749 8:0 9:0.0425624 10:0 11:0.0019544 12:0.000434311 13:0.0184582 14:0.0062975 15:0 16:0.0330076 17:0 18:0 19:0 20:0.0228013 21:0.00238871 22:0.00304017 23:0.000651466 24:0 25:0.00412595 26:0 27:0.000217155 28:0.0228013 29:0 30:0.00477742 31:0.0212812 32:0.00977199 33:0.000434311 34:0.00347448 35:0 36:0.0119435 37:0.00412595 38:0.0082519 39:0.00434311 40:0.000217155 41:0.00347448 42:0.00760043 43:0.000868621 44:0.00694897 45:0 46:0.0286645 47:0.0529859 48:0.0197611 49:0.0173724 50:0.00390879 51:0.000217155 52:0.00108578 53:0.0102063 54:0.0104235 55:0.00347448 56:0.00499457 57:0.000217155 58:0 59:0 60:0 61:0.0108578 62:0.0132465 63:0 64:0.00781759 65:0.00152009 66:0.0245385 67:0.000868621 68:0.00542888 69:0 70:0.00369164 71:0 72:0.00173724 73:0.00108578 74:0.00542888 75:0.00846906 76:0.00108578 77:0.0175896 78:0.0588491 79:0.000434311 80:0 81:0.00868621 82:0.00130293 83:0.0284473 84:0.0799131 85:0 86:0.0136808 87:0 88:0.00760043 89:0.103149 90:0.00325733 91:0 92:0.0634093 93:0.0165038 94:0.000217155 95:0.00738328 96:0 97:0 98:0 99:0.00564604 100:0.00586319 
-1 1 1 1 1:0.00385802 2:0 3:0.000771605 4:0.0390946 5:0 6:0.00334362 7:0.00308642 8:0 9:0.00205761 10:0.000514403 11:0.0115741 12:0.000514403 13:0.037037 14:0.00308642 15:0.000514403 16:0.0496399 17:0.00180041 18:0.0126029 19:0 20:0.0221193 21:0.00154321 22:0.00540123 23:0.00257202 24:0.000257202 25:0.00411523 26:0.00102881 27:0.000257202 28:0.00617284 29:0.000257202 30:0.00334362 31:0.0223765 32:0.00848765 33:0.00102881 34:0.00205761 35:0 36:0.00334362 37:0.00643004 38:0.00205761 39:0 40:0 41:0.00128601 42:0.00308642 43:0 44:0.00462963 45:0.00180041 46:0.0439815 47:0.0594136 48:0.0264918 49:0.0491255 50:0 51:0.000257202 52:0.00385802 53:0.00745885 54:0.0362654 55:0 56:0.0126029 57:0.00102881 58:0.000257202 59:0 60:0 61:0.00257202 62:0.0120885 63:0.000771605 64:0.00925926 65:0 66:0.00102881 67:0.000771605 68:0.00308642 69:0.00334362 70:0.0131173 71:0 72:0 73:0.000771605 74:0.0105453 75:0.00154321 76:0.00102881 77:0.0141461 78:0.0403807 79:0.025463 80:0.000514403 81:0.0444959 82:0 83:0.031893 84:0.089249 85:0 86:0.00925926 87:0 88:0.00102881 89:0.0509259 90:0.00565844 91:0.00205761 92:0.0568416 93:0.0352366 94:0.000257202 95:0.00823045 96:0 97:0 98:0 99:0.00385802 100:0.00668724 
-1 1 1 1 1:0.00319489 2:0.00878594 3:0.034345 4:0.129393 5:0.00319489 6:0.00266241 7:0.0290202 8:0 9:0.021033 10:0 11:0 12:0.00186368 13:0.0782748 14:0.00186368 15:0 16:0.0181044 17:0.0167732 18:0.00585729 19:0.000532481 20:0.0111821 21:0.00212993 22:0.000798722 23:0.00292865 24:0.00239617 25:0.000798722 26:0 27:0 28:0.0125133 29:0.00985091 30:0.00346113 31:0.0181044 32:0.00319489 33:0.00665602 34:0.0013312 35:0 36:0.00452609 37:0.00319489 38:0.00612354 39:0.00319489 40:0 41:0.00425985 42:0 43:0.00292865 44:0 45:0.000266241 46:0.00692226 47:0.0228967 48:0.0463259 49:0.0119808 50:0.034345 51:0.00612354 52:0 53:0.0178381 54:0 55:0 56:0.00212993 57:0 58:0 59:0 60:0 61:0 62:0.0609691 63:0.000798722 64:0.0191693 65:0.000266241 66:0 67:0 68:0.00239617 69:0.0279553 70:0 71:0.0205005 72:0 73:0.0212993 74:0.00106496 75:0 76:0.000798722 77:0.0162407 78:0.0662939 79:0.00212993 80:0.000266241 81:0.0223642 82:0 83:0.013312 84:0.00106496 85:0.00212993 86:0.0101171 87:0.000532481 88:0.000266241 89:0.000266241 90:0.0135783 91:0 92:0.0207668 93:0.0378062 94:0.000266241 95:0.00825346 96:0 97:0 98:0.015442 99:0.00825346 100:0.00212993 
-1 1 1 1 1:0.00295601 2:0.000347766 3:0.000173883 4:0.050426 5:0.000521648 6:0.00139106 7:0.00921579 8:0.000173883 9:0.044514 10:0.00173883 11:0.00539037 12:0 13:0.0208659 14:0.00695531 15:0 16:0.0478178 17:0 18:0.00765084 19:0 20:0.0121718 21:0 22:0.00417319 23:0.000869414 24:0 25:0.000347766 26:0.000521648 27:0 28:0.0165189 29:0 30:0.00243436 31:0.0309511 32:0.00330377 33:0 34:0.0050426 35:0 36:0.00556425 37:0.00904191 38:0.00295601 39:0 40:0.00121718 41:0.00173883 42:0.0060859 43:0.0010433 44:0.00469484 45:0.00173883 46:0.0413841 47:0.0874631 48:0.0406886 49:0.0547731 50:0.000347766 51:0 52:0.000521648 53:0.0113024 54:0.028169 55:0.00243436 56:0.00991132 57:0.00208659 58:0.000695531 59:0 60:0 61:0.0113024 62:0.0126934 63:0.00139106 64:0.00191271 65:0.000695531 66:0.0125196 67:0.00173883 68:0.00243436 69:0 70:0.00660755 71:0 72:0.00486872 73:0.000347766 74:0.0219092 75:0.00278212 76:0.000173883 77:0.0071292 78:0.050426 79:0.0113024 80:0 81:0.0116501 82:0.0010433 83:0.0245175 84:0.0391236 85:0 86:0.00347766 87:0 88:0.010433 89:0.0342549 90:0.00330377 91:0.00121718 92:0.0766823 93:0.0328638 94:0.00156495 95:0.00834637 96:0 97:0 98:0 99:0.00417319 100:0.00678143 
-1 1 1 1 1:0.00423077 2:0.00576923 3:0 4:0.075 5:0 6:0.00807692 7:0.01 8:0 9:0.00346154 10:0.00576923 11:0.000769231 12:0 13:0.00192308 14:0.000769231 15:0 16:0.0115385 17:0 18:0.00115385 19:0.0261538 20:0.0146154 21:0.0430769 22:0.0115385 23:0.000384615 24:0.00153846 25:0.000769231 26:0 27:0 28:0.0161538 29:0 30:0.000384615 31:0.0676923 32:0.00423077 33:0.000384615 34:0.00115385 35:0 36:0.00692308 37:0.00115385 38:0 39:0.0526923 40:0 41:0.005 42:0 43:0 44:0.00538462 45:0 46:0.035 47:0.0726923 48:0.0376923 49:0.0553846 50:0 51:0.00269231 52:0 53:0.00423077 54:0.00769231 55:0 56:0.00961538 57:0 58:0 59:0 60:0 61:0.00115385 62:0.00961538 63:0.000384615 64:0.00384615 65:0 66:0 67:0.000384615 68:0.000769231 69:0 70:0.000769231 71:0 72:0 73:0 74:0.00846154 75:0.000384615 76:0 77:0.00884615 78:0.0326923 79:0.00423077 80:0 81:0.00615385 82:0 83:0.0446154 84:0.0815385 85:0 86:0.00961538 87:0 88:0.00192308 89:0.0434615 90:0 91:0.000769231 92:0.0723077 93:0.0388462 94:0 95:0.00615385 96:0 97:0 98:0 99:0.00576923 100:0.00461538 
-1 -1 1 1 1:0.0263721 2:0.0163934 3:0.0292231 4:0.00142552 5:0 6:0.0655738 7:0.00285103 8:0 9:0.00784034 10:0 11:0.00142552 12:0.00285103 13:0 14:0.00926586 15:0 16:0.000712758 17:0.00427655 18:0.000712758 19:0.148254 20:0.0121169 21:0.0563079 22:0.0277976 23:0.00285103 24:0.017819 25:0.00997862 26:0 27:0 28:0.0541696 29:0.00213828 30:0.00570207 31:0 32:0.0171062 33:0.00142552 34:0.0114041 35:0 36:0.0463293 37:0.017819 38:0.0313614 39:0.118318 40:0 41:0.0263721 42:0 43:0.0192445 44:0 45:0.000712758 46:0.000712758 47:0 48:0.00285103 49:0 50:0.00356379 51:0.0114041 52:0 53:0.0106914 54:0 55:0 56:0.000712758 57:0 58:0 59:0.000712758 60:0.00142552 61:0 62:0 63:0 64:0.00142552 65:0 66:0 67:0.00926586 68:0.0149679 69:0 70:0 71:0.00142552 72:0 73:0.00570207 74:0.00356379 75:0.000712758 76:0.000712758 77:0.0256593 78:0.00142552 79:0 80:0 81:0.00142552 82:0 83:0.000712758 84:0 85:0.000712758 86:0.0171062 87:0 88:0 89:0.00213828 90:0.0149679 91:0 92:0 93:0.000712758 94:0 95:0.0128297 96:0 97:0 98:0.000712758 99:0.0520314 100:0.00356379 
-1 -1 1 1 1:0.00643501 2:0.010296 3:0 4:0.00032175 5:0.00225225 6:0.0415058 7:0.00997426 8:0.00418275 9:0.0119048 10:0.00965251 11:0.00225225 12:0.002574 13:0.00032175 14:0.0122265 15:0 16:0.000643501 17:0.00032175 18:0.00160875 19:0.00418275 20:0.0144788 21:0.0389318 22:0.0434363 23:0 24:0.00900901 25:0.00579151 26:0.0350708 27:0 28:0.046332 29:0 30:0.00579151 31:0.00289575 32:0.0199485 33:0.000965251 34:0.0032175 35:0 36:0.027027 37:0.002574 38:0.00353925 39:0.0263835 40:0.00740026 41:0.000965251 42:0.0164093 43:0.001287 44:0.018018 45:0.014157 46:0.00032175 47:0.000965251 48:0.015444 49:0.00225225 50:0.00032175 51:0.00514801 52:0.020592 53:0.0125483 54:0.0045045 55:0.0135135 56:0.0122265 57:0.0305663 58:0.0202703 59:0 60:0 61:0.0376448 62:0.00225225 63:0.00289575 64:0.00546976 65:0.0292793 66:0.034749 67:0.00675676 68:0.00643501 69:0 70:0.0215573 71:0 72:0.0183398 73:0 74:0.0176963 75:0.0370013 76:0.00032175 77:0.0151223 78:0 79:0.000643501 80:0 81:0.000965251 82:0.0215573 83:0.00804376 84:0.0032175 85:0 86:0.0212355 87:0 88:0.0328185 89:0.000643501 90:0.0032175 91:0.0122265 92:0.00032175 93:0.0045045 94:0.0289575 95:0.00772201 96:0 97:0 98:0 99:0.0148005 100:0.000643501 
-1 -1 1 1 1:0.0142857 2:0.0164021 3:0.0026455 4:0.000529101 5:0 6:0.0703704 7:0.0021164 8:0 9:0.0201058 10:0.0010582 11:0 12:0.0116402 13:0.0010582 14:0.00952381 15:0 16:0.000529101 17:0.0037037 18:0.00634921 19:0.115873 20:0.0153439 21:0.0343915 22:0.0698413 23:0.0031746 24:0.0179894 25:0.0259259 26:0.00529101 27:0 28:0.0539683 29:0.000529101 30:0.0232804 31:0.0010582 32:0.00899471 33:0.0021164 34:0.0047619 35:0 36:0.0216931 37:0.0126984 38:0.0216931 39:0.12963 40:0 41:0.0021164 42:0 43:0.0100529 44:0.0010582 45:0.0015873 46:0.000529101 47:0.00634921 48:0.0142857 49:0.0010582 50:0.0037037 51:0.0137566 52:0 53:0.0121693 54:0 55:0 56:0.0021164 57:0.0021164 58:0 59:0 60:0 61:0 62:0.00529101 63:0 64:0.00582011 65:0.0047619 66:0 67:0.0111111 68:0.0148148 69:0.0010582 70:0.00846561 71:0 72:0 73:0.0015873 74:0.0111111 75:0.0015873 76:0.0026455 77:0.0238095 78:0.00634921 79:0.000529101 80:0 81:0.0021164 82:0 83:0.0206349 84:0.0015873 85:0 86:0.00899471 87:0 88:0 89:0.0010582 90:0.0232804 91:0 92:0 93:0.00793651 94:0 95:0.00952381 96:0 97:0 98:0 99:0.0253968 100:0.0010582 
-1 -1 1 1 1:0.0125392 2:0.0198537 3:0.0539882 4:0 5:0.00278649 6:0.0292581 7:0.00487635 8:0 9:0.000348311 10:0 11:0.00174155 12:0.0306513 13:0.0118426 14:0.00243817 15:0 16:0.00522466 17:0.0522466 18:0.00522466 19:0.000348311 20:0.00801115 21:0.0219436 22:0.00766284 23:0.0344828 24:0.0243817 25:0.010101 26:0 27:0.00278649 28:0.0348311 29:0.00870777 30:0.00696621 31:0.0393591 32:0.0170672 33:0.00452804 34:0.00835946 35:0 36:0.0431905 37:0.00905608 38:0.0323929 39:0.0233368 40:0.00139324 41:0.00208986 42:0.00383142 43:0.0411007 44:0.00557297 45:0.000696621 46:0.0031348 47:0.000348311 48:0.00696621 49:0.00174155 50:0.0456287 51:0.014629 52:0 53:0.0139324 54:0.00417973 55:0 56:0.00278649 57:0 58:0 59:0 60:0.000696621 61:0.000348311 62:0.00696621 63:0.000348311 64:0.0125392 65:0 66:0.00174155 67:0.00522466 68:0.0229885 69:0.0181122 70:0 71:0.0107976 72:0.000696621 73:0.0184605 74:0.00487635 75:0 76:0.00383142 77:0.0177638 78:0.000348311 79:0.0031348 80:0 81:0.00348311 82:0 83:0.00522466 84:0 85:0.0282132 86:0.0229885 87:0 88:0 89:0.00139324 90:0.0229885 91:0.000348311 92:0 93:0.000696621 94:0.000696621 95:0.00870777 96:0.000348311 97:0 98:0.0229885 99:0.0337861 100:0.000696621 
-1 -1 1 1 1:0.0229277 2:0.00925926 3:0.0194004 4:0 5:0 6:0.108907 7:0.000440917 8:0 9:0.00925926 10:0 11:0.00132275 12:0.00749559 13:0.000440917 14:0.00793651 15:0 16:0.000881834 17:0.0176367 18:0.000440917 19:0.0251323 20:0.00837743 21:0.0582011 22:0.0180776 23:0.00705467 24:0.0114638 25:0.0154321 26:0 27:0 28:0.0326279 29:0.015873 30:0.0136684 31:0.00970018 32:0.0326279 33:0 34:0.0163139 35:0 36:0.0326279 37:0.00352734 38:0.0365961 39:0.0559965 40:0 41:0.00352734 42:0 43:0.0233686 44:0 45:0.00176367 46:0.0026455 47:0.000440917 48:0.00837743 49:0 50:0.0026455 51:0.0339506 52:0.000881834 53:0.0154321 54:0.010582 55:0 56:0.0026455 57:0.00176367 58:0 59:0 60:0 61:0.000440917 62:0.00705467 63:0.000440917 64:0.00485009 65:0.000440917 66:0 67:0.00396825 68:0.0207231 69:0.00308642 70:0.00176367 71:0.00793651 72:0 73:0.0273369 74:0.00617284 75:0.000881834 76:0.000440917 77:0.0295414 78:0 79:0.00749559 80:0.0026455 81:0.0132275 82:0 83:0.00220459 84:0.000440917 85:0.00485009 86:0.0718695 87:0 88:0 89:0.000881834 90:0.0123457 91:0 92:0 93:0.00176367 94:0 95:0.00749559 96:0 97:0 98:0.00573192 99:0.0454145 100:0.000881834 
-1 -1 1 1 1:0.00802568 2:0.0152488 3:0 4:0 5:0.00561798 6:0.070626 7:0.0200642 8:0.00120385 9:0.00642055 10:0.0192616 11:0.00160514 12:0.00120385 13:0 14:0.0292937 15:0 16:0.00200642 17:0.00722311 18:0 19:0.0024077 20:0.00722311 21:0.0341091 22:0.0585875 23:0 24:0.0116372 25:0.0076244 26:0.0144462 27:0 28:0.0457464 29:0.000401284 30:0.00481541 31:0.00200642 32:0.0136437 33:0.0024077 34:0.00922953 35:0 36:0.0405297 37:0.00321027 38:0.0272873 39:0.011236 40:0 41:0.00120385 42:0.00280899 43:0.00802568 44:0.0188604 45:0.00441413 46:0 47:0.000802568 48:0.0024077 49:0.000802568 50:0.00280899 51:0.0116372 52:0.0208668 53:0.0140449 54:0.0160514 55:0.0120385 56:0.0172552 57:0.0140449 58:0.0148475 59:0 60:0 61:0.0144462 62:0.00361156 63:0.00200642 64:0.0108347 65:0.00280899 66:0.0321027 67:0.00842697 68:0.00882825 69:0 70:0.0317014 71:0 72:0.00441413 73:0.00120385 74:0.0220706 75:0.0200642 76:0 77:0.0204655 78:0.000401284 79:0.00280899 80:0.000401284 81:0.00120385 82:0.0172552 83:0.0100321 84:0.00160514 85:0 86:0.0441413 87:0 88:0.000401284 89:0.00882825 90:0.00401284 91:0.011236 92:0.000802568 93:0.00120385 94:0.032504 95:0.0108347 96:0 97:0 98:0 99:0.0204655 100:0.00160514 
-1 -1 -1 1 1:0.0068482 2:0.000163052 3:0.0203815 4:0.00130442 5:0.0221751 6:0.00505462 7:0.00831567 8:0.0306538 9:0.000815262 10:0.0234795 11:0.00668515 12:0.021849 13:0.000163052 14:0.0109245 15:0 16:0.00521767 17:0.00260884 18:0.00619599 19:0 20:0.00195663 21:0 22:0.00619599 23:0.0176097 24:0.0182619 25:0.000815262 26:0.0143486 27:0 28:0.015653 29:0.0135333 30:0.0114137 31:0.00293494 32:0.00978314 33:0 34:0.00831567 35:0 36:0.0419045 37:0.00114137 38:0.00163052 39:0 40:0.0254362 41:0.000652209 42:0.0184249 43:0.0172835 44:0.0146747 45:0.0321213 46:0.00146747 47:0.00163052 48:0.000489157 49:0.00146747 50:0.0167944 51:0.000815262 52:0.0233165 53:0.00260884 54:0.000815262 55:0.0283711 56:0.0317952 57:0.0260884 58:0.0361976 59:0 60:0 61:0.0148378 62:0.00228273 63:0.0241317 64:0 65:0.00913093 66:0.0114137 67:0.00326105 68:0.00766346 69:0.0068482 70:0.0148378 71:0.00831567 72:0.00619599 73:0.000978314 74:0.0176097 75:0.0166313 76:0 77:0.00440241 78:0.00211968 79:0.00228273 80:0.000163052 81:0.00538073 82:0.0202185 83:0.000489157 84:0.00228273 85:0.0161422 86:0.000163052 87:0 88:0.0161422 89:0.00146747 90:0.0164683 91:0.0378281 92:0.000815262 93:0.012392 94:0.0407631 95:0.00913093 96:0 97:0 98:0.0150008 99:0.0132072 100:0.0202185 
-1 -1 -1 1 1:0.00478026 2:0 3:0.0157286 4:0.00200463 5:0.0155744 6:0.00370085 7:0.00925212 8:0.0143408 9:0.000616808 10:0.0158828 11:0.0117194 12:0.0181958 13:0.00077101 14:0.00354665 15:0 16:0.00925212 17:0.0164996 18:0.0100231 19:0 20:0.00169622 21:0 22:0.00154202 23:0.0356207 24:0.0172706 25:0.000462606 26:0.0124904 27:0.000154202 28:0.00940632 29:0.0209715 30:0.00971473 31:0.00277564 32:0.0134156 33:0 34:0.00616808 35:0 36:0.0254433 37:0.00077101 38:0.00200463 39:0 40:0.0263685 41:0.000462606 42:0.0229761 43:0.0143408 44:0.01835 45:0.0255975 46:0.00246723 47:0.00292984 48:0 49:0.00323824 50:0.0181958 51:0.00185042 52:0.0334618 53:0.00462606 54:0.000925212 55:0.0169622 56:0.0260601 57:0.0172706 58:0.0101773 59:0 60:0 61:0.0074017 62:0.000154202 63:0.0220509 64:0 65:0.00693909 66:0.0217425 67:0.00385505 68:0.00971473 69:0.0197379 70:0.00555127 71:0.015266 72:0.0234387 73:0.00678489 74:0.0107941 75:0.0188126 76:0 77:0.00832691 78:0.00848111 79:0.00585968 80:0 81:0.00185042 82:0.0202005 83:0.00154202 84:0.00339244 85:0.0205089 86:0 87:0 88:0.00539707 89:0.00107941 90:0.0234387 91:0.027448 92:0.00154202 93:0.0231303 94:0.0471858 95:0.00894372 96:0 97:0 98:0.0296068 99:0.00647648 100:0.0252891 
-1 -1 -1 1 1:0.00510684 2:0.000537562 3:0.0189491 4:0.00335976 5:0.00456928 6:0.00174708 7:0.0123639 8:0.0235183 9:0.000537562 10:0.0157237 11:0.0124983 12:0.0249966 13:0.00739148 14:0.00537562 15:0 16:0.00900417 17:0.0108856 18:0.0225776 19:0 20:0.00376294 21:0 22:0.00389733 23:0.0342696 24:0.00940734 25:0.000537562 26:0.00913856 27:0 28:0.0115576 29:0.0291627 30:0.0107512 31:0.00403172 32:0.00860099 33:0.000134391 34:0.00658514 35:0 36:0.0115576 37:0.000671953 38:0.00362854 39:0 40:0.0229808 41:0.00188147 42:0.0158581 43:0.0176052 44:0.0127671 45:0.0236527 46:0.00806343 47:0.00443489 48:0.000671953 49:0.00309098 50:0.00698831 51:0.000403172 52:0.0314474 53:0.00779465 54:0.00268781 55:0.0263405 56:0.0204274 57:0.0302379 58:0.02204 59:0 60:0 61:0.00631636 62:0.000940734 63:0.0056444 64:0.000134391 65:0.00752587 66:0.0102137 67:0.00510684 68:0.00792904 69:0.0198898 70:0.00416611 71:0.00510684 72:0.00618196 73:0.0224432 74:0.0103481 75:0.0043005 76:0 77:0.00497245 78:0.00591318 79:0.0228464 80:0 81:0.00134391 82:0.0182771 83:0.00134391 84:0.0014783 85:0.0702863 86:0.000403172 87:0 88:0.0130359 89:0.00174708 90:0.0245935 91:0.0235183 92:0.00161269 93:0.0228464 94:0.0279532 95:0.0119608 96:0 97:0 98:0.028894 99:0.00322537 100:0.0112888 
-1 -1 -1 1 1:0.00555125 2:0.000387297 3:0.023496 4:0.000774593 5:0.0241415 6:0.00348567 7:0.00981152 8:0.00606765 9:0.00167829 10:0.022205 11:0.0100697 12:0.00568035 13:0.000387297 14:0.00671314 15:0 16:0.00645494 17:0.00658404 18:0.00154919 19:0 20:0.00284018 21:0 22:0.00593855 23:0.00606765 24:0.0184611 25:0.00154919 26:0.0114898 27:0 28:0.016912 29:0.00606765 30:0.0111025 31:0.000258198 32:0.00503486 33:0.00116189 34:0.00697134 35:0 36:0.0322747 37:0.00245288 38:0.00619675 39:0 40:0.0311128 41:0.000387297 42:0.0263362 43:0.0151046 44:0.0232378 45:0.0182029 46:0.000258198 47:0.000774593 48:0.000903692 49:0.00193648 50:0.0373096 51:0.000387297 52:0.0245288 53:0.00361477 54:0.000645494 55:0.0187193 56:0.024787 57:0.0251743 58:0.0138136 59:0 60:0 61:0.0187193 62:0.00103279 63:0.0351149 64:0 65:0.0309837 66:0.0290473 67:0.00206558 68:0.00645494 69:0.0160083 70:0.0135554 71:0.0136845 72:0.0285309 73:0.00284018 74:0.00774593 75:0.0499613 76:0 77:0.00232378 78:0.00245288 79:0.000645494 80:0 81:0.00154919 82:0.0256907 83:0.00193648 84:0.00322747 85:0.00606765 86:0 87:0 88:0.0229796 89:0.000774593 90:0.00542215 91:0.035244 92:0.00129099 93:0.0180738 94:0.0246579 95:0.00994061 96:0 97:0 98:0.023496 99:0.00400207 100:0.0174283 
-1 -1 -1 1 1:0.00328431 2:0.00114237 3:0.0128516 4:0.00185635 5:0.0199914 6:0.00556904 7:0.00599743 8:0.0071398 9:0.00171355 10:0.0242753 11:0.0114237 12:0.0071398 13:0 14:0.00642582 15:0 16:0.00971012 17:0.000571184 18:0.0035699 19:0 20:0.00471227 21:0 22:0.00171355 23:0.00656861 24:0.0164215 25:0 26:0.013994 27:0.000571184 28:0.0151364 29:0.00756819 30:0.00785378 31:0.000856776 32:0.00371269 33:0.000999572 34:0.00471227 35:0 36:0.0212766 37:0.00414108 38:0.000142796 39:0 40:0.0424104 41:0.000571184 42:0.0292732 43:0.01328 44:0.0332715 45:0.0285592 46:0.00128516 47:0.000856776 48:0.000285592 49:0.00128516 50:0.0152792 51:0 52:0.0388405 53:0.00242753 54:0.000571184 55:0.0212766 56:0.0158504 57:0.0278452 58:0.0225618 59:0 60:0 61:0.0201342 62:0.000142796 63:0.0198486 64:0.000142796 65:0.0549764 66:0.0274168 67:0.00157076 68:0.00671141 69:0.00956733 70:0.0131372 71:0.0071398 72:0.0331287 73:0.000856776 74:0.0112809 75:0.062973 76:0 77:0.00285592 78:0.0034271 79:0.000571184 80:0 81:0.000571184 82:0.0262745 83:0.00142796 84:0.000285592 85:0.00571184 86:0 87:0 88:0.0251321 89:0.000428388 90:0.00756819 91:0.0298444 92:0.000571184 93:0.0211338 94:0.0247037 95:0.0115665 96:0 97:0 98:0.0248465 99:0.00385549 100:0.0114237 
-1 -1 -1 1 1:0.00109245 2:0 3:0.0248532 4:0.00300423 5:0.0133825 6:0.0021849 7:0.00505257 8:0.0117438 9:0.00382357 10:0.0143384 11:0.0120169 12:0.0162502 13:0.00245801 14:0.00518913 15:0 16:0.0226683 17:0.0290864 18:0.0161136 19:0 20:0.00314079 21:0 22:0.00300423 23:0.0404206 24:0.00942237 25:0.000136556 26:0.0090127 27:0.000273112 28:0.00846648 29:0.0232145 30:0.0090127 31:0.00191178 32:0.00573535 33:0 34:0.00314079 35:0 36:0.0146115 37:0 38:0.00464291 39:0 40:0.0335928 41:0 42:0.023078 43:0.00996859 44:0.0182985 45:0.0200737 46:0.00873959 47:0.00382357 48:0.000955892 49:0.00204834 50:0.0114707 51:0.001229 52:0.0352315 53:0.00655469 54:0.000409668 55:0.0199372 56:0.0147481 57:0.0350949 58:0.0129728 59:0 60:0 61:0.0136556 62:0.00109245 63:0.016933 64:0.000409668 65:0.0269015 66:0.0191178 67:0.00245801 68:0.00764714 69:0.0126997 70:0.0116073 71:0.018162 72:0.0222586 73:0.00600847 74:0.0121535 75:0.03291 76:0 77:0.00464291 78:0.00518913 79:0.00614502 80:0 81:0.00109245 82:0.0200737 83:0.000955892 84:0.00232145 85:0.0162502 86:0 87:0 88:0.00955892 89:0.000136556 90:0.0225317 91:0.0161136 92:0.00068278 93:0.0229414 94:0.0385088 95:0.0103783 96:0 97:0 98:0.0187082 99:0.00409668 100:0.0180254 
-1 -1 -1 -1 1:0.0777174 2:0.0125 3:0 4:0.0184783 5:0 6:0 7:0.00380435 8:0 9:0 10:0 11:0 12:0 13:0.000543478 14:0.0108696 15:0.0141304 16:0 17:0 18:0 19:0 20:0.00217391 21:0 22:0 23:0 24:0 25:0.0108696 26:0 27:0.0766304 28:0.0375 29:0.000543478 30:0 31:0 32:0.000543478 33:0.00271739 34:0.102717 35:0 36:0.000543478 37:0.0315217 38:0.000543478 39:0 40:0 41:0.00163043 42:0.00380435 43:0 44:0 45:0 46:0 47:0.000543478 48:0.0048913 49:0.0048913 50:0 51:0.100543 52:0.000543478 53:0.0755435 54:0 55:0 56:0 57:0 58:0 59:0 60:0.0076087 61:0 62:0 63:0 64:0.0288043 65:0 66:0 67:0.0119565 68:0.000543478 69:0.00706522 70:0 71:0.0141304 72:0 73:0.000543478 74:0 75:0 76:0.00271739 77:0.0934783 78:0 79:0.00706522 80:0.107065 81:0.00326087 82:0 83:0.0336957 84:0 85:0 86:0.0130435 87:0 88:0 89:0.000543478 90:0.000543478 91:0 92:0 93:0 94:0 95:0.0168478 96:0 97:0.00108696 98:0.000543478 99:0.0527174 100:0 
-1 -1 -1 -1 1:0.0965018 2:0.00723764 3:0 4:0.00361882 5:0 6:0 7:0.00301568 8:0 9:0 10:0 11:0 12:0 13:0 14:0.00301568 15:0.125452 16:0 17:0 18:0 19:0 20:0.00301568 21:0 22:0 23:0.000603136 24:0 25:0 26:0 27:0.0989144 28:0.0229192 29:0.00844391 30:0.00482509 31:0 32:0.000603136 33:0.00180941 34:0.100724 35:0.0066345 36:0 37:0.00784077 38:0 39:0.00120627 40:0.00301568 41:0.0283474 42:0.0217129 43:0 44:0 45:0 46:0 47:0 48:0.00482509 49:0.00422195 50:0 51:0.0494572 52:0.00723764 53:0.0247286 54:0 55:0 56:0 57:0 58:0 59:0.0235223 60:0.0554885 61:0 62:0 63:0 64:0.000603136 65:0 66:0.00180941 67:0.000603136 68:0.000603136 69:0.0253317 70:0 71:0.0289505 72:0.00301568 73:0.000603136 74:0 75:0 76:0.00180941 77:0.0331725 78:0 79:0.00844391 80:0.075392 81:0.0199035 82:0 83:0.00784077 84:0 85:0 86:0 87:0 88:0 89:0.000603136 90:0.00241255 91:0 92:0 93:0 94:0 95:0.0114596 96:0 97:0.0102533 98:0.00180941 99:0.0464415 100:0 
-1 -1 -1 -1 1:0.0210084 2:0.00878533 3:0.0145149 4:0.00305577 5:0.00152788 6:0.0179526 7:0.00878533 8:0.0179526 9:0.000381971 10:0.00229183 11:0.000381971 12:0.013369 13:0 14:0.175325 15:0 16:0 17:0.00954927 18:0.00190985 19:0 20:0.00802139 21:0 22:0.0103132 23:0.00763942 24:0.00611154 25:0.000763942 26:0.00572956 27:0.00343774 28:0.0343774 29:0.00229183 30:0.00152788 31:0.00152788 32:0.0156608 33:0.000763942 34:0.0458365 35:0.0183346 36:0.00802139 37:0.00763942 38:0.0271199 39:0 40:0.012987 41:0.00496562 42:0.000763942 43:0.00305577 44:0.000763942 45:0.00687548 46:0 47:0 48:0.000381971 49:0.00190985 50:0.013751 51:0.0446906 52:0.0198625 53:0.0114591 54:0 55:0.0118411 56:0.00496562 57:0.00152788 58:0.00152788 59:0.000763942 60:0.0110772 61:0.00572956 62:0.00114591 63:0.00114591 64:0.00458365 65:0.00840336 66:0.0477464 67:0.00725745 68:0.00954927 69:0.00305577 70:0.00343774 71:0.00840336 72:0 73:0.0420168 74:0.00802139 75:0.013369 76:0.00496562 77:0.0370512 78:0.000381971 79:0.000763942 80:0.0114591 81:0 82:0.00190985 83:0.000381971 84:0 85:0.0500382 86:0.00229183 87:0 88:0.000381971 89:0.000381971 90:0.0206264 91:0 92:0 93:0.00229183 94:0.0118411 95:0.00878533 96:0 97:0.0026738 98:0.00572956 99:0.0190985 100:0 
-1 -1 -1 -1 1:0.0855937 2:0.0307414 3:0 4:0.00301386 5:0 6:0 7:0 8:0 9:0 10:0 11:0.000602773 12:0 13:0 14:0.00301386 15:0.00783605 16:0.000602773 17:0 18:0.000602773 19:0 20:0.00723327 21:0 22:0 23:0 24:0.00120555 25:0.00120555 26:0.000602773 27:0.0867993 28:0.0295359 29:0.00120555 30:0.00120555 31:0.00301386 32:0.00120555 33:0.00421941 34:0.0904159 35:0 36:0.000602773 37:0.0337553 38:0.00120555 39:0 40:0.000602773 41:0.00241109 42:0.00843882 43:0.00120555 44:0 45:0 46:0 47:0 48:0.00241109 49:0.0066305 50:0 51:0.103677 52:0.000602773 53:0.0283303 54:0 55:0 56:0 57:0 58:0 59:0.000602773 60:0.00361664 61:0 62:0.00120555 63:0 64:0.00120555 65:0 66:0 67:0.0150693 68:0 69:0.0259192 70:0 71:0.0295359 72:0.00542495 73:0.00180832 74:0 75:0 76:0.00542495 77:0.0675105 78:0 79:0.0198915 80:0.130199 81:0.0138638 82:0 83:0.066305 84:0 85:0 86:0.00180832 87:0 88:0 89:0.000602773 90:0 91:0 92:0.00120555 93:0 94:0 95:0.00964436 96:0 97:0 98:0 99:0.0494274 100:0 
-1 -1 -1 -1 1:0.04 2:0.00038835 3:0.00038835 4:0 5:0 6:0.0132039 7:0 8:0.072233 9:0.00038835 10:0.00038835 11:0 12:0.00116505 13:0 14:0.0532039 15:0.00504854 16:0 17:0.00038835 18:0 19:0 20:0.00504854 21:0.00038835 22:0.0178641 23:0 24:0.00737864 25:0.00038835 26:0.0182524 27:0.0182524 28:0.0256311 29:0 30:0.0038835 31:0 32:0.00543689 33:0.00660194 34:0.0621359 35:0.103301 36:0.0178641 37:0.0539806 38:0.0015534 39:0 40:0.0186408 41:0.0147573 42:0.00543689 43:0 44:0.00194175 45:0.0023301 46:0.00038835 47:0 48:0.000776699 49:0.00038835 50:0 51:0.0205825 52:0.0143689 53:0.0015534 54:0 55:0.0031068 56:0.00271845 57:0.0023301 58:0 59:0.0974757 60:0.0532039 61:0.00349515 62:0 63:0.00038835 64:0 65:0 66:0.0333981 67:0.0038835 68:0.00194175 69:0 70:0.00349515 71:0.00271845 72:0.00194175 73:0.00427184 74:0.0023301 75:0.00893204 76:0.00776699 77:0.0112621 78:0 79:0.00038835 80:0.0120388 81:0 82:0.00271845 83:0 84:0 85:0.0217476 86:0 87:0.00194175 88:0.0015534 89:0.00038835 90:0 91:0.00116505 92:0 93:0 94:0.0120388 95:0.00699029 96:0 97:0.0423301 98:0.00194175 99:0.0341748 100:0 
-1 -1 -1 -1 1:0.0371072 2:0.000378644 3:0 4:0.00189322 5:0 6:0.000378644 7:0.000378644 8:0 9:0.00302916 10:0 11:0 12:0 13:0 14:0.0143885 15:0.0973116 16:0 17:0 18:0.00113593 19:0 20:0.00378644 21:0.000378644 22:0 23:0 24:0.000757289 25:0 26:0.000757289 27:0.154487 28:0.0177963 29:0.000757289 30:0.00757289 31:0.000757289 32:0.00302916 33:0.000378644 34:0.079894 35:0.0034078 36:0 37:0.0280197 38:0.00265051 39:0.00227187 40:0 41:0.0174176 42:0.0128739 43:0.00113593 44:0 45:0 46:0 47:0 48:0.00567967 49:0.00113593 50:0 51:0.0329421 52:0.00643696 53:0.00454373 54:0 55:0.00113593 56:0 57:0 58:0 59:0.0348353 60:0.0526316 61:0 62:0 63:0 64:0 65:0 66:0.000757289 67:0 68:0.00757289 69:0.0390004 70:0 71:0.0352139 72:0 73:0.00833018 74:0 75:0 76:0.00151458 77:0.0272624 78:0 79:0.061719 80:0.0878455 81:0.02234 82:0 83:0.00757289 84:0 85:0 86:0 87:0 88:0 89:0.000378644 90:0.00113593 91:0 92:0 93:0 94:0 95:0.0068156 96:0.000757289 97:0.0132526 98:0 99:0.0450587 100:0 
