svm_type c_svc
kernel_type rbf
gamma 0.005
nr_class 10
total_sv 127
rho 0.993941 -0.999896 -0.997549 -0.999063 -1.00007 -1.00002 -0.993793 -0.988108 0.998564 -0.999693 -0.997298 -0.999094 -0.999683 -0.999179 -0.993786 -0.989774 -0.989318 0.999512 0.000468165 0.997667 0.998883 0.00424287 1.00139 1.00008 -0.998124 0.994607 -0.00141171 -0.992185 0.00540057 0.997872 0.996548 0.997519 0.00386387 1.00093 0.999535 -0.996992 -0.990604 -0.985144 1.00072 -0.992004 0.00661367 0.99955 0.995531 0.995459 0.989819
label 1 2 3 4 5 6 7 8 10 11
nr_sv 14 28 8 9 8 10 9 8 9 24
SV
1 0.6369657296881016 0.610483249903735 1 1 1 0.4232626667505272 1 1 6:0.139785 20:0.0107527 22:0.0537634 35:0.0322581 38:0.236559 61:0.0107527 93:0.0215054 95:0.0967742 98:0.0107527 105:0.0322581 119:0.0215054 152:0.0107527 153:0.0430108 164:0.150538 170:0.0107527 174:0.0107527 179:0.0430108 185:0.0215054 197:0.0430108 
1 1 1 1 1 1 1 1 1 1:0.35 48:0.05 56:0.05 64:0.05 65:0.15 79:0.05 93:0.05 197:0.25 
1 1 1 1 1 1 0.5767373332494728 1 1 1:0.0171429 6:0.0457143 20:0.0114286 22:0.0685714 35:0.00571429 38:0.0228571 47:0.00571429 67:0.148571 89:0.125714 90:0.0971429 93:0.00571429 98:0.0171429 105:0.00571429 119:0.0171429 120:0.00571429 126:0.00571429 128:0.00571429 129:0.0114286 152:0.0114286 158:0.00571429 164:0.125714 175:0.0857143 185:0.137143 197:0.0114286 
1 0 1 0.5159556150755692 1 1 0 0.6990816912186723 1 1:0.0285714 3:0.0571429 35:0.0142857 38:0.0428571 89:0.1 90:0.171429 93:0.0142857 112:0.0857143 119:0.0142857 126:0.0142857 164:0.185714 174:0.0285714 179:0.0142857 185:0.185714 190:0.0142857 195:0.0142857 200:0.0142857 
1 0 0 0 0 0 0 0 1 6:0.138889 41:0.194444 61:0.0277778 64:0.0277778 89:0.0555556 90:0.194444 112:0.111111 179:0.0277778 185:0.222222 
1 0 0 0 0.5207898658718331 0 1 0 1 3:0.030303 6:0.0808081 41:0.0808081 64:0.010101 65:0.040404 89:0.050505 90:0.181818 98:0.0606061 105:0.010101 111:0.040404 112:0.131313 120:0.010101 129:0.010101 164:0.0606061 179:0.020202 185:0.151515 190:0.020202 197:0.010101 
1 1 1 1 1 1 0.5323796807194612 1 1 10:0.0277778 22:0.0555556 31:0.111111 33:0.0277778 38:0.138889 89:0.0555556 98:0.0277778 105:0.0277778 112:0.222222 129:0.0277778 132:0.0833333 140:0.0555556 156:0.0555556 164:0.0555556 197:0.0277778 
1 0.3630342703118984 0.389516750096265 0.4840443849244308 0.4792101341281669 0.3702512017367033 0.4676203192805388 0.3009183087813277 1 41:0.5 111:0.5 
1 1 1 1 1 1 1 1 1 1:0.012987 22:0.0519481 27:0.025974 33:0.038961 35:0.0649351 41:0.038961 54:0.012987 64:0.025974 89:0.0519481 93:0.0779221 95:0.0909091 97:0.025974 105:0.0909091 110:0.012987 119:0.0779221 120:0.168831 128:0.012987 132:0.012987 153:0.012987 164:0.025974 189:0.012987 197:0.0519481 
1 1 1 1 1 1 1 1 1 22:0.00854701 38:0.119658 41:0.034188 54:0.00854701 55:0.0940171 56:0.025641 76:0.0598291 89:0.128205 93:0.025641 105:0.102564 112:0.017094 120:0.239316 176:0.00854701 188:0.119658 197:0.00854701 
1 0 0.2968384983849999 0 0 0 0 0 1 6:0.355932 13:0.0169492 22:0.0169492 41:0.118644 89:0.0338983 98:0.0338983 111:0.0677966 112:0.169492 164:0.0338983 179:0.101695 185:0.0169492 190:0.0338983 
1 1 0 0 0 0 0 0 1 1:0.0178571 6:0.196429 41:0.107143 112:0.232143 146:0.0178571 162:0.0178571 164:0.125 179:0.142857 185:0.0535714 190:0.0892857 
1 0 0.7031615016150001 0 1 0.6297487982632967 1 1 1 1:0.125 6:0.0416667 41:0.0416667 89:0.0416667 98:0.0833333 111:0.125 112:0.125 120:0.0416667 152:0.0416667 179:0.25 185:0.0416667 190:0.0416667 
1 1 1 1 1 1 1 1 1 8:0.00223714 17:0.00223714 20:0.00894855 21:0.0268456 29:0.0357942 31:0.00223714 33:0.00447427 35:0.00894855 37:0.00671141 40:0.00223714 42:0.00223714 48:0.00223714 52:0.01566 54:0.00223714 61:0.0290828 64:0.0223714 65:0.0223714 71:0.00223714 85:0.00894855 86:0.0961969 93:0.00894855 98:0.00223714 100:0.00223714 104:0.0581655 106:0.00223714 107:0.00447427 110:0.00223714 111:0.00223714 124:0.00223714 125:0.00223714 126:0.00223714 127:0.0604027 130:0.00447427 133:0.0425056 135:0.0313199 138:0.049217 147:0.00223714 149:0.0380313 156:0.0134228 157:0.0469799 162:0.10962 172:0.00223714 183:0.0559284 186:0.0715884 188:0.0559284 189:0.00671141 192:0.00223714 197:0.0111857 198:0.00223714 
-0 0 0 0 0 0 0 0 1 7:0.00446429 10:0.00446429 17:0.00892857 25:0.107143 33:0.00446429 48:0.0357143 53:0.00446429 54:0.00892857 55:0.00446429 56:0.107143 61:0.0446429 65:0.00446429 75:0.00446429 79:0.00446429 85:0.0223214 93:0.0133929 97:0.174107 98:0.00446429 110:0.120536 120:0.0758929 128:0.0491071 138:0.0133929 152:0.0758929 158:0.00892857 170:0.00892857 174:0.00446429 176:0.0669643 188:0.00446429 192:0.00446429 197:0.00446429 
-1 0.6777014600457907 1 0 1 0 0 0 1 1:0.0193237 7:0.00483092 15:0.00483092 17:0.0386473 30:0.00483092 33:0.00966184 37:0.00483092 41:0.0193237 48:0.0676328 54:0.0289855 64:0.0289855 65:0.00483092 79:0.00966184 80:0.0144928 92:0.0724638 93:0.00966184 97:0.10628 106:0.0144928 110:0.0724638 111:0.00966184 120:0.0483092 128:0.0193237 138:0.00966184 152:0.193237 153:0.00966184 158:0.0289855 170:0.0338164 174:0.00483092 176:0.00483092 179:0.00966184 180:0.00483092 197:0.0869565 
-1 0 0 0 0 0 0 0 0 1:0.0102041 7:0.0408163 33:0.0102041 48:0.0306122 54:0.0306122 55:0.112245 56:0.153061 64:0.0714286 65:0.0714286 92:0.0612245 93:0.0510204 97:0.0102041 120:0.0918367 128:0.0816327 141:0.0102041 170:0.0714286 174:0.0102041 179:0.0102041 197:0.0714286 
-1 0 0 0 0 0 1 0 1 1:0.0857143 3:0.114286 7:0.0285714 10:0.0571429 35:0.0285714 41:0.0285714 56:0.0285714 65:0.0285714 80:0.0285714 93:0.0285714 97:0.0285714 98:0.0285714 111:0.0285714 120:0.0571429 128:0.0857143 140:0.0285714 153:0.0571429 179:0.0285714 190:0.0571429 197:0.142857 
-0 0 1 0 0 0 0 0 0.6541373286039494 1:0.0178571 10:0.0357143 17:0.0178571 32:0.0178571 33:0.0178571 70:0.125 92:0.0178571 93:0.0714286 97:0.0892857 98:0.0178571 110:0.0535714 111:0.0714286 124:0.0178571 128:0.178571 140:0.107143 153:0.0178571 170:0.0178571 172:0.0714286 176:0.0357143 
-0 0 0 0.6278226900156982 0 0 0 1 1 13:0.0232558 20:0.106977 21:0.00465116 29:0.00465116 31:0.0139535 35:0.167442 48:0.0604651 54:0.0139535 55:0.00465116 61:0.00930233 65:0.0976744 79:0.00465116 92:0.00930233 93:0.0604651 97:0.0790698 98:0.0883721 120:0.027907 153:0.0232558 170:0.0139535 174:0.148837 176:0.00465116 197:0.0325581 
-0 1 1 1 0 0 0 1 1 20:0.214286 35:0.321429 54:0.125 76:0.0357143 93:0.0892857 120:0.0892857 174:0.0892857 179:0.0357143 
-0 0 0 0 0 0 0 1 1 20:0.00877193 21:0.0263158 33:0.0263158 35:0.0614035 54:0.298246 55:0.0701754 56:0.0263158 64:0.00877193 85:0.0263158 93:0.175439 105:0.0438596 110:0.00877193 120:0.157895 152:0.00877193 190:0.00877193 194:0.0263158 197:0.0175439 
-0.8446679107056465 1 0.3779669610114103 1 1 1 0 0 1 1:0.04 13:0.04 20:0.12 54:0.04 65:0.12 70:0.12 76:0.08 93:0.16 174:0.16 179:0.08 190:0.04 
-1 0 0 1 1 1 0 1 1 7:0.0151515 10:0.0030303 17:0.0181818 20:0.0454545 29:0.00909091 33:0.0333333 35:0.030303 48:0.0515152 54:0.142424 55:0.0636364 56:0.0030303 65:0.0181818 70:0.0212121 76:0.00606061 80:0.00909091 85:0.030303 91:0.0545455 92:0.0121212 93:0.115152 97:0.0212121 98:0.0030303 106:0.0030303 107:0.0121212 110:0.030303 120:0.0181818 132:0.030303 138:0.00606061 152:0.069697 160:0.00606061 170:0.0545455 174:0.0212121 176:0.0242424 179:0.00606061 190:0.0030303 194:0.00909091 
-0 0 0 0 0 0 0.6893505680293407 0.3851701075894155 0.3458626713960506 31:0.0113636 33:0.0113636 48:0.0227273 54:0.0909091 55:0.0113636 56:0.0454545 61:0.0113636 65:0.159091 85:0.0227273 92:0.0227273 98:0.0113636 120:0.227273 124:0.0113636 160:0.215909 170:0.0113636 176:0.0681818 188:0.0227273 194:0.0227273 
-0 0 0 0 1 0 1 0 1 1:0.00520833 17:0.00520833 20:0.0625 23:0.00520833 29:0.015625 33:0.00520833 35:0.00520833 41:0.015625 48:0.0260417 54:0.0989583 65:0.0520833 79:0.0416667 85:0.00520833 92:0.135417 93:0.03125 97:0.0260417 111:0.00520833 120:0.166667 124:0.00520833 128:0.00520833 147:0.166667 174:0.104167 176:0.00520833 179:0.00520833 
-1 1 1 1 1 1 1 0 1 1:0.00217865 7:0.0261438 10:0.00217865 13:0.0087146 17:0.00217865 20:0.00217865 29:0.00217865 32:0.0915033 33:0.0043573 35:0.0087146 37:0.00217865 53:0.117647 54:0.00653595 56:0.0762527 59:0.00217865 61:0.0479303 64:0.0174292 79:0.0087146 85:0.0718954 92:0.00217865 93:0.00217865 95:0.0217865 97:0.0174292 98:0.0043573 105:0.0501089 110:0.0152505 119:0.0348584 120:0.0108932 124:0.0130719 128:0.00217865 129:0.0217865 138:0.00217865 147:0.00217865 149:0.0152505 152:0.00217865 153:0.0283224 155:0.0479303 158:0.00653595 160:0.0043573 174:0.0239651 176:0.0130719 188:0.00217865 189:0.0108932 192:0.0174292 194:0.122004 197:0.0043573 
-1 0 1 1 0 1 0 0 1 1:0.0133929 20:0.0982143 23:0.0446429 48:0.0267857 54:0.0892857 55:0.0982143 56:0.00446429 61:0.0892857 65:0.0133929 79:0.0357143 92:0.0267857 93:0.0267857 97:0.00446429 105:0.00446429 107:0.0223214 120:0.142857 142:0.00446429 147:0.0848214 152:0.00892857 170:0.03125 174:0.116071 176:0.00446429 190:0.00892857 
-0 0 0 0.3721773099843018 0.1503591043514998 0 0 0 0 10:0.103448 21:0.00862069 35:0.00862069 48:0.172414 56:0.00862069 64:0.00862069 92:0.0431034 93:0.0344828 97:0.0775862 124:0.00862069 128:0.189655 140:0.224138 153:0.0431034 170:0.0517241 176:0.00862069 197:0.00862069 
-1 1 1 1 1 1 0 0 1 3:0.0216718 7:0.00309598 10:0.0309598 15:0.00619195 17:0.0123839 31:0.0278638 33:0.00309598 37:0.00928793 43:0.0433437 48:0.130031 52:0.0154799 55:0.00309598 56:0.0340557 61:0.00309598 65:0.00619195 79:0.0185759 80:0.00928793 85:0.00928793 92:0.00619195 97:0.00928793 106:0.0123839 110:0.0650155 120:0.0154799 128:0.0185759 138:0.00928793 140:0.0340557 152:0.0123839 153:0.0464396 158:0.00619195 160:0.102167 170:0.0154799 172:0.00619195 174:0.00309598 176:0.182663 180:0.0526316 190:0.00309598 192:0.00309598 194:0.00619195 197:0.00309598 
-1 1 1 0.751189306074307 0.8496408956485002 0.5982307843522705 0 0 1 10:0.108808 17:0.103627 21:0.0207254 25:0.015544 29:0.0103627 32:0.0207254 41:0.0103627 54:0.0310881 55:0.00518135 56:0.0310881 64:0.0880829 65:0.0103627 75:0.0466321 80:0.0103627 85:0.00518135 92:0.0725389 97:0.0414508 98:0.00518135 110:0.108808 124:0.0310881 138:0.015544 140:0.0414508 152:0.015544 153:0.0829016 170:0.015544 176:0.0310881 179:0.00518135 198:0.015544 
-0 0 0 0 0 0 0.3106494319706593 1 1 7:0.177778 35:0.0222222 41:0.0444444 48:0.0444444 54:0.0666667 56:0.0222222 64:0.133333 65:0.0222222 76:0.0222222 92:0.0222222 93:0.311111 97:0.0222222 120:0.0222222 128:0.0222222 170:0.0222222 190:0.0222222 
-1 0 0 0 0 0 0.7038287449544202 0 1 25:0.142857 41:0.142857 98:0.142857 174:0.142857 179:0.142857 190:0.285714 
-0 0 0 0 0 0 0 0 1 3:0.113636 7:0.0227273 33:0.0454545 41:0.0227273 53:0.0681818 56:0.181818 92:0.0454545 111:0.0227273 120:0.0227273 128:0.181818 152:0.136364 153:0.0681818 190:0.0681818 
-0 0.7335315468410378 0 0 0.4627800804977073 1 0 0 1 10:0.0149254 17:0.00746269 25:0.0970149 29:0.0970149 33:0.00746269 35:0.0149254 53:0.00746269 56:0.00746269 70:0.0149254 92:0.00746269 97:0.0597015 106:0.0671642 110:0.0447761 111:0.00746269 124:0.0298507 128:0.0671642 140:0.141791 152:0.0447761 153:0.141791 172:0.0298507 174:0.0223881 176:0.0223881 197:0.0447761 
-0 0 0 0 0 0 0 0 1 3:0.0184332 10:0.165899 17:0.0276498 21:0.00921659 33:0.00460829 35:0.00460829 37:0.00921659 41:0.00460829 54:0.00460829 56:0.00460829 64:0.00921659 65:0.0276498 70:0.078341 80:0.00460829 85:0.0322581 92:0.0138249 93:0.00460829 97:0.0138249 98:0.00460829 106:0.00460829 107:0.0138249 110:0.0599078 111:0.0138249 120:0.0138249 124:0.0691244 128:0.105991 138:0.00921659 140:0.0599078 152:0.0322581 153:0.119816 164:0.00460829 170:0.00921659 176:0.0230415 179:0.00460829 190:0.0138249 
-0.1553320892943535 0 0 0 0 0 1 0 0 7:0.00546448 10:0.00546448 25:0.106557 33:0.00273224 35:0.00819672 43:0.0382514 48:0.114754 49:0.0136612 53:0.0218579 56:0.0655738 65:0.057377 70:0.00546448 79:0.0218579 92:0.120219 97:0.0601093 110:0.0273224 115:0.010929 119:0.00273224 120:0.131148 124:0.0136612 125:0.00819672 128:0.00819672 138:0.00273224 152:0.0382514 155:0.0163934 160:0.00273224 170:0.00819672 172:0.00273224 174:0.00273224 176:0.0327869 180:0.0218579 189:0.00819672 192:0.010929 200:0.00273224 
-1 0 0 0 0 0 1 1 1 3:0.0625 33:0.03125 35:0.125 54:0.03125 76:0.09375 85:0.03125 93:0.125 97:0.03125 98:0.15625 120:0.0625 153:0.03125 174:0.0625 179:0.03125 190:0.125 
-1 0 0 0 0 0 0 0.6148298924105845 1 3:0.018018 29:0.018018 31:0.036036 35:0.00900901 41:0.00900901 48:0.00900901 53:0.027027 56:0.0540541 64:0.036036 79:0.045045 92:0.0810811 93:0.00900901 98:0.027027 111:0.153153 128:0.162162 140:0.0630631 152:0.018018 153:0.0720721 160:0.018018 170:0.0810811 179:0.00900901 189:0.018018 190:0.018018 194:0.00900901 
-1 0.3222985399542093 0.6220330389885897 0.248810693925693 0.5372199195022926 0.4017692156477295 0 0 1 25:0.125 41:0.25 65:0.125 179:0.125 190:0.375 
-1 1 0.9500639113762249 0 1 1 1 1 1 1:0.0353982 3:0.0265487 10:0.00884956 17:0.0442478 21:0.0707965 25:0.0176991 29:0.00884956 33:0.0176991 35:0.0619469 37:0.00884956 48:0.0176991 56:0.0176991 64:0.0353982 80:0.0265487 89:0.0176991 92:0.0176991 97:0.0176991 98:0.00884956 106:0.0353982 110:0.106195 111:0.0707965 124:0.0530973 128:0.159292 132:0.0353982 142:0.00884956 170:0.0265487 190:0.0176991 194:0.00884956 197:0.0176991 
-0 0.2664684531589622 0.04993608862377508 0 1 1 0.2961712550455798 1 1 20:0.016129 35:0.112903 48:0.016129 54:0.0806452 56:0.0806452 76:0.0322581 93:0.145161 98:0.0483871 120:0.0967742 153:0.016129 170:0.145161 174:0.129032 179:0.016129 197:0.0645161 
-1 -1 1 1 1 1 1 1 1 5:0.011811 18:0.023622 21:0.00393701 24:0.011811 33:0.00393701 34:0.0393701 35:0.00787402 37:0.00393701 48:0.00393701 54:0.00393701 55:0.0511811 62:0.0551181 68:0.0708661 69:0.00787402 75:0.00393701 80:0.019685 92:0.00393701 96:0.11811 106:0.00787402 110:0.00787402 115:0.00787402 122:0.00393701 124:0.015748 132:0.0393701 136:0.212598 138:0.023622 141:0.00787402 142:0.00787402 143:0.0354331 149:0.00393701 156:0.011811 171:0.145669 189:0.00393701 192:0.00787402 198:0.011811 
-1 -1 1 1 1 1 1 1 1 2:0.0100671 8:0.0100671 13:0.00671141 18:0.0167785 21:0.0134228 24:0.00671141 33:0.0033557 34:0.00671141 37:0.00671141 44:0.0436242 62:0.057047 68:0.0234899 69:0.0100671 70:0.0033557 74:0.0134228 75:0.0100671 80:0.0134228 81:0.057047 85:0.0033557 96:0.0402685 99:0.0100671 110:0.0033557 114:0.0738255 115:0.00671141 121:0.0302013 122:0.0033557 125:0.0167785 132:0.0302013 134:0.0033557 136:0.147651 142:0.0033557 143:0.0704698 148:0.0369128 152:0.0033557 156:0.0033557 161:0.0134228 166:0.0536913 168:0.0033557 171:0.0369128 179:0.0033557 189:0.0033557 191:0.0201342 194:0.0167785 198:0.0503356 
-1 -1 1 1 1 1 1 1 1 2:0.0540541 8:0.018018 13:0.0810811 37:0.036036 44:0.00900901 48:0.018018 54:0.00900901 68:0.0900901 69:0.045045 70:0.027027 74:0.00900901 75:0.00900901 80:0.00900901 87:0.036036 105:0.00900901 122:0.00900901 132:0.00900901 149:0.0540541 160:0.00900901 161:0.0900901 167:0.0720721 170:0.00900901 171:0.027027 174:0.00900901 178:0.0810811 189:0.117117 192:0.0540541 
-1 -1 1 1 1 1 1 1 1 5:0.0454545 13:0.0636364 25:0.0181818 27:0.00909091 30:0.00909091 34:0.127273 37:0.0181818 39:0.0545455 69:0.0545455 70:0.0363636 80:0.0181818 88:0.0363636 94:0.0454545 106:0.00909091 110:0.0272727 115:0.0181818 120:0.00909091 124:0.00909091 132:0.0818182 149:0.0181818 158:0.136364 159:0.00909091 160:0.0181818 168:0.0181818 170:0.00909091 172:0.0454545 188:0.00909091 189:0.0181818 197:0.0272727 
-1 -1 1 1 1 1 1 1 1 21:0.00641026 25:0.0192308 33:0.0128205 34:0.0128205 37:0.0128205 70:0.0705128 74:0.00641026 80:0.0897436 85:0.00641026 87:0.00641026 96:0.00641026 102:0.00641026 103:0.0128205 106:0.00641026 132:0.0384615 136:0.0128205 138:0.00641026 142:0.00641026 148:0.0897436 149:0.0192308 156:0.00641026 160:0.00641026 161:0.0384615 163:0.00641026 171:0.160256 173:0.025641 174:0.00641026 178:0.0641026 189:0.0833333 192:0.0705128 197:0.0128205 198:0.0705128 
-1 -1 1 1 1 1 1 1 1 7:0.00591716 13:0.0177515 17:0.0710059 20:0.142012 33:0.00591716 35:0.183432 37:0.00591716 54:0.035503 55:0.00591716 79:0.0118343 92:0.0177515 93:0.0473373 106:0.0177515 124:0.00591716 132:0.0710059 139:0.00591716 141:0.035503 142:0.0236686 147:0.0236686 174:0.177515 178:0.0236686 183:0.0236686 194:0.0118343 197:0.0295858 
-1 -1 1 1 1 1 1 1 1 1:0.00561798 7:0.00280899 13:0.0224719 17:0.0870787 20:0.00842697 21:0.134831 24:0.0140449 29:0.011236 31:0.00280899 33:0.00280899 35:0.00280899 38:0.00280899 44:0.0477528 52:0.00280899 62:0.00280899 65:0.011236 68:0.00561798 70:0.00561798 74:0.0140449 80:0.0280899 85:0.0168539 93:0.00280899 98:0.00561798 110:0.0589888 118:0.0308989 122:0.109551 124:0.00842697 125:0.0140449 129:0.00561798 134:0.011236 136:0.0337079 138:0.00561798 150:0.00280899 158:0.00280899 160:0.011236 161:0.0702247 171:0.011236 172:0.00280899 174:0.00280899 181:0.0280899 183:0.0140449 189:0.00561798 191:0.0224719 192:0.00280899 194:0.0140449 197:0.011236 198:0.0786517 
-1 -1 1 1 1 1 1 1 1 1:0.0118343 2:0.00591716 14:0.0946746 18:0.0769231 20:0.0177515 24:0.0236686 29:0.035503 34:0.00591716 35:0.0177515 41:0.00591716 44:0.0118343 54:0.00591716 68:0.100592 70:0.0177515 75:0.0650888 80:0.0177515 93:0.0236686 97:0.00591716 98:0.0118343 106:0.00591716 110:0.00591716 115:0.0650888 120:0.0236686 122:0.0118343 124:0.0118343 128:0.00591716 136:0.0769231 138:0.0118343 142:0.0177515 152:0.0118343 172:0.0118343 174:0.0118343 188:0.0236686 189:0.0532544 190:0.0295858 192:0.0118343 197:0.0295858 198:0.0236686 
-1 -1 -1 1 1 1 1 1 1 1:0.00383142 2:0.00383142 5:0.00383142 8:0.0229885 9:0.00383142 17:0.00766284 21:0.00766284 24:0.0114943 30:0.00383142 35:0.00766284 37:0.00383142 39:0.103448 48:0.0114943 49:0.0766283 62:0.00383142 68:0.00383142 69:0.0306513 70:0.00766284 73:0.153257 85:0.00766284 96:0.0344828 99:0.0114943 103:0.0191571 107:0.00383142 110:0.00383142 115:0.0306513 120:0.00383142 131:0.157088 132:0.00383142 138:0.00766284 142:0.0306513 144:0.091954 145:0.0344828 152:0.00383142 154:0.0306513 158:0.0191571 163:0.00766284 172:0.0153257 176:0.00383142 188:0.00383142 194:0.00383142 
-1 -1 -1 0.4947093292862864 1 1 1 1 1 2:0.111111 9:0.017094 30:0.00854701 34:0.00854701 39:0.00854701 44:0.00854701 70:0.00854701 85:0.034188 96:0.213675 99:0.239316 103:0.0512821 113:0.0598291 122:0.00854701 138:0.00854701 154:0.00854701 161:0.034188 163:0.102564 168:0.034188 171:0.025641 172:0.00854701 
-1 -1 -0.6465697826656193 0.5052906707137136 1 1 0.5542026708562451 1 1 2:0.021164 8:0.021164 32:0.015873 35:0.00529101 37:0.359788 39:0.042328 62:0.0529101 75:0.00529101 92:0.0529101 96:0.010582 103:0.026455 122:0.015873 132:0.015873 141:0.031746 142:0.042328 145:0.010582 148:0.00529101 149:0.010582 152:0.042328 156:0.031746 158:0.00529101 159:0.00529101 161:0.015873 166:0.121693 168:0.010582 174:0.010582 188:0.00529101 195:0.00529101 
-1 -1 -1 1 1 1 1 1 1 8:0.10219 13:0.00729927 34:0.00729927 48:0.0145985 51:0.00729927 62:0.0729927 64:0.00729927 75:0.00729927 87:0.00729927 115:0.00729927 137:0.19708 148:0.19708 149:0.00729927 156:0.00729927 161:0.284672 166:0.0291971 187:0.0145985 198:0.0218978 
-1 -1 -1 1 1 1 1 1 1 2:0.00696864 9:0.0452962 18:0.00348432 24:0.0557491 28:0.00348432 30:0.0313589 34:0.118467 37:0.0174216 39:0.0592334 51:0.0627178 62:0.0243902 63:0.00348432 69:0.087108 70:0.00696864 74:0.0627178 75:0.00696864 77:0.0139373 93:0.00348432 99:0.0662021 103:0.00696864 110:0.00348432 122:0.00348432 136:0.00696864 138:0.0209059 142:0.00348432 155:0.0278746 158:0.0174216 159:0.0348432 166:0.0139373 168:0.163763 171:0.010453 194:0.00348432 197:0.00348432 
-1 -1 -1 1 1 1 1 1 1 2:0.21519 8:0.0126582 9:0.0379747 28:0.0253165 39:0.0253165 62:0.0253165 75:0.0126582 92:0.0253165 96:0.0126582 99:0.0126582 103:0.0759494 115:0.0632911 142:0.0126582 163:0.164557 166:0.0886076 189:0.0126582 190:0.0759494 195:0.101266 
-1 -1 -1 1 1 1 1 1 1 20:0.160584 29:0.00729927 32:0.00729927 35:0.0875912 37:0.0218978 54:0.0729927 55:0.0145985 65:0.00729927 76:0.00729927 85:0.0218978 92:0.0510949 93:0.0218978 97:0.0364963 124:0.0291971 132:0.0291971 138:0.20438 141:0.0364963 147:0.00729927 166:0.0218978 170:0.00729927 174:0.0437956 176:0.0145985 179:0.0145985 194:0.00729927 197:0.0656934 
-1 -1 -1 1 1 1 1 1 1 13:0.00943396 16:0.0188679 20:0.0188679 35:0.0283019 37:0.245283 55:0.0188679 62:0.0188679 75:0.0188679 85:0.00943396 96:0.0377358 103:0.113208 107:0.0188679 110:0.0377358 124:0.00943396 132:0.103774 136:0.00943396 149:0.0188679 152:0.00943396 154:0.0471698 156:0.00943396 166:0.160377 174:0.00943396 176:0.0188679 194:0.00943396 
-1 -1 -0.3534302173343807 1 1 1 0.4457973291437549 1 1 2:0.0224719 9:0.0337079 28:0.157303 33:0.011236 39:0.0337079 62:0.0168539 85:0.00561798 96:0.0337079 99:0.162921 103:0.0449438 115:0.011236 136:0.0224719 142:0.0224719 152:0.00561798 154:0.0505618 163:0.275281 166:0.0842697 172:0.00561798 
-1 -1 -1 -1 1 1 1 1 1 1:0.0321101 10:0.00458716 20:0.0642202 35:0.0366972 39:0.00917431 41:0.00458716 42:0.00917431 43:0.059633 48:0.0183486 52:0.0688073 55:0.0137615 65:0.0412844 75:0.00458716 79:0.0917431 85:0.0183486 93:0.151376 98:0.00458716 111:0.00458716 119:0.087156 127:0.0366972 129:0.0412844 140:0.00458716 141:0.0412844 142:0.00917431 147:0.0366972 152:0.00917431 153:0.00458716 156:0.00917431 160:0.00458716 174:0.00458716 176:0.0366972 179:0.00917431 180:0.00458716 183:0.0137615 188:0.00458716 197:0.00458716 
-1 -1 -1 -1 1 1 1 1 1 1:0.0123967 3:0.00826446 4:0.0165289 20:0.0495868 33:0.0206612 35:0.00413223 36:0.00826446 37:0.0165289 42:0.0619835 47:0.0371901 48:0.14876 54:0.00413223 56:0.00413223 58:0.0165289 70:0.0330578 75:0.132231 79:0.00826446 93:0.0123967 106:0.0330578 110:0.0123967 117:0.0123967 120:0.0123967 123:0.00413223 124:0.103306 125:0.0330578 127:0.0289256 149:0.00413223 156:0.00826446 160:0.00413223 170:0.00826446 174:0.00413223 178:0.0123967 193:0.0371901 197:0.0123967 200:0.0743802 
-1 -1 -1 -1 1 1 1 1 1 1:0.0077821 4:0.0856031 11:0.0661479 13:0.00389105 20:0.171206 23:0.00389105 29:0.00389105 33:0.0077821 35:0.00389105 37:0.00389105 41:0.0155642 42:0.0194553 48:0.0155642 52:0.0077821 53:0.00389105 54:0.00389105 61:0.00389105 68:0.00389105 74:0.00389105 75:0.00389105 91:0.0233463 104:0.00389105 109:0.0933852 111:0.0116732 117:0.0077821 119:0.0116732 122:0.0194553 127:0.0311284 129:0.077821 132:0.00389105 138:0.0116732 142:0.0077821 149:0.0116732 156:0.0155642 173:0.0116732 176:0.0428016 179:0.00389105 183:0.0077821 188:0.00389105 196:0.159533 
-1 -1 -1 -1 1 1 1 1 1 1:0.00346021 15:0.00692042 20:0.0380623 35:0.00346021 36:0.0207612 42:0.0138408 43:0.0138408 47:0.00692042 48:0.00692042 52:0.0484429 56:0.00692042 58:0.0346021 71:0.00692042 79:0.176471 85:0.00692042 93:0.0138408 107:0.0103806 119:0.183391 120:0.0207612 123:0.0588235 127:0.16263 139:0.0622837 145:0.0415225 156:0.00346021 174:0.0138408 180:0.00692042 200:0.0276817 
-1 -1 -1 -1 1 1 1 1 1 20:0.0530303 33:0.0378788 35:0.0113636 36:0.00378788 41:0.0113636 42:0.0227273 47:0.0643939 48:0.00757576 52:0.0189394 56:0.00378788 58:0.0265152 61:0.00378788 65:0.0340909 79:0.0681818 93:0.00378788 104:0.00378788 111:0.00757576 119:0.0454545 127:0.102273 138:0.0113636 139:0.0681818 147:0.00378788 156:0.117424 165:0.0643939 174:0.0113636 179:0.00757576 180:0.00757576 182:0.17803 
-1 -1 -1 -1 1 1 1 1 1 13:0.00206186 25:0.00206186 33:0.014433 42:0.0680412 48:0.014433 56:0.00412371 61:0.00206186 65:0.028866 79:0.00206186 80:0.0927835 82:0.0453608 85:0.0123711 92:0.00618557 93:0.00206186 98:0.00618557 105:0.0103093 107:0.0123711 110:0.105155 117:0.146392 123:0.0103093 125:0.00618557 129:0.00412371 130:0.0164948 138:0.00412371 147:0.00206186 152:0.00206186 156:0.00206186 170:0.00824742 171:0.00618557 173:0.175258 174:0.00412371 176:0.0309278 178:0.00618557 188:0.0371134 194:0.0103093 196:0.0886598 197:0.00618557 198:0.00206186 
-1 -1 -1 -1 1 1 1 1 1 1:0.00558659 7:0.027933 10:0.00558659 20:0.312849 23:0.0167598 35:0.0502793 42:0.00558659 52:0.0502793 54:0.100559 55:0.0111732 56:0.00558659 61:0.0111732 65:0.00558659 79:0.0167598 85:0.00558659 92:0.0558659 93:0.100559 97:0.0502793 119:0.0614525 120:0.00558659 124:0.0167598 128:0.00558659 129:0.00558659 132:0.00558659 183:0.0558659 188:0.00558659 
-1 -1 -1 -1 1 1 1 1 1 7:0.00473934 20:0.317536 23:0.014218 35:0.118483 42:0.0331754 54:0.0995261 65:0.00473934 76:0.014218 79:0.042654 92:0.0521327 93:0.0853081 97:0.00473934 128:0.00947867 139:0.0758294 147:0.028436 170:0.00473934 174:0.0663507 179:0.00473934 200:0.0189573 
-1 -1 -1 -1 -1 1 1 1 1 1:0.00526316 7:0.00526316 15:0.0157895 17:0.00526316 20:0.0736842 22:0.0368421 23:0.0105263 31:0.0105263 32:0.110526 33:0.00526316 35:0.00526316 36:0.00526316 41:0.0210526 48:0.0315789 50:0.0368421 54:0.0473684 55:0.00526316 65:0.0105263 85:0.0368421 92:0.0105263 93:0.0842105 104:0.0368421 105:0.0315789 111:0.00526316 119:0.0105263 120:0.0157895 128:0.0105263 132:0.0105263 140:0.0157895 147:0.0736842 152:0.0157895 153:0.0157895 158:0.0157895 174:0.121053 176:0.0105263 179:0.0105263 194:0.00526316 197:0.00526316 200:0.0157895 
-1 -1 -1 -1 -1 1 1 1 1 1:0.00843882 7:0.0168776 10:0.00421941 13:0.021097 22:0.0168776 33:0.122363 34:0.00421941 35:0.0379747 36:0.00843882 38:0.0253165 48:0.109705 54:0.00421941 56:0.0126582 61:0.00421941 65:0.00843882 69:0.00421941 70:0.0337553 75:0.0295359 92:0.00843882 93:0.0168776 95:0.0421941 97:0.00421941 98:0.00421941 106:0.0379747 110:0.00843882 119:0.0675105 120:0.00421941 124:0.0253165 129:0.092827 138:0.0548523 142:0.00843882 152:0.00843882 153:0.00421941 156:0.0253165 157:0.00421941 164:0.00421941 170:0.0337553 174:0.021097 188:0.00421941 189:0.0168776 192:0.0168776 196:0.00843882 199:0.00421941 
-1 -1 -1 -1 -1 1 1 1 1 15:0.056962 16:0.056962 20:0.00632911 22:0.0316456 27:0.0253165 31:0.00632911 32:0.056962 33:0.0949367 35:0.0822785 36:0.0189873 48:0.00632911 65:0.00632911 70:0.00632911 85:0.00632911 93:0.0253165 104:0.056962 119:0.00632911 126:0.0126582 132:0.113924 138:0.0189873 152:0.00632911 157:0.0189873 158:0.113924 174:0.0126582 179:0.00632911 186:0.056962 190:0.0126582 197:0.00632911 199:0.0126582 200:0.056962 
-1 -1 -1 -1 -1 1 1 1 1 15:0.0795455 16:0.121212 22:0.0795455 27:0.0378788 32:0.0265152 33:0.0189394 36:0.0795455 40:0.0757576 41:0.00757576 48:0.00378788 53:0.00378788 54:0.00378788 56:0.00378788 65:0.00378788 70:0.00378788 71:0.0606061 93:0.0151515 104:0.0568182 105:0.0340909 119:0.030303 127:0.00378788 129:0.00378788 130:0.0189394 132:0.0416667 152:0.00378788 156:0.00757576 158:0.0378788 174:0.0113636 186:0.0265152 194:0.0189394 199:0.030303 200:0.0492424 
-1 -1 -1 -1 -0 1 0 1 1 1:0.0175439 15:0.0789474 16:0.0877193 22:0.00877193 27:0.0657895 33:0.0964912 36:0.00438596 38:0.0131579 40:0.0570175 64:0.00877193 65:0.00877193 70:0.0219298 71:0.0570175 93:0.00438596 105:0.00438596 124:0.0219298 126:0.0964912 130:0.0526316 132:0.0701754 146:0.0438596 157:0.00438596 158:0.00438596 172:0.00877193 186:0.00438596 195:0.0526316 197:0.0131579 198:0.00438596 199:0.0394737 200:0.0482456 
-1 -1 -0 -1 -0 1 1 1 1 3:0.01875 13:0.01875 15:0.03125 16:0.0875 27:0.0125 31:0.00625 33:0.03125 37:0.0125 38:0.025 41:0.0375 65:0.0125 71:0.05625 80:0.0125 93:0.0125 100:0.1125 126:0.0875 130:0.09375 132:0.01875 146:0.05625 157:0.0125 158:0.0125 164:0.00625 173:0.01875 186:0.03125 190:0.00625 199:0.11875 200:0.05 
-1 -1 -1 -1 -1 1 1 1 1 1:0.0291262 3:0.00970874 15:0.0825243 16:0.0194175 25:0.00970874 27:0.0631068 31:0.00970874 33:0.0631068 40:0.038835 41:0.00485437 48:0.00485437 54:0.00485437 64:0.0436893 65:0.00485437 70:0.00485437 71:0.0242718 86:0.00970874 93:0.00485437 104:0.00970874 105:0.0194175 120:0.0194175 126:0.0533981 129:0.00485437 130:0.0485437 132:0.0631068 146:0.0242718 149:0.00970874 157:0.00970874 174:0.0631068 195:0.0533981 197:0.0291262 199:0.101942 200:0.0582524 
-1 -1 -1 -1 -1 1 1 1 1 3:0.0209424 13:0.0366492 15:0.0732984 16:0.0052356 22:0.0418848 27:0.0418848 33:0.0471204 36:0.052356 38:0.0052356 40:0.0104712 64:0.0157068 71:0.0837696 97:0.0052356 100:0.026178 104:0.0104712 106:0.0104712 119:0.0157068 124:0.0104712 126:0.078534 129:0.0052356 130:0.0471204 132:0.0209424 138:0.0104712 146:0.0052356 157:0.151832 158:0.0052356 174:0.0052356 186:0.052356 190:0.0157068 197:0.0052356 199:0.0052356 200:0.078534 
-1 -1 -0 -0 -1 0 0 0 1 15:0.0939597 16:0.0805369 22:0.0134228 27:0.0604027 33:0.0604027 36:0.0201342 40:0.0402685 65:0.00671141 71:0.0738255 95:0.00671141 98:0.00671141 100:0.0738255 106:0.00671141 126:0.0536913 130:0.033557 132:0.0201342 146:0.0469799 153:0.00671141 157:0.0134228 158:0.00671141 162:0.00671141 164:0.0268456 170:0.0201342 179:0.00671141 189:0.00671141 190:0.00671141 195:0.0134228 197:0.0134228 199:0.114094 200:0.0604027 
-1 -1 -1 -1 -1 1 1 1 1 1:0.031746 15:0.031746 16:0.026455 21:0.00529101 22:0.026455 35:0.00529101 36:0.026455 38:0.031746 40:0.00529101 48:0.00529101 54:0.010582 55:0.00529101 65:0.0846561 71:0.0687831 79:0.026455 85:0.010582 92:0.037037 93:0.010582 104:0.0529101 105:0.021164 106:0.00529101 110:0.00529101 120:0.0793651 129:0.021164 130:0.0529101 132:0.010582 157:0.00529101 173:0.00529101 174:0.010582 176:0.037037 188:0.21164 192:0.00529101 200:0.026455 
-1 -1 -1 -1 -1 -1 1 1 1 2:0.0334572 9:0.152416 13:0.00371747 15:0.00371747 21:0.00371747 24:0.00743494 30:0.0483271 33:0.0260223 34:0.070632 36:0.00371747 37:0.0334572 38:0.00743494 39:0.0855019 45:0.0892193 56:0.00371747 64:0.0148699 65:0.00743494 69:0.0297398 76:0.063197 77:0.0111524 79:0.00371747 85:0.0148699 92:0.00743494 96:0.0223048 97:0.0148699 98:0.0223048 99:0.00371747 103:0.0111524 105:0.00371747 106:0.00371747 107:0.00371747 110:0.00371747 120:0.00371747 122:0.0111524 125:0.00743494 136:0.00371747 138:0.0148699 142:0.00743494 149:0.0148699 156:0.0111524 158:0.0334572 163:0.0111524 168:0.0446097 170:0.0185874 188:0.00371747 
-1 -1 -1 -1 -1 -1 1 1 1 2:0.020979 10:0.0034965 13:0.0034965 24:0.00699301 31:0.0034965 38:0.0174825 44:0.0734266 64:0.0104895 80:0.013986 83:0.0034965 84:0.0524476 97:0.0104895 98:0.020979 106:0.0174825 107:0.041958 108:0.048951 120:0.0034965 122:0.101399 124:0.027972 125:0.0384615 134:0.0034965 138:0.00699301 142:0.013986 145:0.00699301 149:0.0104895 151:0.0944056 156:0.0034965 161:0.0454545 170:0.013986 171:0.0244755 174:0.0034965 176:0.0034965 191:0.188811 194:0.0034965 198:0.0559441 
-1 -1 -1 -1 -1 -1 0 1 1 5:0.0935961 7:0.00492611 9:0.0197044 24:0.118227 34:0.00492611 35:0.00985222 39:0.0197044 40:0.00492611 42:0.00492611 44:0.00985222 49:0.00492611 56:0.00492611 57:0.0246305 61:0.00492611 65:0.00492611 68:0.00492611 69:0.00492611 70:0.0197044 74:0.00985222 76:0.00492611 77:0.0344828 80:0.044335 85:0.0246305 93:0.0197044 94:0.0492611 104:0.0246305 105:0.00492611 106:0.0591133 110:0.00985222 113:0.00492611 115:0.00492611 120:0.00492611 124:0.0246305 125:0.0197044 128:0.00492611 132:0.0394089 138:0.044335 142:0.0147783 149:0.00492611 155:0.0394089 156:0.00492611 158:0.0197044 159:0.0492611 189:0.044335 194:0.00492611 195:0.00492611 197:0.0147783 
-1 -1 -1 -1 -1 -1 1 1 1 1:0.00740741 2:0.00740741 3:0.0222222 13:0.0444444 14:0.0740741 20:0.0111111 21:0.0111111 23:0.00740741 29:0.0037037 30:0.00740741 31:0.0037037 41:0.00740741 44:0.1 56:0.0037037 62:0.00740741 64:0.0037037 70:0.0296296 74:0.0333333 91:0.0259259 96:0.00740741 98:0.0111111 106:0.0037037 122:0.122222 124:0.0037037 125:0.0740741 136:0.00740741 138:0.0259259 142:0.0407407 149:0.0148148 156:0.0037037 160:0.0037037 169:0.125926 171:0.0111111 172:0.0111111 183:0.0407407 188:0.0037037 190:0.0111111 191:0.0333333 197:0.0111111 198:0.0222222 
-1 -1 -0.7476905655879373 -1 -0.5747362774897193 -1 1 1 1 5:0.0422535 9:0.0704225 25:0.0140845 34:0.0704225 37:0.00704225 39:0.0774648 44:0.0422535 62:0.0211268 69:0.0774648 70:0.0211268 73:0.00704225 74:0.056338 77:0.0633803 80:0.00704225 122:0.00704225 125:0.0140845 155:0.0704225 158:0.00704225 159:0.0422535 163:0.0140845 170:0.0211268 187:0.246479 
-1 -1 -1 -1 -1 -1 1 1 1 9:0.0121951 20:0.0487805 22:0.00609756 24:0.0121951 32:0.0182927 35:0.0731707 37:0.0121951 41:0.00609756 54:0.00609756 55:0.0365854 76:0.0487805 79:0.0853659 85:0.0121951 93:0.0731707 97:0.00609756 104:0.0792683 106:0.0914634 110:0.00609756 120:0.00609756 124:0.0609756 132:0.152439 136:0.00609756 140:0.00609756 142:0.0304878 153:0.00609756 166:0.0121951 174:0.0182927 176:0.0121951 179:0.0182927 189:0.0243902 190:0.00609756 197:0.00609756 
-1 -1 -0.2523094344120627 -1 -0.4252637225102807 -1 1 1 1 1:0.0128205 2:0.00641026 13:0.0128205 20:0.0192308 29:0.00641026 33:0.0192308 35:0.00641026 37:0.00641026 54:0.00641026 55:0.0384615 65:0.0705128 70:0.00641026 76:0.0128205 79:0.0320513 85:0.00641026 93:0.0192308 97:0.0192308 104:0.147436 105:0.00641026 106:0.0705128 132:0.166667 138:0.173077 141:0.025641 142:0.0384615 147:0.025641 174:0.0320513 176:0.00641026 186:0.00641026 
-1 -1 -1 -1 -1 -1 1 1 1 1:0.00724638 13:0.00724638 20:0.0797101 23:0.0652174 33:0.0217391 35:0.0362319 37:0.0217391 48:0.00724638 54:0.0434783 55:0.0434783 79:0.0289855 93:0.0144928 98:0.00724638 104:0.101449 105:0.00724638 106:0.0652174 116:0.00724638 120:0.0217391 122:0.00724638 132:0.101449 138:0.101449 141:0.0869565 142:0.00724638 147:0.0144928 170:0.0144928 174:0.057971 179:0.0144928 193:0.00724638 
-1 -1 -1 -1 -1 -1 1 1 1 3:0.0190476 9:0.00952381 13:0.00952381 17:0.00952381 21:0.00952381 24:0.152381 28:0.052381 30:0.119048 41:0.00952381 44:0.0571429 65:0.0047619 70:0.0238095 74:0.133333 77:0.0285714 85:0.0238095 92:0.0047619 93:0.00952381 96:0.00952381 98:0.0047619 103:0.0047619 104:0.00952381 106:0.0142857 109:0.0047619 113:0.0142857 122:0.0047619 125:0.052381 136:0.0047619 138:0.0047619 142:0.0428571 155:0.0285714 159:0.0904762 172:0.0047619 179:0.0047619 188:0.0047619 190:0.00952381 197:0.00952381 
-1 -1 -1 -1 -1 -1 -1 1 1 23:0.571429 41:0.0612245 65:0.142857 92:0.0816327 105:0.0204082 120:0.0408163 145:0.0408163 147:0.0408163 
-1 -1 -1 -1 -1 -1 -1 1 1 3:0.0645161 41:0.016129 53:0.0483871 64:0.33871 65:0.0322581 69:0.0322581 85:0.0483871 92:0.0645161 93:0.016129 97:0.0322581 123:0.193548 124:0.016129 128:0.0322581 179:0.016129 190:0.0483871 
-1 -1 -1 -1 -1 -1 -1 1 1 1:0.325 35:0.075 54:0.05 65:0.1 93:0.025 98:0.075 120:0.125 132:0.05 153:0.05 170:0.075 174:0.05 
-1 -1 -1 -1 -1 -1 -1 1 1 54:0.166667 98:0.666667 120:0.166667 
-1 -1 -1 -1 -1 -1 -1 1 1 1:0.025641 23:0.410256 41:0.102564 111:0.0769231 120:0.0512821 141:0.025641 147:0.25641 179:0.0512821 
-1 -1 -1 -1 -1 -1 -1 1 1 56:0.25 80:0.25 85:0.25 97:0.25 
-1 -1 -1 -1 -1 -1 -1 1 1 7:0.166667 29:0.0277778 31:0.0138889 35:0.0277778 56:0.0555556 61:0.0555556 79:0.0555556 85:0.0555556 92:0.0277778 98:0.208333 120:0.152778 170:0.125 174:0.0277778 
-1 -1 -1 -1 -1 -1 -1 1 1 1:0.117647 35:0.0588235 41:0.0588235 48:0.0588235 65:0.176471 93:0.0588235 98:0.0588235 128:0.0588235 152:0.0588235 179:0.235294 190:0.0588235 
-1 -1 -1 -1 -1 -1 -1 -1 1 13:0.122807 20:0.0175439 35:0.438596 54:0.0350877 93:0.0877193 110:0.0350877 160:0.0175439 170:0.0175439 188:0.22807 
-1 -1 -1 -1 -1 -1 -1 -1 1 29:0.111111 35:0.111111 54:0.444444 120:0.111111 141:0.111111 174:0.111111 
-1 -1 -1 -1 -1 -1 -1 -1 1 20:0.196429 25:0.0178571 35:0.196429 54:0.267857 65:0.0178571 79:0.0178571 93:0.0714286 120:0.178571 132:0.0357143 
-1 -1 -1 -1 -1 -1 -1 -1 1 20:0.194444 35:0.305556 54:0.0277778 65:0.138889 93:0.166667 120:0.0277778 174:0.0277778 179:0.0833333 197:0.0277778 
-1 -1 -0.1567729863800531 -1 -0.2448370392933292 -1 -1 -0.038762455941865 1 20:0.0740741 35:0.444444 54:0.407407 174:0.0740741 
-1 -1 -1 -1 -1 -1 -1 -1 1 31:0.333333 35:0.166667 38:0.166667 93:0.166667 190:0.166667 
-1 -1 -1 -1 -1 -1 -1 -1 1 54:0.0555556 93:0.388889 98:0.166667 174:0.111111 197:0.277778 
-1 -1 -0.8432270136199469 -1 -0.7551629607066708 -1 -1 -0.961237544058135 1 170:1 
-1 -1 -1 -1 -1 -1 -1 -1 1 10:0.0882353 66:0.411765 79:0.147059 98:0.176471 120:0.0588235 179:0.0588235 197:0.0588235 
-1 -1 -0.688253108860947 -1 -1 -1 -1 -1 -0 1:0.00248139 3:0.00248139 15:0.00248139 21:0.00248139 25:0.00248139 26:0.0843672 31:0.00248139 33:0.00496278 41:0.00744417 42:0.00248139 43:0.0198511 48:0.00992556 52:0.0322581 53:0.00992556 55:0.00496278 58:0.00744417 59:0.0843672 60:0.0595534 61:0.143921 64:0.0198511 65:0.0397022 71:0.00248139 84:0.00248139 85:0.00744417 92:0.00248139 93:0.00992556 98:0.00248139 102:0.0868486 106:0.0173697 107:0.0669975 119:0.0322581 120:0.00744417 132:0.00248139 141:0.00248139 145:0.057072 152:0.00248139 179:0.00248139 180:0.0372208 188:0.0992556 190:0.00248139 197:0.00992556 
-1 -1 -0 -0 -0 -0 -0 -0.3434775056453014 -0 41:0.75 111:0.25 
-1 -1 -1 -1 -0.5880353031681389 -1 -1 -0 -0 1:0.00411523 13:0.0205761 20:0.00411523 27:0.0288066 30:0.0164609 33:0.0123457 34:0.0411523 37:0.00411523 39:0.00411523 44:0.0329218 48:0.00823045 54:0.00411523 64:0.0246914 65:0.00823045 70:0.0617284 85:0.00823045 105:0.00411523 106:0.0205761 113:0.0164609 124:0.0740741 129:0.00411523 132:0.00823045 136:0.0288066 142:0.218107 149:0.00411523 155:0.00823045 156:0.106996 158:0.111111 160:0.00411523 170:0.00823045 171:0.00411523 172:0.00411523 176:0.00823045 177:0.0658436 195:0.00411523 198:0.0123457 
-1 -1 -0.3852544453022833 -1 -0.3396809259404082 -1 -1 -1 -1 1:0.0211268 7:0.0352113 10:0.0140845 13:0.0809859 31:0.0140845 33:0.00704225 35:0.00352113 38:0.00352113 39:0.0457746 48:0.0176056 54:0.028169 55:0.00704225 56:0.0105634 64:0.0176056 70:0.0140845 79:0.0316901 85:0.0176056 92:0.00704225 93:0.00352113 97:0.0140845 98:0.0105634 106:0.0457746 120:0.0176056 128:0.00352113 141:0.0105634 149:0.0985916 152:0.0492958 153:0.00352113 156:0.0140845 158:0.00352113 160:0.0598592 163:0.00352113 170:0.0985916 172:0.0105634 176:0.00704225 179:0.00704225 188:0.0316901 192:0.0140845 193:0.0633803 194:0.0457746 195:0.00704225 
-0 -1 -0 -0 -0 -0 -0 -0 -1 1:0.0215054 10:0.0645161 20:0.0215054 35:0.27957 41:0.0215054 54:0.107527 55:0.0537634 70:0.0107527 93:0.0322581 98:0.0430108 106:0.0215054 107:0.0322581 110:0.0645161 124:0.0107527 132:0.0537634 138:0.0107527 152:0.0107527 170:0.0322581 174:0.0860215 190:0.0107527 197:0.0107527 
-0 -1 -0 -0 -0 -0.4501659915417905 -0 -0 -1 7:0.192308 10:0.00549451 20:0.010989 32:0.00549451 33:0.208791 35:0.0989011 54:0.148352 55:0.00549451 56:0.0769231 61:0.010989 79:0.043956 85:0.0274725 93:0.021978 97:0.00549451 98:0.00549451 110:0.010989 120:0.00549451 130:0.010989 132:0.010989 138:0.00549451 152:0.00549451 170:0.00549451 174:0.0384615 176:0.021978 194:0.0164835 
-0.425 -1 -0.6147455546977167 -0 -1 -1 -1 -0 -0.207546214231451 1:0.00324675 10:0.00324675 13:0.00649351 20:0.13961 24:0.00974026 29:0.012987 31:0.0584416 35:0.00974026 48:0.00974026 54:0.00324675 55:0.038961 61:0.00324675 76:0.00649351 79:0.00974026 85:0.0324675 92:0.00324675 93:0.0194805 97:0.0227273 98:0.0162338 105:0.00324675 106:0.207792 110:0.00974026 120:0.025974 124:0.0454545 128:0.00324675 138:0.0357143 140:0.00649351 147:0.0227273 149:0.00324675 153:0.00324675 172:0.00324675 174:0.123377 176:0.00649351 179:0.0357143 188:0.00974026 194:0.0227273 197:0.0227273 
-1 -1 -1 -1 -1 -0.4404370479032829 -1 -0.6565224943546986 -1 1:0.0111111 7:0.0555556 10:0.0888889 13:0.0111111 20:0.0333333 33:0.0222222 34:0.0777778 35:0.144444 46:0.0111111 54:0.0555556 62:0.0555556 70:0.0111111 93:0.0111111 97:0.0222222 98:0.0444444 105:0.0555556 106:0.0444444 120:0.0111111 128:0.0111111 138:0.0222222 149:0.0333333 170:0.0444444 172:0.0555556 176:0.0222222 188:0.0111111 196:0.0333333 
-1 -1 -0 -0 -0 -0 -0 -0 -1 20:0.015873 23:0.031746 31:0.269841 38:0.031746 54:0.047619 79:0.015873 85:0.0634921 92:0.015873 98:0.126984 106:0.015873 120:0.0793651 141:0.047619 149:0.031746 160:0.015873 170:0.0634921 179:0.015873 188:0.111111 
-1 -1 -0 -0 -0 -0.5595629520967171 -0 -0 -0.519325784910734 41:0.333333 54:0.133333 93:0.133333 111:0.0666667 132:0.0666667 174:0.133333 179:0.133333 
-0 -1 -0 -0.461990456810338 -0.7656430812435729 -0 -0.5408898134940657 -0 -0 20:0.25 41:0.25 104:0.125 106:0.125 111:0.125 174:0.125 
-1 -1 -0.311746891139053 -1 -0.4119646968318611 -0.7066739556047786 -1 -1 -0 1:0.0473815 7:0.0972569 12:0.00498753 19:0.00997506 20:0.00249377 21:0.00249377 25:0.00249377 31:0.00498753 33:0.0224439 35:0.0174564 46:0.119701 47:0.042394 48:0.00997506 53:0.0149626 54:0.0498753 55:0.00249377 56:0.0648379 72:0.032419 79:0.0074813 80:0.00249377 83:0.0972569 89:0.00498753 92:0.00249377 93:0.0174564 97:0.00249377 98:0.00498753 101:0.124688 106:0.00249377 120:0.0224439 141:0.00249377 149:0.0249377 152:0.00498753 160:0.0174564 170:0.0174564 174:0.00249377 176:0.00997506 179:0.00249377 189:0.0149626 197:0.0648379 
-0 -1 -0 -0 -0 -0 -0 -0 -0 13:0.135135 35:0.00900901 70:0.27027 80:0.00900901 85:0.045045 93:0.018018 107:0.036036 110:0.00900901 132:0.00900901 138:0.0540541 149:0.0900901 153:0.00900901 160:0.00900901 174:0.00900901 183:0.18018 188:0.00900901 192:0.0900901 197:0.00900901 
-0 -1 -0 -0 -0 -0 -0 -0 -0 10:0.0416667 107:0.583333 156:0.375 
-0 -1 -0 -0 -0 -0 -0 -0 -0 10:0.0204082 21:0.346939 35:0.0204082 48:0.0408163 56:0.0408163 64:0.102041 65:0.0816327 92:0.0204082 93:0.0204082 97:0.0204082 98:0.0408163 152:0.204082 153:0.0408163 
-1 -1 -1 -1 -0 -1 -0.8351619981928489 -0 -0 9:0.0197628 33:0.00395257 34:0.00395257 35:0.0118577 37:0.0355731 41:0.00395257 43:0.00395257 48:0.00395257 65:0.00395257 69:0.00790514 70:0.0118577 85:0.0592885 93:0.00395257 104:0.00395257 105:0.00395257 107:0.00395257 113:0.130435 115:0.126482 124:0.00395257 129:0.055336 138:0.0158103 142:0.00790514 145:0.0909091 156:0.0118577 158:0.0395257 173:0.00395257 174:0.00790514 180:0.00395257 184:0.110672 188:0.00395257 192:0.177866 194:0.00395257 196:0.0197628 
-0 -1 -0 -0.5380095431896621 -1 -0 -0.1648380018071511 -1 -1 1:0.00641026 7:0.00854701 10:0.0277778 20:0.132479 21:0.0042735 23:0.025641 25:0.0042735 29:0.0213675 31:0.0149573 35:0.0790598 41:0.00213675 48:0.00213675 54:0.188034 55:0.0106838 65:0.0277778 76:0.0598291 79:0.00213675 92:0.0555556 93:0.126068 97:0.017094 98:0.00854701 101:0.0042735 106:0.00213675 110:0.0042735 120:0.00213675 128:0.00854701 129:0.00213675 140:0.00641026 145:0.00213675 147:0.0235043 152:0.0042735 153:0.00213675 170:0.0042735 171:0.00641026 174:0.0854701 179:0.00641026 183:0.0042735 197:0.00641026 
-1 -1 -0.7913209048539275 -0 -0.6603190740595918 -0.5498340084582095 -0 -1 -0 1:0.0123457 20:0.0864198 33:0.0740741 35:0.0246914 53:0.037037 56:0.283951 65:0.0123457 68:0.0740741 70:0.0123457 75:0.0123457 79:0.0123457 85:0.0493827 87:0.0493827 93:0.0123457 111:0.0617284 120:0.0246914 128:0.0246914 132:0.0493827 170:0.0123457 171:0.0246914 189:0.037037 197:0.0123457 
-0.4373269435569638 -1 -0.2086790951460725 -0.6589770093340851 -0.2343569187564271 -0.2933260443952214 -0 -0 -0 8:0.51634 13:0.0130719 29:0.00653595 39:0.0326797 42:0.0326797 48:0.117647 62:0.0130719 68:0.0130719 75:0.0326797 107:0.00653595 110:0.150327 138:0.0261438 142:0.00653595 156:0.00653595 168:0.00653595 171:0.00653595 188:0.00653595 198:0.00653595 
-0.575 -1 -0 -0 -0 -0 -0 -0 -0 1:0.00947867 7:0.0189573 13:0.00473934 17:0.0236967 25:0.042654 29:0.014218 32:0.00947867 33:0.014218 41:0.0189573 48:0.00473934 53:0.0189573 56:0.00473934 79:0.00473934 92:0.028436 95:0.028436 97:0.146919 110:0.0189573 111:0.0189573 120:0.014218 128:0.0236967 138:0.00947867 152:0.412322 153:0.00947867 174:0.014218 176:0.00473934 179:0.00947867 188:0.00473934 194:0.00947867 197:0.056872 
-1 -1 -0 -0 -0 -0 -0 -1 -0 3:0.108108 35:0.027027 64:0.027027 98:0.405405 170:0.027027 179:0.162162 188:0.0810811 190:0.162162 
-0 -1 -0 -0 -0 -0 -0 -1 -0.273128000857815 20:0.0416667 31:0.0416667 38:0.125 64:0.0833333 92:0.0416667 93:0.0833333 97:0.0416667 98:0.458333 111:0.0416667 120:0.0416667 
-0.5626730564430362 -1 -1 -0.3410229906659149 -0 -1 -0.4591101865059343 -0 -1 3:0.047619 7:0.0238095 13:0.047619 33:0.0714286 35:0.142857 54:0.0714286 76:0.047619 79:0.0238095 85:0.0238095 93:0.0238095 119:0.0238095 120:0.0238095 152:0.0714286 170:0.0714286 171:0.119048 174:0.0714286 179:0.0238095 190:0.0714286 
-1 -1 -1 -1 -1 -1 -1 -0 -1 5:0.0777778 13:0.111111 20:0.0111111 24:0.0444444 30:0.0444444 33:0.0222222 35:0.0111111 37:0.0666667 48:0.0333333 54:0.0111111 65:0.0111111 70:0.0111111 78:0.122222 85:0.0111111 93:0.0888889 94:0.122222 104:0.0222222 107:0.0333333 124:0.0111111 132:0.0444444 140:0.0111111 152:0.0111111 170:0.0444444 174:0.0222222 
