svm_type c_svc
kernel_type rbf
gamma 0.01
nr_class 10
total_sv 115
rho -0.982501 -0.989522 -0.980999 -0.991086 -0.988599 -0.992956 -0.95044 -0.9468 -0.982607 0.00276983 0.00559187 0.00134879 -0.000361741 -0.987764 0.00138974 0.014791 0.00730419 0.00259548 -0.000501573 -0.00271314 -0.992268 -0.00210124 0.0117715 0.00294846 -0.00332594 -0.00543559 -0.992278 -0.00506705 0.00897825 -7.08103e-05 -0.00217706 -0.992182 -0.00135219 0.0125543 0.00324583 -0.989219 0.00082916 0.014542 0.00613421 0.972808 0.983721 0.992781 0.013359 0.00499088 -0.00934964
label 1 2 3 4 5 6 7 8 10 11
nr_sv 13 12 12 12 12 12 6 12 12 12
SV
1 0.4872592163166355 1 1 1 0 1 0.4570607921157342 1 1:0.0422535 14:0.0704225 17:0.028169 34:0.028169 42:0.126761 43:0.28169 45:0.028169 51:0.0140845 54:0.0704225 62:0.084507 71:0.0985916 88:0.028169 95:0.0140845 97:0.0140845 100:0.0704225 
1 1 1 1 1 0 1 1 1 1:0.0422535 14:0.0704225 17:0.028169 34:0.028169 42:0.126761 43:0.28169 45:0.028169 51:0.0140845 54:0.0704225 62:0.084507 71:0.0985916 88:0.028169 95:0.0140845 97:0.0140845 100:0.0704225 
1 1 1 1 1 0 1 1 1 1:0.0422535 14:0.0704225 17:0.028169 34:0.028169 42:0.126761 43:0.28169 45:0.028169 51:0.0140845 54:0.0704225 62:0.084507 71:0.0985916 88:0.028169 95:0.0140845 97:0.0140845 100:0.0704225 
0 1 1 1 1 0 1 1 1 5:0.00490196 14:0.0245098 17:0.105392 18:0.00490196 19:0.0318627 21:0.208333 29:0.00245098 42:0.00245098 51:0.125 54:0.0294118 55:0.00245098 60:0.127451 70:0.171569 86:0.00245098 92:0.0906863 95:0.0245098 98:0.0416667 
1 1 1 1 1 1 1 1 1 1:0.0422535 14:0.0704225 17:0.028169 34:0.028169 42:0.126761 43:0.28169 45:0.028169 51:0.0140845 54:0.0704225 62:0.084507 71:0.0985916 88:0.028169 95:0.0140845 97:0.0140845 100:0.0704225 
1 1 1 1 1 0 1 1 1 5:0.00490196 14:0.0245098 17:0.105392 18:0.00490196 19:0.0318627 21:0.208333 29:0.00245098 42:0.00245098 51:0.125 54:0.0294118 55:0.00245098 60:0.127451 70:0.171569 86:0.00245098 92:0.0906863 95:0.0245098 98:0.0416667 
1 1 0.4940841655906612 0.2921816121636934 0 0 0 1 0 5:0.0207254 14:0.0310881 17:0.11399 18:0.0103627 19:0.176166 21:0.0621762 42:0.0103627 43:0.0207254 45:0.0207254 51:0.222798 54:0.00518135 60:0.0207254 70:0.129534 92:0.0880829 95:0.0207254 98:0.0466321 
1 1 1 1 1 1 1 1 1 1:0.0422535 14:0.0704225 17:0.028169 34:0.028169 42:0.126761 43:0.28169 45:0.028169 51:0.0140845 54:0.0704225 62:0.084507 71:0.0985916 88:0.028169 95:0.0140845 97:0.0140845 100:0.0704225 
1 1 1 1 1 1 1 1 1 5:0.00490196 14:0.0245098 17:0.105392 18:0.00490196 19:0.0318627 21:0.208333 29:0.00245098 42:0.00245098 51:0.125 54:0.0294118 55:0.00245098 60:0.127451 70:0.171569 86:0.00245098 92:0.0906863 95:0.0245098 98:0.0416667 
1 1 1 1 1 0 1 1 1 5:0.0207254 14:0.0310881 17:0.11399 18:0.0103627 19:0.176166 21:0.0621762 42:0.0103627 43:0.0207254 45:0.0207254 51:0.222798 54:0.00518135 60:0.0207254 70:0.129534 92:0.0880829 95:0.0207254 98:0.0466321 
1 1 0.5059158344093388 0.7078183878363067 1 1 1 1 1 1:0.0422535 14:0.0704225 17:0.028169 34:0.028169 42:0.126761 43:0.28169 45:0.028169 51:0.0140845 54:0.0704225 62:0.084507 71:0.0985916 88:0.028169 95:0.0140845 97:0.0140845 100:0.0704225 
1 1 1 1 1 1 1 1 1 5:0.00490196 14:0.0245098 17:0.105392 18:0.00490196 19:0.0318627 21:0.208333 29:0.00245098 42:0.00245098 51:0.125 54:0.0294118 55:0.00245098 60:0.127451 70:0.171569 86:0.00245098 92:0.0906863 95:0.0245098 98:0.0416667 
1 0.5127407836833645 1 1 1 1 1 0.5429392078842658 1 5:0.0207254 14:0.0310881 17:0.11399 18:0.0103627 19:0.176166 21:0.0621762 42:0.0103627 43:0.0207254 45:0.0207254 51:0.222798 54:0.00518135 60:0.0207254 70:0.129534 92:0.0880829 95:0.0207254 98:0.0466321 
-1 1 1 1 1 0 1 1 1 1:0.0124069 13:0.0496278 14:0.00248139 18:0.0173697 29:0.00496278 34:0.00248139 42:0.0521092 45:0.188586 54:0.0173697 55:0.0992556 62:0.133995 67:0.0694789 87:0.198511 88:0.124069 95:0.0248139 100:0.00248139 
-1 1 1 1 1 0 1 1 1 1:0.0403226 13:0.104839 14:0.00806452 34:0.0322581 42:0.120968 45:0.0645161 55:0.145161 62:0.0241935 67:0.0645161 87:0.0322581 88:0.354839 95:0.00806452 
-1 1 1 1 1 0 1 1 1 1:0.0124069 13:0.0496278 14:0.00248139 18:0.0173697 29:0.00496278 34:0.00248139 42:0.0521092 45:0.188586 54:0.0173697 55:0.0992556 62:0.133995 67:0.0694789 87:0.198511 88:0.124069 95:0.0248139 100:0.00248139 
-1 1 1 1 1 0 1 1 1 1:0.0403226 13:0.104839 14:0.00806452 34:0.0322581 42:0.120968 45:0.0645161 55:0.145161 62:0.0241935 67:0.0645161 87:0.0322581 88:0.354839 95:0.00806452 
-1 1 1 1 1 1 1 1 1 1:0.0124069 13:0.0496278 14:0.00248139 18:0.0173697 29:0.00496278 34:0.00248139 42:0.0521092 45:0.188586 54:0.0173697 55:0.0992556 62:0.133995 67:0.0694789 87:0.198511 88:0.124069 95:0.0248139 100:0.00248139 
-1 1 1 1 1 0 1 1 1 1:0.0403226 13:0.104839 14:0.00806452 34:0.0322581 42:0.120968 45:0.0645161 55:0.145161 62:0.0241935 67:0.0645161 87:0.0322581 88:0.354839 95:0.00806452 
-1 1 1 1 1 1 1 1 1 1:0.0124069 13:0.0496278 14:0.00248139 18:0.0173697 29:0.00496278 34:0.00248139 42:0.0521092 45:0.188586 54:0.0173697 55:0.0992556 62:0.133995 67:0.0694789 87:0.198511 88:0.124069 95:0.0248139 100:0.00248139 
-1 1 1 1 1 0 1 1 1 1:0.0403226 13:0.104839 14:0.00806452 34:0.0322581 42:0.120968 45:0.0645161 55:0.145161 62:0.0241935 67:0.0645161 87:0.0322581 88:0.354839 95:0.00806452 
-1 1 1 1 1 1 1 1 1 1:0.0124069 13:0.0496278 14:0.00248139 18:0.0173697 29:0.00496278 34:0.00248139 42:0.0521092 45:0.188586 54:0.0173697 55:0.0992556 62:0.133995 67:0.0694789 87:0.198511 88:0.124069 95:0.0248139 100:0.00248139 
-1 1 1 1 1 1 1 1 1 1:0.0403226 13:0.104839 14:0.00806452 34:0.0322581 42:0.120968 45:0.0645161 55:0.145161 62:0.0241935 67:0.0645161 87:0.0322581 88:0.354839 95:0.00806452 
-1 1 1 1 1 1 1 1 1 1:0.0124069 13:0.0496278 14:0.00248139 18:0.0173697 29:0.00496278 34:0.00248139 42:0.0521092 45:0.188586 54:0.0173697 55:0.0992556 62:0.133995 67:0.0694789 87:0.198511 88:0.124069 95:0.0248139 100:0.00248139 
-1 1 1 1 1 1 1 1 1 1:0.0403226 13:0.104839 14:0.00806452 34:0.0322581 42:0.120968 45:0.0645161 55:0.145161 62:0.0241935 67:0.0645161 87:0.0322581 88:0.354839 95:0.00806452 
-1 -1 1 1 1 0 1 1 1 1:0.0323741 5:0.00179856 10:0.0863309 23:0.124101 29:0.0107914 37:0.0611511 52:0.0269784 54:0.0233813 55:0.00179856 56:0.0521583 67:0.00539568 68:0.0341727 72:0.0611511 77:0.124101 78:0.109712 80:0.0953237 87:0.00359712 89:0.143885 96:0.00179856 
-1 -1 1 1 1 0 1 1 1 2:0.119804 3:0.111247 5:0.0709046 13:0.00488998 14:0.00366748 18:0.00244499 24:0.0867971 29:0.0183374 36:0.0929095 38:0.0611247 40:0.106357 50:0.0464548 52:0.0207824 53:0.0537897 54:0.0146699 55:0.00611247 65:0.0794621 67:0.0207824 68:0.00366748 81:0.0721271 87:0.00366748 
-1 -1 1 1 1 0 1 1 1 1:0.0323741 5:0.00179856 10:0.0863309 23:0.124101 29:0.0107914 37:0.0611511 52:0.0269784 54:0.0233813 55:0.00179856 56:0.0521583 67:0.00539568 68:0.0341727 72:0.0611511 77:0.124101 78:0.109712 80:0.0953237 87:0.00359712 89:0.143885 96:0.00179856 
-1 -1 1 1 1 0 1 1 1 2:0.119804 3:0.111247 5:0.0709046 13:0.00488998 14:0.00366748 18:0.00244499 24:0.0867971 29:0.0183374 36:0.0929095 38:0.0611247 40:0.106357 50:0.0464548 52:0.0207824 53:0.0537897 54:0.0146699 55:0.00611247 65:0.0794621 67:0.0207824 68:0.00366748 81:0.0721271 87:0.00366748 
-1 -1 1 1 1 0 1 1 1 1:0.0323741 5:0.00179856 10:0.0863309 23:0.124101 29:0.0107914 37:0.0611511 52:0.0269784 54:0.0233813 55:0.00179856 56:0.0521583 67:0.00539568 68:0.0341727 72:0.0611511 77:0.124101 78:0.109712 80:0.0953237 87:0.00359712 89:0.143885 96:0.00179856 
-1 -1 1 1 1 0 1 1 1 2:0.119804 3:0.111247 5:0.0709046 13:0.00488998 14:0.00366748 18:0.00244499 24:0.0867971 29:0.0183374 36:0.0929095 38:0.0611247 40:0.106357 50:0.0464548 52:0.0207824 53:0.0537897 54:0.0146699 55:0.00611247 65:0.0794621 67:0.0207824 68:0.00366748 81:0.0721271 87:0.00366748 
-1 -1 1 1 1 1 1 1 1 1:0.0323741 5:0.00179856 10:0.0863309 23:0.124101 29:0.0107914 37:0.0611511 52:0.0269784 54:0.0233813 55:0.00179856 56:0.0521583 67:0.00539568 68:0.0341727 72:0.0611511 77:0.124101 78:0.109712 80:0.0953237 87:0.00359712 89:0.143885 96:0.00179856 
-1 -1 1 1 1 1 1 1 1 2:0.119804 3:0.111247 5:0.0709046 13:0.00488998 14:0.00366748 18:0.00244499 24:0.0867971 29:0.0183374 36:0.0929095 38:0.0611247 40:0.106357 50:0.0464548 52:0.0207824 53:0.0537897 54:0.0146699 55:0.00611247 65:0.0794621 67:0.0207824 68:0.00366748 81:0.0721271 87:0.00366748 
-1 -1 1 1 1 1 1 1 1 1:0.0323741 5:0.00179856 10:0.0863309 23:0.124101 29:0.0107914 37:0.0611511 52:0.0269784 54:0.0233813 55:0.00179856 56:0.0521583 67:0.00539568 68:0.0341727 72:0.0611511 77:0.124101 78:0.109712 80:0.0953237 87:0.00359712 89:0.143885 96:0.00179856 
-1 -1 1 1 1 1 1 1 1 2:0.119804 3:0.111247 5:0.0709046 13:0.00488998 14:0.00366748 18:0.00244499 24:0.0867971 29:0.0183374 36:0.0929095 38:0.0611247 40:0.106357 50:0.0464548 52:0.0207824 53:0.0537897 54:0.0146699 55:0.00611247 65:0.0794621 67:0.0207824 68:0.00366748 81:0.0721271 87:0.00366748 
-1 -1 1 1 1 1 1 1 1 1:0.0323741 5:0.00179856 10:0.0863309 23:0.124101 29:0.0107914 37:0.0611511 52:0.0269784 54:0.0233813 55:0.00179856 56:0.0521583 67:0.00539568 68:0.0341727 72:0.0611511 77:0.124101 78:0.109712 80:0.0953237 87:0.00359712 89:0.143885 96:0.00179856 
-1 -1 1 1 1 1 1 1 1 2:0.119804 3:0.111247 5:0.0709046 13:0.00488998 14:0.00366748 18:0.00244499 24:0.0867971 29:0.0183374 36:0.0929095 38:0.0611247 40:0.106357 50:0.0464548 52:0.0207824 53:0.0537897 54:0.0146699 55:0.00611247 65:0.0794621 67:0.0207824 68:0.00366748 81:0.0721271 87:0.00366748 
-1 -1 -1 1 1 0 1 1 1 22:0.227273 27:0.11039 32:0.00324675 54:0.038961 67:0.00649351 68:0.00324675 77:0.00324675 79:0.211039 82:0.00324675 87:0.0162338 88:0.00324675 93:0.136364 94:0.237013 
-1 -1 -1 1 1 0 1 1 1 5:0.0649038 13:0.0360577 15:0.00240385 22:0.00240385 29:0.0480769 31:0.25 32:0.120192 44:0.170673 47:0.0913462 52:0.0288462 54:0.0288462 55:0.00480769 67:0.00480769 72:0.0120192 74:0.00480769 77:0.00721154 87:0.00240385 93:0.0336538 96:0.0865385 
-1 -1 -1 1 1 0 1 1 1 22:0.227273 27:0.11039 32:0.00324675 54:0.038961 67:0.00649351 68:0.00324675 77:0.00324675 79:0.211039 82:0.00324675 87:0.0162338 88:0.00324675 93:0.136364 94:0.237013 
-1 -1 -1 1 1 0 1 1 1 5:0.0649038 13:0.0360577 15:0.00240385 22:0.00240385 29:0.0480769 31:0.25 32:0.120192 44:0.170673 47:0.0913462 52:0.0288462 54:0.0288462 55:0.00480769 67:0.00480769 72:0.0120192 74:0.00480769 77:0.00721154 87:0.00240385 93:0.0336538 96:0.0865385 
-1 -1 -1 1 1 0 1 1 1 22:0.227273 27:0.11039 32:0.00324675 54:0.038961 67:0.00649351 68:0.00324675 77:0.00324675 79:0.211039 82:0.00324675 87:0.0162338 88:0.00324675 93:0.136364 94:0.237013 
-1 -1 -1 1 1 0.5967166169778754 1 1 1 5:0.0649038 13:0.0360577 15:0.00240385 22:0.00240385 29:0.0480769 31:0.25 32:0.120192 44:0.170673 47:0.0913462 52:0.0288462 54:0.0288462 55:0.00480769 67:0.00480769 72:0.0120192 74:0.00480769 77:0.00721154 87:0.00240385 93:0.0336538 96:0.0865385 
-1 -1 -1 1 1 1 1 1 1 22:0.227273 27:0.11039 32:0.00324675 54:0.038961 67:0.00649351 68:0.00324675 77:0.00324675 79:0.211039 82:0.00324675 87:0.0162338 88:0.00324675 93:0.136364 94:0.237013 
-1 -1 -1 1 1 1 1 1 1 5:0.0649038 13:0.0360577 15:0.00240385 22:0.00240385 29:0.0480769 31:0.25 32:0.120192 44:0.170673 47:0.0913462 52:0.0288462 54:0.0288462 55:0.00480769 67:0.00480769 72:0.0120192 74:0.00480769 77:0.00721154 87:0.00240385 93:0.0336538 96:0.0865385 
-1 -1 -1 1 1 1 1 1 1 22:0.227273 27:0.11039 32:0.00324675 54:0.038961 67:0.00649351 68:0.00324675 77:0.00324675 79:0.211039 82:0.00324675 87:0.0162338 88:0.00324675 93:0.136364 94:0.237013 
-1 -1 -1 1 1 1 1 1 1 5:0.0649038 13:0.0360577 15:0.00240385 22:0.00240385 29:0.0480769 31:0.25 32:0.120192 44:0.170673 47:0.0913462 52:0.0288462 54:0.0288462 55:0.00480769 67:0.00480769 72:0.0120192 74:0.00480769 77:0.00721154 87:0.00240385 93:0.0336538 96:0.0865385 
-1 -1 -1 1 1 0.4032833830221246 1 1 1 22:0.227273 27:0.11039 32:0.00324675 54:0.038961 67:0.00649351 68:0.00324675 77:0.00324675 79:0.211039 82:0.00324675 87:0.0162338 88:0.00324675 93:0.136364 94:0.237013 
-1 -1 -1 1 1 1 1 1 1 5:0.0649038 13:0.0360577 15:0.00240385 22:0.00240385 29:0.0480769 31:0.25 32:0.120192 44:0.170673 47:0.0913462 52:0.0288462 54:0.0288462 55:0.00480769 67:0.00480769 72:0.0120192 74:0.00480769 77:0.00721154 87:0.00240385 93:0.0336538 96:0.0865385 
-1 -1 -1 -1 1 0 1 1 1 4:0.0752212 7:0.115044 13:0.0221239 14:0.00221239 18:0.00221239 29:0.0287611 30:0.0685841 34:0.00663717 42:0.0265487 54:0.0243363 55:0.0730089 58:0.110619 67:0.106195 68:0.10177 71:0.0353982 73:0.106195 77:0.00221239 95:0.0243363 97:0.0685841 
-1 -1 -1 -1 1 0 1 1 1 9:0.0665499 14:0.00175131 16:0.0595447 18:0.0140105 26:0.0665499 34:0.00350263 35:0.0472855 41:0.0718039 46:0.0928196 49:0.0420315 54:0.0262697 66:0.141856 69:0.028021 73:0.0455341 76:0.0788091 83:0.0367776 84:0.0823117 90:0.0700525 95:0.0245184 
-1 -1 -1 -1 1 0 1 1 1 4:0.0752212 7:0.115044 13:0.0221239 14:0.00221239 18:0.00221239 29:0.0287611 30:0.0685841 34:0.00663717 42:0.0265487 54:0.0243363 55:0.0730089 58:0.110619 67:0.106195 68:0.10177 71:0.0353982 73:0.106195 77:0.00221239 95:0.0243363 97:0.0685841 
-1 -1 -1 -1 1 0 1 1 1 9:0.0665499 14:0.00175131 16:0.0595447 18:0.0140105 26:0.0665499 34:0.00350263 35:0.0472855 41:0.0718039 46:0.0928196 49:0.0420315 54:0.0262697 66:0.141856 69:0.028021 73:0.0455341 76:0.0788091 83:0.0367776 84:0.0823117 90:0.0700525 95:0.0245184 
-1 -1 -1 -1 1 0 1 1 1 4:0.0752212 7:0.115044 13:0.0221239 14:0.00221239 18:0.00221239 29:0.0287611 30:0.0685841 34:0.00663717 42:0.0265487 54:0.0243363 55:0.0730089 58:0.110619 67:0.106195 68:0.10177 71:0.0353982 73:0.106195 77:0.00221239 95:0.0243363 97:0.0685841 
-1 -1 -1 -1 1 0 1 1 1 9:0.0665499 14:0.00175131 16:0.0595447 18:0.0140105 26:0.0665499 34:0.00350263 35:0.0472855 41:0.0718039 46:0.0928196 49:0.0420315 54:0.0262697 66:0.141856 69:0.028021 73:0.0455341 76:0.0788091 83:0.0367776 84:0.0823117 90:0.0700525 95:0.0245184 
-1 -1 -1 -1 1 1 1 1 1 4:0.0752212 7:0.115044 13:0.0221239 14:0.00221239 18:0.00221239 29:0.0287611 30:0.0685841 34:0.00663717 42:0.0265487 54:0.0243363 55:0.0730089 58:0.110619 67:0.106195 68:0.10177 71:0.0353982 73:0.106195 77:0.00221239 95:0.0243363 97:0.0685841 
-1 -1 -1 -1 1 1 1 1 1 9:0.0665499 14:0.00175131 16:0.0595447 18:0.0140105 26:0.0665499 34:0.00350263 35:0.0472855 41:0.0718039 46:0.0928196 49:0.0420315 54:0.0262697 66:0.141856 69:0.028021 73:0.0455341 76:0.0788091 83:0.0367776 84:0.0823117 90:0.0700525 95:0.0245184 
-1 -1 -1 -1 1 1 1 1 1 4:0.0752212 7:0.115044 13:0.0221239 14:0.00221239 18:0.00221239 29:0.0287611 30:0.0685841 34:0.00663717 42:0.0265487 54:0.0243363 55:0.0730089 58:0.110619 67:0.106195 68:0.10177 71:0.0353982 73:0.106195 77:0.00221239 95:0.0243363 97:0.0685841 
-1 -1 -1 -1 1 1 1 1 1 9:0.0665499 14:0.00175131 16:0.0595447 18:0.0140105 26:0.0665499 34:0.00350263 35:0.0472855 41:0.0718039 46:0.0928196 49:0.0420315 54:0.0262697 66:0.141856 69:0.028021 73:0.0455341 76:0.0788091 83:0.0367776 84:0.0823117 90:0.0700525 95:0.0245184 
-1 -1 -1 -1 1 1 1 1 1 4:0.0752212 7:0.115044 13:0.0221239 14:0.00221239 18:0.00221239 29:0.0287611 30:0.0685841 34:0.00663717 42:0.0265487 54:0.0243363 55:0.0730089 58:0.110619 67:0.106195 68:0.10177 71:0.0353982 73:0.106195 77:0.00221239 95:0.0243363 97:0.0685841 
-1 -1 -1 -1 1 1 1 1 1 9:0.0665499 14:0.00175131 16:0.0595447 18:0.0140105 26:0.0665499 34:0.00350263 35:0.0472855 41:0.0718039 46:0.0928196 49:0.0420315 54:0.0262697 66:0.141856 69:0.028021 73:0.0455341 76:0.0788091 83:0.0367776 84:0.0823117 90:0.0700525 95:0.0245184 
-1 -1 -1 -1 -1 0 1 1 1 1:0.0216346 6:0.129808 12:0.0552885 13:0.00480769 18:0.0192308 29:0.0120192 34:0.00480769 42:0.0216346 43:0.00480769 45:0.00961538 54:0.0288462 55:0.0384615 62:0.0721154 68:0.00240385 86:0.115385 87:0.0913462 88:0.0216346 95:0.0264423 99:0.151442 100:0.168269 
-1 -1 -1 -1 -1 0 1 1 1 6:0.091716 12:0.130178 13:0.0443787 14:0.00295858 15:0.00295858 18:0.00295858 34:0.00887574 42:0.0295858 43:0.00295858 45:0.0118343 54:0.0266272 55:0.00295858 62:0.0473373 64:0.189349 68:0.0118343 71:0.0650888 77:0.00295858 86:0.118343 95:0.0236686 99:0.127219 100:0.056213 
-1 -1 -1 -1 -1 0 1 1 1 1:0.0216346 6:0.129808 12:0.0552885 13:0.00480769 18:0.0192308 29:0.0120192 34:0.00480769 42:0.0216346 43:0.00480769 45:0.00961538 54:0.0288462 55:0.0384615 62:0.0721154 68:0.00240385 86:0.115385 87:0.0913462 88:0.0216346 95:0.0264423 99:0.151442 100:0.168269 
-1 -1 -1 -1 -1 0 1 1 1 6:0.091716 12:0.130178 13:0.0443787 14:0.00295858 15:0.00295858 18:0.00295858 34:0.00887574 42:0.0295858 43:0.00295858 45:0.0118343 54:0.0266272 55:0.00295858 62:0.0473373 64:0.189349 68:0.0118343 71:0.0650888 77:0.00295858 86:0.118343 95:0.0236686 99:0.127219 100:0.056213 
-1 -1 -1 -1 -1 0 1 1 1 1:0.0216346 6:0.129808 12:0.0552885 13:0.00480769 18:0.0192308 29:0.0120192 34:0.00480769 42:0.0216346 43:0.00480769 45:0.00961538 54:0.0288462 55:0.0384615 62:0.0721154 68:0.00240385 86:0.115385 87:0.0913462 88:0.0216346 95:0.0264423 99:0.151442 100:0.168269 
-1 -1 -1 -1 -1 0 1 1 1 6:0.091716 12:0.130178 13:0.0443787 14:0.00295858 15:0.00295858 18:0.00295858 34:0.00887574 42:0.0295858 43:0.00295858 45:0.0118343 54:0.0266272 55:0.00295858 62:0.0473373 64:0.189349 68:0.0118343 71:0.0650888 77:0.00295858 86:0.118343 95:0.0236686 99:0.127219 100:0.056213 
-1 -1 -1 -1 -1 1 1 1 1 1:0.0216346 6:0.129808 12:0.0552885 13:0.00480769 18:0.0192308 29:0.0120192 34:0.00480769 42:0.0216346 43:0.00480769 45:0.00961538 54:0.0288462 55:0.0384615 62:0.0721154 68:0.00240385 86:0.115385 87:0.0913462 88:0.0216346 95:0.0264423 99:0.151442 100:0.168269 
-1 -1 -1 -1 -1 1 1 1 1 6:0.091716 12:0.130178 13:0.0443787 14:0.00295858 15:0.00295858 18:0.00295858 34:0.00887574 42:0.0295858 43:0.00295858 45:0.0118343 54:0.0266272 55:0.00295858 62:0.0473373 64:0.189349 68:0.0118343 71:0.0650888 77:0.00295858 86:0.118343 95:0.0236686 99:0.127219 100:0.056213 
-1 -1 -1 -1 -1 1 1 1 1 1:0.0216346 6:0.129808 12:0.0552885 13:0.00480769 18:0.0192308 29:0.0120192 34:0.00480769 42:0.0216346 43:0.00480769 45:0.00961538 54:0.0288462 55:0.0384615 62:0.0721154 68:0.00240385 86:0.115385 87:0.0913462 88:0.0216346 95:0.0264423 99:0.151442 100:0.168269 
-1 -1 -1 -1 -1 1 1 1 1 6:0.091716 12:0.130178 13:0.0443787 14:0.00295858 15:0.00295858 18:0.00295858 34:0.00887574 42:0.0295858 43:0.00295858 45:0.0118343 54:0.0266272 55:0.00295858 62:0.0473373 64:0.189349 68:0.0118343 71:0.0650888 77:0.00295858 86:0.118343 95:0.0236686 99:0.127219 100:0.056213 
-1 -1 -1 -1 -1 1 1 1 1 1:0.0216346 6:0.129808 12:0.0552885 13:0.00480769 18:0.0192308 29:0.0120192 34:0.00480769 42:0.0216346 43:0.00480769 45:0.00961538 54:0.0288462 55:0.0384615 62:0.0721154 68:0.00240385 86:0.115385 87:0.0913462 88:0.0216346 95:0.0264423 99:0.151442 100:0.168269 
-1 -1 -1 -1 -1 1 1 1 1 6:0.091716 12:0.130178 13:0.0443787 14:0.00295858 15:0.00295858 18:0.00295858 34:0.00887574 42:0.0295858 43:0.00295858 45:0.0118343 54:0.0266272 55:0.00295858 62:0.0473373 64:0.189349 68:0.0118343 71:0.0650888 77:0.00295858 86:0.118343 95:0.0236686 99:0.127219 100:0.056213 
-1 -1 -1 -1 -1 -1 1 1 1 1:0.00285714 11:0.197143 15:0.168571 18:0.00857143 31:0.0142857 34:0.0285714 37:0.00571429 39:0.00285714 42:0.0657143 45:0.00571429 54:0.0257143 62:0.04 67:0.00285714 71:0.00285714 74:0.12 82:0.102857 85:0.168571 95:0.0171429 96:0.00285714 99:0.0171429 
-1 -1 -1 -1 -1 -1 1 1 1 1:0.00285714 11:0.197143 15:0.168571 18:0.00857143 31:0.0142857 34:0.0285714 37:0.00571429 39:0.00285714 42:0.0657143 45:0.00571429 54:0.0257143 62:0.04 67:0.00285714 71:0.00285714 74:0.12 82:0.102857 85:0.168571 95:0.0171429 96:0.00285714 99:0.0171429 
-1 -1 -1 -1 -1 -1 1 1 1 1:0.00285714 11:0.197143 15:0.168571 18:0.00857143 31:0.0142857 34:0.0285714 37:0.00571429 39:0.00285714 42:0.0657143 45:0.00571429 54:0.0257143 62:0.04 67:0.00285714 71:0.00285714 74:0.12 82:0.102857 85:0.168571 95:0.0171429 96:0.00285714 99:0.0171429 
-1 -1 -1 -1 -1 -1 1 1 1 1:0.00285714 11:0.197143 15:0.168571 18:0.00857143 31:0.0142857 34:0.0285714 37:0.00571429 39:0.00285714 42:0.0657143 45:0.00571429 54:0.0257143 62:0.04 67:0.00285714 71:0.00285714 74:0.12 82:0.102857 85:0.168571 95:0.0171429 96:0.00285714 99:0.0171429 
-1 -1 -1 -1 -1 -1 1 1 1 1:0.00285714 11:0.197143 15:0.168571 18:0.00857143 31:0.0142857 34:0.0285714 37:0.00571429 39:0.00285714 42:0.0657143 45:0.00571429 54:0.0257143 62:0.04 67:0.00285714 71:0.00285714 74:0.12 82:0.102857 85:0.168571 95:0.0171429 96:0.00285714 99:0.0171429 
-1 -1 -1 -1 -1 -1 1 1 1 1:0.00285714 11:0.197143 15:0.168571 18:0.00857143 31:0.0142857 34:0.0285714 37:0.00571429 39:0.00285714 42:0.0657143 45:0.00571429 54:0.0257143 62:0.04 67:0.00285714 71:0.00285714 74:0.12 82:0.102857 85:0.168571 95:0.0171429 96:0.00285714 99:0.0171429 
-1 -1 -1 -1 -1 -1 -0 1 1 1:0.03125 14:0.015625 18:0.140625 34:0.03125 39:0.671875 42:0.078125 55:0.015625 62:0.015625 
-1 -1 -1 -1 -1 -1 -1 1 1 14:0.333333 39:0.5 54:0.166667 
-1 -1 -1 -1 -1 -1 -0 1 1 1:0.03125 14:0.015625 18:0.140625 34:0.03125 39:0.671875 42:0.078125 55:0.015625 62:0.015625 
-1 -1 -1 -1 -1 -1 -1 1 1 14:0.333333 39:0.5 54:0.166667 
-1 -1 -1 -1 -1 -1 -0 1 1 1:0.03125 14:0.015625 18:0.140625 34:0.03125 39:0.671875 42:0.078125 55:0.015625 62:0.015625 
-1 -1 -1 -1 -1 -1 -1 1 1 14:0.333333 39:0.5 54:0.166667 
-1 -1 -1 -1 -1 -1 -0 1 1 1:0.03125 14:0.015625 18:0.140625 34:0.03125 39:0.671875 42:0.078125 55:0.015625 62:0.015625 
-1 -1 -1 -1 -1 -1 -1 1 1 14:0.333333 39:0.5 54:0.166667 
-1 -1 -1 -1 -1 -1 -0.6749272535413935 1 1 1:0.03125 14:0.015625 18:0.140625 34:0.03125 39:0.671875 42:0.078125 55:0.015625 62:0.015625 
-1 -1 -1 -1 -1 -1 -0.3250727464586065 1 1 14:0.333333 39:0.5 54:0.166667 
-1 -1 -1 -1 -1 -1 -1 1 1 1:0.03125 14:0.015625 18:0.140625 34:0.03125 39:0.671875 42:0.078125 55:0.015625 62:0.015625 
-1 -1 -1 -1 -1 -1 -0 1 1 14:0.333333 39:0.5 54:0.166667 
-1 -1 -1 -1 -1 -1 -1 -1 1 18:0.0350877 20:0.438596 25:0.473684 91:0.0526316 
-1 -1 -1 -1 -1 -1 -0 -1 1 25:0.234043 55:0.0212766 68:0.0212766 71:0.0212766 91:0.638298 95:0.0638298 
-1 -1 -1 -1 -1 -1 -1 -1 1 18:0.0350877 20:0.438596 25:0.473684 91:0.0526316 
-1 -1 -1 -1 -1 -1 -0 -1 1 25:0.234043 55:0.0212766 68:0.0212766 71:0.0212766 91:0.638298 95:0.0638298 
-1 -1 -1 -1 -1 -1 -1 -1 1 18:0.0350877 20:0.438596 25:0.473684 91:0.0526316 
-1 -1 -1 -1 -1 -1 -0 -1 1 25:0.234043 55:0.0212766 68:0.0212766 71:0.0212766 91:0.638298 95:0.0638298 
-1 -1 -1 -1 -1 -1 -0.2254966491144088 -1 1 18:0.0350877 20:0.438596 25:0.473684 91:0.0526316 
-1 -1 -1 -1 -1 -1 -0.7745033508855912 -1 1 25:0.234043 55:0.0212766 68:0.0212766 71:0.0212766 91:0.638298 95:0.0638298 
-1 -1 -1 -1 -1 -1 -0 -1 1 18:0.0350877 20:0.438596 25:0.473684 91:0.0526316 
-1 -1 -1 -1 -1 -1 -1 -1 1 25:0.234043 55:0.0212766 68:0.0212766 71:0.0212766 91:0.638298 95:0.0638298 
-1 -1 -1 -1 -1 -1 -0 -1 1 18:0.0350877 20:0.438596 25:0.473684 91:0.0526316 
-1 -1 -1 -1 -1 -1 -1 -1 1 25:0.234043 55:0.0212766 68:0.0212766 71:0.0212766 91:0.638298 95:0.0638298 
-1 -1 -1 -1 -1 -1 -0 -1 -1 5:0.0125786 14:0.00628931 29:0.0125786 31:0.0125786 36:0.0125786 39:0.00628931 42:0.00628931 54:0.0377358 56:0.339623 59:0.169811 62:0.138365 68:0.100629 69:0.00628931 74:0.0188679 78:0.0188679 87:0.0754717 89:0.00628931 95:0.0188679 
-1 -1 -1 -1 -1 -1 -1 -1 -1 5:0.0396825 8:0.0952381 10:0.00198413 28:0.077381 33:0.0753968 48:0.136905 52:0.015873 54:0.0198413 57:0.107143 61:0.15873 62:0.00396825 63:0.196429 67:0.00198413 75:0.0674603 80:0.00198413 
-1 -1 -1 -1 -1 -1 -0 -1 -1 5:0.0125786 14:0.00628931 29:0.0125786 31:0.0125786 36:0.0125786 39:0.00628931 42:0.00628931 54:0.0377358 56:0.339623 59:0.169811 62:0.138365 68:0.100629 69:0.00628931 74:0.0188679 78:0.0188679 87:0.0754717 89:0.00628931 95:0.0188679 
-1 -1 -1 -1 -1 -1 -1 -1 -1 5:0.0396825 8:0.0952381 10:0.00198413 28:0.077381 33:0.0753968 48:0.136905 52:0.015873 54:0.0198413 57:0.107143 61:0.15873 62:0.00396825 63:0.196429 67:0.00198413 75:0.0674603 80:0.00198413 
-1 -1 -1 -1 -1 -1 -0 -1 -1 5:0.0125786 14:0.00628931 29:0.0125786 31:0.0125786 36:0.0125786 39:0.00628931 42:0.00628931 54:0.0377358 56:0.339623 59:0.169811 62:0.138365 68:0.100629 69:0.00628931 74:0.0188679 78:0.0188679 87:0.0754717 89:0.00628931 95:0.0188679 
-1 -1 -1 -1 -1 -1 -1 -1 -1 5:0.0396825 8:0.0952381 10:0.00198413 28:0.077381 33:0.0753968 48:0.136905 52:0.015873 54:0.0198413 57:0.107143 61:0.15873 62:0.00396825 63:0.196429 67:0.00198413 75:0.0674603 80:0.00198413 
-1 -1 -1 -1 -1 -1 -0.572407900488813 -1 -1 5:0.0125786 14:0.00628931 29:0.0125786 31:0.0125786 36:0.0125786 39:0.00628931 42:0.00628931 54:0.0377358 56:0.339623 59:0.169811 62:0.138365 68:0.100629 69:0.00628931 74:0.0188679 78:0.0188679 87:0.0754717 89:0.00628931 95:0.0188679 
-1 -1 -1 -1 -1 -1 -0.427592099511187 -1 -1 5:0.0396825 8:0.0952381 10:0.00198413 28:0.077381 33:0.0753968 48:0.136905 52:0.015873 54:0.0198413 57:0.107143 61:0.15873 62:0.00396825 63:0.196429 67:0.00198413 75:0.0674603 80:0.00198413 
-1 -1 -1 -1 -1 -1 -1 -1 -1 5:0.0125786 14:0.00628931 29:0.0125786 31:0.0125786 36:0.0125786 39:0.00628931 42:0.00628931 54:0.0377358 56:0.339623 59:0.169811 62:0.138365 68:0.100629 69:0.00628931 74:0.0188679 78:0.0188679 87:0.0754717 89:0.00628931 95:0.0188679 
-1 -1 -1 -1 -1 -1 -0 -1 -1 5:0.0396825 8:0.0952381 10:0.00198413 28:0.077381 33:0.0753968 48:0.136905 52:0.015873 54:0.0198413 57:0.107143 61:0.15873 62:0.00396825 63:0.196429 67:0.00198413 75:0.0674603 80:0.00198413 
-1 -1 -1 -1 -1 -1 -1 -1 -1 5:0.0125786 14:0.00628931 29:0.0125786 31:0.0125786 36:0.0125786 39:0.00628931 42:0.00628931 54:0.0377358 56:0.339623 59:0.169811 62:0.138365 68:0.100629 69:0.00628931 74:0.0188679 78:0.0188679 87:0.0754717 89:0.00628931 95:0.0188679 
-1 -1 -1 -1 -1 -1 -0 -1 -1 5:0.0396825 8:0.0952381 10:0.00198413 28:0.077381 33:0.0753968 48:0.136905 52:0.015873 54:0.0198413 57:0.107143 61:0.15873 62:0.00396825 63:0.196429 67:0.00198413 75:0.0674603 80:0.00198413 
