svm_type c_svc
kernel_type rbf
gamma 0.01
nr_class 10
total_sv 39
rho -0.000649065 -0.00182176 -0.00179145 -0.995326 -0.00252154 -0.000939727 -0.00315809 0.00327733 0.00164539 -0.00185329 -0.00182569 -0.995883 -0.00240949 -0.0008232 -0.00239545 0.00371993 -0.000343502 -0.000142694 -0.993832 -0.000733823 0.00181547 -0.00045523 0.00591999 0.000347614 -0.993093 -0.00085938 0.000614583 -0.000606149 0.0059855 0.000602424 0.992442 0.995006 0.990822 0.99691 0.994871 0.00146106 5.24223e-05 0.00676614 0.00167957 -0.00124121 0.005564 -8.77082e-05 0.00953141 0.00242174 -0.00445345
label 1 2 3 4 5 6 7 8 10 11
nr_sv 4 4 4 4 3 4 4 4 4 4
SV
1 1 1 1 1 1 1 1 1 1:0.00245098 2:0.230392 3:0.0318627 4:0.00245098 6:0.0171569 13:0.10049 32:0.00245098 35:0.00980392 37:0.0171569 43:0.178922 47:0.0196078 48:0.00490196 52:0.127451 57:0.00245098 63:0.00245098 64:0.0122549 65:0.00245098 67:0.00245098 70:0.0980392 71:0.0220588 74:0.0245098 77:0.0612745 95:0.0269608 
1 1 1 1 1 1 1 1 1 2:0.0422535 3:0.0704225 6:0.183099 10:0.0140845 11:0.056338 12:0.112676 13:0.028169 35:0.028169 44:0.0140845 46:0.084507 47:0.0422535 57:0.0704225 71:0.028169 74:0.0140845 77:0.112676 81:0.0704225 97:0.028169 
1 1 1 0.322090533969686 1 1 1 1 1 32:0.111111 48:0.777778 74:0.111111 
1 1 1 0.677909466030314 1 1 1 1 1 3:0.0787879 6:0.0969697 10:0.0121212 11:0.29697 13:0.00606061 20:0.0121212 35:0.0121212 37:0.212121 46:0.00606061 47:0.00606061 49:0.0666667 58:0.0484848 65:0.10303 81:0.030303 89:0.00606061 97:0.00606061 
-1 1 1 1 1 1 1 1 1 4:0.285714 6:0.0178571 25:0.0357143 35:0.0178571 47:0.0178571 48:0.142857 49:0.0357143 57:0.0535714 62:0.0535714 67:0.0178571 71:0.107143 74:0.0178571 77:0.0178571 93:0.160714 97:0.0178571 
-1 1 1 1 1 1 1 1 1 1:0.076087 3:0.146739 6:0.0163043 8:0.00543478 9:0.0163043 12:0.0217391 15:0.00543478 20:0.00543478 22:0.0217391 25:0.0108696 32:0.00543478 35:0.00543478 38:0.00543478 46:0.0815217 47:0.0108696 49:0.0706522 51:0.0108696 56:0.0163043 58:0.00543478 65:0.108696 71:0.0326087 84:0.309783 89:0.0108696 
-1 1 1 0.5618262579444503 1 1 1 1 1 6:0.0288462 9:0.00480769 10:0.00480769 20:0.0192308 32:0.00480769 35:0.00480769 38:0.177885 44:0.0817308 47:0.00961538 48:0.0240385 49:0.0769231 57:0.00961538 62:0.0721154 65:0.0528846 71:0.0865385 79:0.278846 84:0.0384615 99:0.0240385 
-1 1 1 0.4381737420555497 1 1 1 1 1 3:0.00236967 6:0.109005 16:0.244076 22:0.00473934 25:0.0165877 27:0.00947867 28:0.0473934 35:0.00236967 36:0.00236967 38:0.028436 39:0.007109 45:0.374408 47:0.007109 48:0.021327 54:0.007109 55:0.00236967 57:0.00473934 58:0.0118483 74:0.014218 79:0.007109 93:0.0616114 97:0.014218 
-1 -1 1 1 1 1 1 1 1 1:0.0613811 3:0.0255754 4:0.0920716 5:0.0537084 12:0.00511509 18:0.11509 20:0.0383632 25:0.00255754 28:0.0255754 30:0.0409207 32:0.0946292 35:0.00767263 36:0.0153453 39:0.102302 46:0.0409207 47:0.0230179 48:0.00511509 57:0.00767263 67:0.132992 74:0.0409207 77:0.0434783 81:0.0153453 97:0.0102302 
-1 -1 1 0.4206034140531957 1 1 1 1 1 4:0.0323741 5:0.104317 6:0.00539568 12:0.0197842 18:0.0665468 20:0.0845324 21:0.365108 25:0.00179856 27:0.0431655 28:0.0467626 32:0.00719424 35:0.00539568 39:0.0521583 44:0.0557554 47:0.0179856 49:0.00179856 66:0.00179856 67:0.0431655 74:0.0269784 78:0.00539568 81:0.0125899 
-1 -1 1 0.5793965859468043 1 1 1 1 1 4:0.00157729 5:0.00315457 12:0.00315457 14:0.0252366 18:0.0347003 20:0.0126183 21:0.247634 23:0.209779 27:0.0599369 28:0.00473186 32:0.00157729 35:0.00473186 39:0.0772871 44:0.0694006 47:0.0157729 56:0.00630915 61:0.0141956 67:0.00630915 69:0.0788644 71:0.00315457 74:0.022082 77:0.022082 78:0.0536278 88:0.0157729 93:0.00157729 98:0.00473186 
-1 -1 1 1 1 1 1 1 1 4:0.00611247 5:0.00855746 10:0.00244499 14:0.0537897 16:0.00366748 18:0.0831296 20:0.0452323 23:0.0855746 27:0.0268949 28:0.0122249 29:0.0110024 35:0.00488998 39:0.00733496 47:0.00977995 48:0.00366748 49:0.00122249 55:0.00611247 57:0.0171149 61:0.00122249 67:0.0183374 71:0.00366748 72:0.00366748 74:0.0207824 78:0.339853 88:0.105134 96:0.116137 97:0.00122249 99:0.00122249 
-1 -1 -1 1 1 1 1 1 1 4:0.0967742 5:0.0645161 6:0.00537634 9:0.0215054 20:0.00537634 28:0.016129 30:0.0107527 31:0.00537634 32:0.0967742 33:0.0215054 35:0.0215054 41:0.0860215 44:0.0322581 47:0.0376344 48:0.00537634 50:0.0376344 57:0.0107527 66:0.016129 67:0.0322581 71:0.0483871 74:0.0483871 77:0.0806452 81:0.0215054 82:0.172043 99:0.00537634 
-1 -1 -1 0.5640715004114474 1 1 1 1 1 10:0.012987 18:0.00324675 20:0.025974 25:0.00324675 28:0.00974026 30:0.12013 33:0.266234 35:0.012987 41:0.37987 47:0.025974 50:0.0194805 67:0.012987 81:0.107143 
-1 -1 -1 0.4359284995885526 1 1 1 1 1 4:0.00740741 18:0.0469136 30:0.118519 31:0.0962963 32:0.0691358 33:0.0395062 35:0.00987654 39:0.00493827 41:0.135802 44:0.0246914 47:0.0197531 50:0.00740741 54:0.00246914 55:0.00246914 57:0.00493827 67:0.00740741 74:0.0271605 80:0.00740741 82:0.345679 97:0.0222222 
-1 -1 -1 1 1 1 1 1 1 1:0.00289017 4:0.124277 5:0.130058 10:0.00289017 12:0.0289017 18:0.179191 20:0.00867052 25:0.00289017 30:0.0433526 32:0.0549133 35:0.00867052 36:0.0260116 44:0.0346821 47:0.0260116 48:0.00578035 57:0.0260116 62:0.00289017 67:0.184971 71:0.00578035 74:0.0346821 77:0.00867052 81:0.00289017 83:0.00289017 97:0.0520231 
-1 -1 -1 -1 1 1 1 1 1 12:0.00162338 24:0.00162338 25:0.00324675 28:0.00487013 30:0.00324675 34:0.0519481 35:0.00649351 42:0.00811688 44:0.0162338 47:0.0146104 48:0.00162338 49:0.00487013 55:0.0340909 59:0.422078 65:0.0211039 72:0.0211039 83:0.0665584 84:0.0146104 86:0.0243506 87:0.256494 89:0.0211039 
-1 -1 -1 -1 1 1 1 1 1 9:0.0105079 34:0.0297723 35:0.00700525 39:0.00175131 42:0.218914 47:0.0192644 48:0.0140105 55:0.00525394 57:0.00525394 58:0.00350263 59:0.0718039 72:0.138354 74:0.0245184 75:0.257443 79:0.00700525 80:0.00175131 83:0.00175131 86:0.0105079 87:0.171629 
-1 -1 -1 -1 1 1 1 1 1 9:0.00549451 24:0.300366 25:0.0018315 28:0.00732601 32:0.0018315 34:0.0018315 35:0.00732601 44:0.043956 47:0.021978 48:0.003663 57:0.0018315 59:0.291209 67:0.003663 71:0.018315 83:0.0018315 84:0.03663 86:0.210623 89:0.0274725 92:0.010989 100:0.0018315 
-1 -1 -1 -1 -0 1 1 1 1 10:0.0019084 11:0.0019084 17:0.177481 25:0.00763359 28:0.0019084 35:0.00572519 37:0.019084 38:0.0019084 47:0.0152672 48:0.00763359 49:0.0019084 63:0.162214 64:0.21374 71:0.028626 76:0.171756 84:0.0496183 89:0.0248092 95:0.10687 
-1 -1 -1 -1 -1 1 1 1 1 1:0.00743494 2:0.00185874 5:0.00371747 11:0.211896 13:0.00185874 20:0.035316 27:0.0148699 28:0.0576208 30:0.00557621 32:0.00185874 35:0.00743494 37:0.228625 38:0.00743494 44:0.0148699 47:0.0167286 57:0.0185874 62:0.00185874 66:0.107807 71:0.00929368 74:0.0260223 77:0.0334572 79:0.00185874 81:0.00929368 84:0.00371747 93:0.00557621 100:0.165428 
-1 -1 -1 -1 -1 1 1 1 1 4:0.00578035 17:0.16763 32:0.017341 35:0.0115607 47:0.0202312 48:0.0231214 57:0.00289017 63:0.234104 64:0.16474 67:0.00289017 71:0.00289017 74:0.0289017 76:0.0260116 77:0.0375723 81:0.0375723 91:0.0231214 95:0.147399 97:0.0462428 
-1 -1 -1 -1 -1 1 1 1 1 11:0.0173913 17:0.13913 27:0.00289855 28:0.00289855 32:0.0057971 35:0.0115942 37:0.00289855 47:0.0202899 48:0.0115942 57:0.0144928 63:0.188406 64:0.15942 66:0.00289855 71:0.0318841 74:0.0289855 76:0.107246 77:0.0521739 81:0.0057971 84:0.0115942 95:0.162319 99:0.00289855 100:0.0173913 
-1 -1 -1 -1 -0.3676089836223507 -1 1 1 1 8:0.00335008 12:0.00167504 14:0.120603 23:0.361809 25:0.0100503 29:0.128978 30:0.00837521 35:0.00502513 47:0.0167504 48:0.0234506 49:0.00502513 57:0.0167504 65:0.0871022 66:0.00167504 67:0.00335008 71:0.0268007 78:0.00167504 84:0.0134003 88:0.135678 89:0.0251256 95:0.00335008 
-1 -1 -1 -1 -1 -1 1 1 1 1:0.0110497 3:0.0110497 4:0.129834 5:0.162983 12:0.00276243 18:0.00828729 20:0.0497238 25:0.0414365 32:0.140884 35:0.0110497 39:0.0248619 44:0.00552486 46:0.0248619 47:0.0248619 50:0.0220994 57:0.00276243 67:0.162983 71:0.019337 74:0.0359116 77:0.0441989 81:0.00552486 99:0.0580111 
-1 -1 -1 -1 -1 -1 1 1 1 9:0.00867679 10:0.0173536 12:0.0021692 25:0.0390456 31:0.0759219 32:0.0021692 33:0.0303688 35:0.0021692 38:0.0021692 44:0.0347072 47:0.010846 48:0.010846 54:0.164859 57:0.0281996 65:0.136659 71:0.0151844 76:0.00867679 80:0.258134 82:0.0824295 84:0.0368764 89:0.0303688 99:0.0021692 
-1 -1 -1 -1 -0.6323910163776494 -1 1 1 1 1:0.00468019 4:0.00156006 5:0.00156006 10:0.0156006 11:0.00156006 12:0.00156006 15:0.00624025 18:0.00156006 23:0.124805 25:0.0187207 29:0.112324 35:0.00312012 39:0.00468019 40:0.00156006 46:0.00156006 47:0.00936037 56:0.00468019 61:0.218409 63:0.00468019 64:0.00156006 69:0.25585 74:0.0156006 75:0.00156006 77:0.00312012 78:0.0218409 84:0.00936037 88:0.106084 91:0.0452418 100:0.00156006 
-1 -1 -1 -1 -0.970370241492101 -1 -1 1 1 6:0.25 10:0.0833333 25:0.166667 35:0.0833333 47:0.0833333 71:0.333333 
-1 -1 -1 -1 -0.02962975850789895 -1 -1 1 1 4:0.046875 6:0.359375 10:0.0625 25:0.203125 44:0.046875 48:0.15625 57:0.03125 67:0.015625 77:0.046875 81:0.015625 93:0.015625 
-1 -1 -1 -1 -1 -1 -1 1 1 6:0.294118 10:0.147059 25:0.0588235 48:0.117647 57:0.0588235 71:0.0294118 77:0.0882353 81:0.0588235 97:0.147059 
-1 -1 -1 -1 -1 -1 -1 1 1 6:0.176991 10:0.141593 12:0.0442478 25:0.39823 35:0.00884956 36:0.00884956 46:0.00884956 47:0.0265487 48:0.0265487 74:0.0265487 77:0.0442478 81:0.0265487 93:0.0442478 94:0.00884956 97:0.00884956 
-1 -1 -1 -1 -0.3861170473102961 -1 -1 -1 1 10:1 
-1 -1 -1 -1 -0.6138829526897039 -1 -1 -1 1 1:0.017094 6:0.0598291 10:0.017094 16:0.0683761 18:0.00854701 20:0.0940171 27:0.00854701 35:0.00854701 39:0.0683761 40:0.495726 44:0.025641 45:0.034188 47:0.017094 49:0.025641 62:0.00854701 66:0.017094 84:0.00854701 89:0.017094 
-1 -1 -1 -1 -1 -1 -1 -1 1 4:0.0714286 6:0.0714286 12:0.178571 18:0.0357143 36:0.107143 44:0.0357143 55:0.5 
-1 -1 -1 -1 -1 -1 -1 -1 1 3:0.0175439 20:0.0175439 39:0.0175439 40:0.438596 48:0.192982 57:0.0175439 58:0.192982 62:0.0701754 97:0.0350877 
-1 -1 -1 -1 -0.1646664346945877 -1 -1 -1 -1 48:0.9 57:0.1 
-1 -1 -1 -1 -1 -1 -1 -1 -1 1:0.00276625 4:0.0760719 5:0.105118 10:0.00276625 18:0.00138313 25:0.0912863 32:0.0248963 35:0.0055325 47:0.0124481 48:0.0152144 49:0.00138313 55:0.00138313 56:0.00138313 57:0.150761 62:0.00276625 65:0.0401107 67:0.0636238 71:0.0871369 84:0.0470263 89:0.0235131 97:0.0207469 99:0.222683 
-1 -1 -1 -1 -1 -1 -1 -1 -1 4:0.0726257 5:0.0335196 6:0.0614525 10:0.00558659 12:0.0335196 18:0.027933 20:0.0670391 25:0.0670391 32:0.0391061 39:0.0335196 40:0.106145 44:0.206704 46:0.00558659 47:0.00558659 48:0.0111732 49:0.00558659 50:0.00558659 56:0.0167598 57:0.0111732 58:0.00558659 67:0.0558659 77:0.0111732 81:0.0949721 89:0.00558659 97:0.0111732 
-1 -1 -1 -1 -0.8353335653054124 -1 -1 -1 -1 1:0.0543478 4:0.173913 6:0.0217391 9:0.228261 10:0.076087 18:0.0108696 25:0.0434783 28:0.0108696 35:0.0108696 36:0.0217391 44:0.0978261 45:0.152174 57:0.0108696 62:0.0217391 71:0.0217391 74:0.0108696 77:0.0108696 79:0.0217391 
