svm_type c_svc
kernel_type rbf
gamma 0.01
nr_class 10
total_sv 30
rho -0.000666201 0.000179082 0.00121549 0.000279993 -0.0001131 -0.000579625 0.000400335 0.00248381 0.00106236 -0.000137448 0.000967324 5.0962e-05 -0.000491083 -0.000934243 0.00128335 0.00215048 0.000781924 0.000695795 0.0001342 -0.000321001 -0.000627667 0.000651836 0.00235429 0.000692189 -0.000843704 -0.00129232 -0.00173622 -0.000432372 0.00137618 -0.000350058 -0.000491738 -0.000918001 0.000452399 0.00213739 0.000523359 -0.000544667 0.000870973 0.00240281 0.00124922 0.00135899 0.0030992 0.00128716 0.00157085 0.00072062 -0.00170517
label 1 2 3 4 5 6 7 8 10 11
nr_sv 3 3 3 3 3 3 3 3 3 3
SV
1 1 1 1 1 1 1 1 1 3:0.0140845 16:0.028169 21:0.0140845 28:0.0422535 30:0.112676 33:0.0140845 40:0.0985916 51:0.0140845 52:0.0140845 54:0.0985916 57:0.0422535 59:0.0140845 64:0.028169 73:0.0422535 76:0.112676 78:0.0140845 84:0.169014 97:0.126761 
1 1 1 1 1 1 1 1 1 1:0.0230769 3:0.0230769 11:0.00384615 16:0.0269231 21:0.269231 30:0.00769231 33:0.384615 40:0.00384615 48:0.00384615 51:0.0230769 64:0.0307692 73:0.0192308 84:0.134615 97:0.0461538 
1 1 1 1 1 1 1 1 1 1:0.0103627 11:0.00518135 16:0.134715 33:0.0880829 40:0.015544 45:0.165803 51:0.0259067 54:0.227979 59:0.00518135 60:0.170984 64:0.00518135 66:0.0466321 73:0.015544 84:0.0466321 86:0.0259067 96:0.0103627 
-1 1 1 1 1 1 1 1 1 3:0.0652174 30:0.179348 51:0.0108696 56:0.13587 57:0.00543478 59:0.00543478 64:0.0163043 65:0.00543478 73:0.0217391 75:0.0380435 78:0.0652174 86:0.0326087 92:0.358696 93:0.00543478 95:0.0543478 
-1 1 1 1 1 1 1 1 1 1:0.0198511 2:0.0124069 3:0.0843672 4:0.00744417 11:0.00248139 14:0.0645161 21:0.193548 30:0.0372208 40:0.00248139 50:0.0297767 51:0.0248139 53:0.00744417 56:0.00744417 59:0.00248139 62:0.0198511 64:0.0173697 69:0.0620347 73:0.148883 75:0.00744417 78:0.136476 80:0.00248139 84:0.109181 
-1 1 1 1 1 1 1 1 1 1:0.016129 14:0.0564516 21:0.153226 31:0.00806452 40:0.0241935 50:0.0887097 51:0.00806452 56:0.0645161 69:0.0887097 73:0.201613 76:0.104839 78:0.104839 84:0.0806452 
-1 -1 1 1 1 1 1 1 1 1:0.00767263 2:0.0153453 3:0.0306905 11:0.0869565 14:0.0255754 27:0.0409207 28:0.0306905 30:0.0537084 31:0.00511509 40:0.00511509 50:0.0485933 56:0.0102302 59:0.12532 61:0.0613811 62:0.0179028 65:0.0664962 67:0.127877 73:0.00255754 82:0.0127877 84:0.00255754 85:0.102302 96:0.120205 
-1 -1 1 1 1 1 1 1 1 3:0.00179856 7:0.00359712 10:0.0269784 11:0.00359712 14:0.00179856 21:0.00179856 28:0.0233813 30:0.00179856 32:0.00179856 46:0.181655 48:0.0143885 50:0.0791367 56:0.00359712 59:0.00539568 61:0.147482 62:0.00899281 65:0.00179856 67:0.00359712 72:0.28777 76:0.016187 82:0.120504 84:0.00359712 85:0.0305755 96:0.028777 
-1 -1 1 1 1 1 1 1 1 1:0.00366748 3:0.00122249 4:0.00122249 6:0.0892421 7:0.155257 10:0.0207824 14:0.0171149 28:0.0146699 32:0.156479 34:0.0684597 39:0.145477 40:0.00122249 41:0.00611247 42:0.00244499 43:0.0904645 50:0.00122249 55:0.117359 59:0.00611247 61:0.0110024 63:0.0782396 69:0.00122249 75:0.00122249 86:0.00366748 96:0.00366748 100:0.00244499 
-1 -1 -1 1 1 1 1 1 1 3:0.00289017 4:0.00289017 10:0.0346821 11:0.0491329 14:0.115607 28:0.0346821 31:0.00289017 40:0.141618 50:0.216763 53:0.0231214 59:0.109827 61:0.0231214 62:0.00867052 65:0.0578035 67:0.0751445 68:0.00289017 69:0.017341 71:0.00578035 76:0.00289017 80:0.0202312 84:0.00578035 85:0.00289017 86:0.00578035 96:0.0260116 100:0.0115607 
-1 -1 -1 1 1 1 1 1 1 4:0.0192308 10:0.0288462 11:0.0216346 14:0.00240385 18:0.00480769 28:0.0288462 30:0.00240385 31:0.00480769 35:0.360577 40:0.00721154 50:0.105769 53:0.158654 56:0.0120192 61:0.03125 62:0.0480769 67:0.0192308 69:0.00240385 71:0.00721154 75:0.00240385 76:0.00961538 78:0.00240385 80:0.0817308 85:0.0240385 96:0.00240385 100:0.0120192 
-1 -1 -1 1 1 1 1 1 1 3:0.00649351 4:0.00324675 14:0.00649351 18:0.350649 22:0.24026 51:0.038961 56:0.00649351 61:0.00649351 62:0.237013 64:0.038961 71:0.0519481 92:0.00974026 96:0.00324675 
-1 -1 -1 -1 1 1 1 1 1 2:0.0140187 5:0.14486 13:0.109813 14:0.0046729 21:0.0046729 30:0.00233645 36:0.13785 40:0.00233645 44:0.00233645 51:0.0280374 56:0.0327103 61:0.0140187 62:0.00233645 64:0.0350467 65:0.0163551 69:0.0257009 73:0.0373832 76:0.0046729 78:0.00934579 81:0.21729 84:0.0116822 86:0.00233645 89:0.00233645 91:0.0303738 93:0.0046729 96:0.0186916 99:0.0841122 
-1 -1 -1 -1 1 1 1 1 1 1:0.00221239 2:0.161504 4:0.00663717 13:0.00442478 14:0.039823 30:0.00221239 36:0.143805 40:0.0199115 51:0.0243363 53:0.00221239 59:0.00221239 61:0.0442478 64:0.0243363 67:0.00442478 73:0.190265 75:0.00221239 76:0.0486726 81:0.0110619 84:0.0442478 85:0.00663717 96:0.0730089 99:0.141593 
-1 -1 -1 -1 1 1 1 1 1 1:0.0175131 13:0.0507881 19:0.0980736 21:0.00175131 38:0.297723 40:0.00175131 44:0.166375 51:0.0245184 64:0.0262697 73:0.00525394 81:0.0315236 90:0.0770578 91:0.126095 99:0.0753065 
-1 -1 -1 -1 -1 1 1 1 1 1:0.00295858 4:0.00887574 16:0.00295858 21:0.00591716 40:0.0266272 48:0.00295858 49:0.183432 51:0.0236686 52:0.0621302 53:0.0266272 57:0.106509 61:0.00295858 64:0.0266272 68:0.00295858 69:0.00295858 76:0.0621302 84:0.056213 87:0.0118343 97:0.130178 98:0.251479 
-1 -1 -1 -1 -1 1 1 1 1 1:0.0240385 3:0.00240385 11:0.00480769 14:0.00240385 21:0.0889423 30:0.0408654 40:0.00240385 48:0.0432692 49:0.134615 51:0.0264423 52:0.0721154 53:0.00240385 57:0.122596 64:0.0288462 69:0.0168269 78:0.0889423 84:0.0360577 95:0.00961538 97:0.189904 98:0.0625 
-1 -1 -1 -1 -1 1 1 1 1 3:0.00232558 16:0.0116279 20:0.00465116 21:0.00232558 24:0.230233 26:0.0883721 48:0.0976744 49:0.00232558 51:0.0325581 52:0.0209302 56:0.0116279 57:0.0511628 62:0.00232558 64:0.0209302 65:0.0372093 78:0.00465116 86:0.00232558 87:0.169767 95:0.181395 97:0.0116279 98:0.0139535 
-1 -1 -1 -1 -1 -1 1 1 1 1:0.0142857 4:0.06 11:0.08 20:0.0114286 29:0.0142857 30:0.00571429 31:0.0742857 40:0.0885714 47:0.00571429 51:0.0171429 52:0.0142857 56:0.191429 57:0.00571429 62:0.0114286 64:0.0257143 65:0.0228571 67:0.00285714 68:0.257143 69:0.0285714 76:0.00571429 79:0.00285714 84:0.0342857 85:0.00285714 93:0.00285714 97:0.02 
-1 -1 -1 -1 -1 -1 1 1 1 1:0.00263852 4:0.0844327 10:0.0316623 11:0.129288 14:0.00791557 20:0.0131926 28:0.0290237 31:0.124011 35:0.0105541 40:0.0184697 50:0.00263852 52:0.00263852 53:0.150396 56:0.0527704 57:0.0105541 59:0.0580475 62:0.0817942 67:0.00791557 68:0.00527705 69:0.0870712 75:0.0395778 78:0.00263852 84:0.00791557 85:0.0131926 96:0.0131926 98:0.00263852 100:0.0105541 
-1 -1 -1 -1 -1 -1 1 1 1 3:0.00276243 4:0.0773481 10:0.0359116 11:0.151934 14:0.0359116 20:0.0524862 28:0.0359116 30:0.0138122 31:0.0414365 40:0.00276243 50:0.00552486 52:0.00828729 53:0.154696 56:0.0165746 57:0.00828729 59:0.0497238 62:0.038674 67:0.0138122 69:0.107735 75:0.0635359 84:0.00276243 85:0.0331492 96:0.019337 97:0.00552486 100:0.0220994 
-1 -1 -1 -1 -1 -1 -1 1 1 1:0.0265487 4:0.00884956 21:0.20354 40:0.00884956 51:0.0265487 64:0.0353982 70:0.566372 73:0.00884956 84:0.106195 86:0.00884956 
-1 -1 -1 -1 -1 -1 -1 1 1 3:0.0833333 21:0.0833333 64:0.166667 84:0.333333 100:0.333333 
-1 -1 -1 -1 -1 -1 -1 1 1 1:0.171875 3:0.15625 4:0.015625 21:0.078125 40:0.015625 69:0.015625 70:0.15625 73:0.1875 84:0.203125 
-1 -1 -1 -1 -1 -1 -1 -1 1 2:0.0212766 58:0.574468 75:0.0425532 76:0.0212766 86:0.0638298 88:0.255319 96:0.0212766 
-1 -1 -1 -1 -1 -1 -1 -1 1 40:0.285714 50:0.0357143 73:0.0714286 76:0.357143 86:0.25 
-1 -1 -1 -1 -1 -1 -1 -1 1 1:0.421053 30:0.0350877 58:0.157895 83:0.0175439 88:0.368421 
-1 -1 -1 -1 -1 -1 -1 -1 -1 3:0.0290456 4:0.0843707 11:0.0248963 12:0.193638 14:0.011065 20:0.06639 21:0.00138313 28:0.0055325 29:0.178423 40:0.00276625 42:0.06639 46:0.00138313 53:0.0152144 61:0.00414938 64:0.0124481 67:0.00276625 68:0.0995851 69:0.0152144 80:0.0373444 86:0.00276625 100:0.145228 
-1 -1 -1 -1 -1 -1 -1 -1 -1 3:0.0666667 48:0.111111 51:0.0222222 64:0.0444444 84:0.0888889 94:0.644444 95:0.0222222 
-1 -1 -1 -1 -1 -1 -1 -1 -1 3:0.0119048 8:0.0615079 9:0.10119 10:0.015873 14:0.00198413 15:0.136905 23:0.077381 25:0.150794 28:0.015873 37:0.178571 48:0.00198413 50:0.00595238 59:0.00396825 64:0.00396825 72:0.00198413 74:0.0952381 77:0.134921 
