svm_type c_svc
kernel_type rbf
gamma 0.01
nr_class 10
total_sv 19
rho -0.000600249 -0.000406563 5.42998e-05 -0.000469267 -0.000679255 -0.998784 -0.00074026 0.00157523 0.000112623 0.000461638 0.000931978 0.000224799 -6.02901e-05 -0.997961 0.000231624 0.00246516 0.00121737 0.000432581 -8.35955e-05 -0.000452191 -0.998711 -0.000350207 0.00196192 0.00049141 -0.000554323 -0.000905931 -0.998713 -0.000844508 0.00149637 -1.18017e-05 -0.000362843 -0.998697 -0.000225365 0.00209239 0.000540972 -0.998203 0.000138193 0.00242367 0.00102237 0.995468 0.997287 0.998797 0.0022265 0.000831813 -0.00155827
label 1 2 3 4 5 6 7 8 10 11
nr_sv 2 2 2 2 2 2 1 2 2 2
SV
1 1 1 1 1 0.5486937323684533 1 1 1 1:0.042253502 14:0.0704225 17:0.028169001 34:0.028169001 42:0.126761 43:0.28169 45:0.028169001 51:0.0140845 54:0.0704225 62:0.084507003 71:0.098591603 88:0.028169001 95:0.0140845 97:0.0140845 100:0.0704225 
1 1 1 1 1 0.4513062676315467 1 1 1 5:0.00490196 14:0.024509801 17:0.105392 18:0.00490196 19:0.031862698 21:0.208333 29:0.00245098 42:0.00245098 51:0.125 54:0.0294118 55:0.00245098 60:0.127451 70:0.171569 86:0.00245098 92:0.090686299 95:0.024509801 98:0.041666701 
-1 1 1 1 1 0.7346556147621867 1 1 1 1:0.0124069 13:0.0496278 14:0.00248139 18:0.017369701 29:0.00496278 34:0.00248139 42:0.052109201 45:0.188586 54:0.017369701 55:0.099255599 62:0.133995 67:0.069478899 87:0.198511 88:0.124069 95:0.0248139 100:0.00248139 
-1 1 1 1 1 0.2653443852378133 1 1 1 1:0.040322602 13:0.104839 14:0.0080645196 34:0.032258101 42:0.120968 45:0.064516097 55:0.145161 62:0.024193499 67:0.064516097 87:0.032258101 88:0.354839 95:0.0080645196 
-1 -1 1 1 1 0.4661349054967921 1 1 1 1:0.032374099 5:0.00179856 10:0.086330898 23:0.124101 29:0.0107914 37:0.061151098 52:0.0269784 54:0.0233813 55:0.00179856 56:0.0521583 67:0.0053956802 68:0.034172699 72:0.061151098 77:0.124101 78:0.109712 80:0.095323697 87:0.0035971201 89:0.143885 96:0.00179856 
-1 -1 1 1 1 0.533865094503208 1 1 1 2:0.119804 3:0.111247 5:0.070904598 13:0.00488998 14:0.0036674801 18:0.00244499 24:0.086797103 29:0.018337401 36:0.0929095 38:0.061124701 40:0.106357 50:0.046454798 52:0.0207824 53:0.053789701 54:0.0146699 55:0.0061124698 65:0.079462104 67:0.0207824 68:0.0036674801 81:0.072127096 87:0.0036674801 
-1 -1 -1 1 1 0.4005472305036875 1 1 1 22:0.227273 27:0.11039 32:0.00324675 54:0.038961001 67:0.0064935102 68:0.00324675 77:0.00324675 79:0.21103901 82:0.00324675 87:0.0162338 88:0.00324675 93:0.136364 94:0.237013 
-1 -1 -1 1 1 0.5994527694963125 1 1 1 5:0.064903803 13:0.036057699 15:0.00240385 22:0.00240385 29:0.048076902 31:0.25 32:0.120192 44:0.170673 47:0.091346197 52:0.028846201 54:0.028846201 55:0.0048076902 67:0.0048076902 72:0.0120192 74:0.0048076902 77:0.0072115399 87:0.00240385 93:0.033653799 96:0.086538501 
-1 -1 -1 -1 1 0.4820164609053498 1 1 1 4:0.075221203 7:0.115044 13:0.022123899 14:0.0022123901 18:0.0022123901 29:0.0287611 30:0.068584099 34:0.00663717 42:0.0265487 54:0.024336301 55:0.073008902 58:0.110619 67:0.106195 68:0.10177 71:0.0353982 73:0.106195 77:0.0022123901 95:0.024336301 97:0.068584099 
-1 -1 -1 -1 1 0.5179835390946502 1 1 1 9:0.066549897 14:0.00175131 16:0.059544701 18:0.0140105 26:0.066549897 34:0.0035026299 35:0.047285501 41:0.071803898 46:0.092819601 49:0.0420315 54:0.0262697 66:0.141856 69:0.028021 73:0.0455341 76:0.078809097 83:0.036777601 84:0.082311697 90:0.070052497 95:0.0245184 
-1 -1 -1 -1 -1 0 1 1 1 1:0.021634599 6:0.12980799 12:0.055288501 13:0.0048076902 18:0.0192308 29:0.0120192 34:0.0048076902 42:0.021634599 43:0.0048076902 45:0.0096153803 54:0.028846201 55:0.038461499 62:0.072115399 68:0.00240385 86:0.115385 87:0.091346197 88:0.021634599 95:0.026442301 99:0.15144201 100:0.16826899 
-1 -1 -1 -1 -1 1 1 1 1 6:0.091715999 12:0.130178 13:0.044378702 14:0.0029585799 15:0.0029585799 18:0.0029585799 34:0.0088757398 42:0.029585799 43:0.0029585799 45:0.0118343 54:0.0266272 55:0.0029585799 62:0.047337301 64:0.189349 68:0.0118343 71:0.065088801 77:0.0029585799 86:0.118343 95:0.0236686 99:0.12721901 100:0.056212999 
-1 -1 -1 -1 -1 -1 1 1 1 1:0.00285714 11:0.197143 15:0.168571 18:0.0085714301 31:0.0142857 34:0.028571401 37:0.0057142898 39:0.00285714 42:0.0657143 45:0.0057142898 54:0.025714301 62:0.039999999 67:0.00285714 71:0.00285714 74:0.12 82:0.102857 85:0.168571 95:0.017142899 96:0.00285714 99:0.017142899 
-1 -1 -1 -1 -1 -1 -0.2791545422568989 1 1 1:0.03125 14:0.015625 18:0.140625 34:0.03125 39:0.671875 42:0.078125 55:0.015625 62:0.015625 
-1 -1 -1 -1 -1 -1 -0.7208454577431012 1 1 14:0.33333299 39:0.5 54:0.166667 
-1 -1 -1 -1 -1 -1 -0.5375827748524015 -1 1 18:0.035087701 20:0.43859601 25:0.47368401 91:0.052631602 
-1 -1 -1 -1 -1 -1 -0.4624172251475985 -1 1 25:0.234043 55:0.021276601 68:0.021276601 71:0.021276601 91:0.63829798 95:0.063829802 
-1 -1 -1 -1 -1 -1 -0.4287346500814688 -1 -1 5:0.0125786 14:0.0062893098 29:0.0125786 31:0.0125786 36:0.0125786 39:0.0062893098 42:0.0062893098 54:0.037735801 56:0.339623 59:0.169811 62:0.138365 68:0.100629 69:0.0062893098 74:0.018867901 78:0.018867901 87:0.075471699 89:0.0062893098 95:0.018867901 
-1 -1 -1 -1 -1 -1 -0.5712653499185312 -1 -1 5:0.0396825 8:0.095238097 10:0.0019841299 28:0.077381 33:0.075396799 48:0.136905 52:0.015873 54:0.0198413 57:0.107143 61:0.15873 62:0.00396825 63:0.196429 67:0.0019841299 75:0.067460299 80:0.0019841299 
