svm_type c_svc
kernel_type rbf
gamma 0.01
nr_class 10
total_sv 40
rho 0.00069356 -0.000823289 -0.000709325 0.000495672 -0.000639349 -0.000806212 0.00204265 0.000337511 0.00279024 -0.000940204 -0.000745893 0.000394493 -0.00109899 -0.000861406 -0.000876129 -0.000808358 0.00260895 -0.000161082 0.0012221 -0.00017336 0.000201732 0.00100315 0.00118667 0.00347394 0.00124285 -0.000305623 -0.000285447 0.001142 0.000666767 0.00335333 -0.00146925 -0.00115249 -0.000406444 -7.48336e-05 0.00221881 0.000146359 0.00126827 0.0012013 0.00350571 0.00131804 0.000686526 0.00371054 -0.000744849 0.00312233 0.0023846
label 1 2 3 4 5 6 7 8 10 11
nr_sv 4 4 4 4 4 4 4 4 4 4
SV
1 1 1 1 1 1 1 1 1 1:0.0271493 4:0.0180995 13:0.00904977 15:0.0950226 25:0.113122 31:0.040724 34:0.0271493 56:0.0497738 62:0.20362 71:0.0180995 72:0.00452489 75:0.334842 82:0.0180995 89:0.040724 
1 1 1 1 1 1 1 1 1 1:0.0704225 2:0.028169 4:0.183099 11:0.028169 13:0.0422535 15:0.0422535 19:0.126761 25:0.239437 31:0.028169 33:0.0140845 34:0.0140845 36:0.084507 59:0.0422535 71:0.0140845 81:0.028169 87:0.0140845 
1 1 1 1 1 1 1 1 1 1:0.0153846 2:0.280769 4:0.130769 11:0.00384615 25:0.0961538 31:0.0307692 34:0.0230769 36:0.00384615 51:0.35 61:0.0153846 72:0.0192308 81:0.00769231 89:0.0230769 
1 1 1 1 1 1 1 1 1 4:0.0829016 15:0.170984 25:0.0984456 31:0.00518135 33:0.00518135 34:0.0259067 42:0.00518135 56:0.0466321 62:0.238342 71:0.0725389 75:0.150259 81:0.0259067 82:0.0259067 87:0.0103627 89:0.0362694 
-1 1 1 1 1 1 1 1 1 1:0.00236967 6:0.00236967 14:0.0308057 15:0.00947867 20:0.014218 31:0.00947867 33:0.151659 36:0.007109 44:0.00473934 47:0.00236967 48:0.272512 55:0.00236967 60:0.00473934 69:0.014218 70:0.028436 72:0.00236967 74:0.372038 81:0.0402844 86:0.00236967 89:0.0165877 94:0.00947867 
-1 1 1 1 1 1 1 1 1 2:0.0968586 4:0.123037 9:0.0026178 15:0.0078534 20:0.609948 29:0.0078534 31:0.0104712 33:0.0157068 34:0.0078534 42:0.0078534 44:0.0078534 66:0.0104712 72:0.0366492 77:0.0157068 86:0.0026178 87:0.026178 89:0.0078534 100:0.0026178 
-1 1 1 1 1 1 1 1 1 1:0.173913 3:0.326087 4:0.0706522 20:0.108696 30:0.0380435 31:0.0163043 33:0.00543478 34:0.0108696 36:0.00543478 42:0.00543478 65:0.0108696 72:0.0271739 81:0.168478 82:0.0326087 
-1 1 1 1 1 1 1 1 1 2:0.00480769 3:0.0528846 4:0.0673077 11:0.00480769 13:0.0240385 15:0.00480769 18:0.0144231 20:0.5 30:0.0240385 31:0.00480769 33:0.0384615 42:0.0144231 43:0.00961538 45:0.00961538 72:0.00480769 81:0.0144231 82:0.0673077 86:0.129808 89:0.00961538 
-1 -1 1 1 1 1 1 1 1 3:0.00179856 4:0.00359712 8:0.00899281 10:0.00359712 11:0.00539568 29:0.298561 42:0.0107914 53:0.0665468 59:0.0233813 66:0.0197842 69:0.0269784 72:0.00179856 77:0.138489 80:0.0341727 81:0.00359712 87:0.0485612 92:0.205036 97:0.00179856 99:0.00359712 100:0.0935252 
-1 -1 1 1 1 1 1 1 1 8:0.0141956 10:0.0189274 11:0.00788643 12:0.00315457 18:0.00157729 22:0.011041 23:0.0173502 29:0.141956 31:0.00473186 34:0.022082 38:0.0394322 42:0.0268139 53:0.16877 59:0.0157729 73:0.0283912 77:0.121451 80:0.00473186 82:0.00315457 84:0.00157729 87:0.00946372 88:0.152997 92:0.176656 97:0.00630915 100:0.00157729 
-1 -1 1 1 1 1 1 1 1 1:0.0127877 4:0.056266 11:0.14578 12:0.00511509 15:0.0255754 33:0.0383632 37:0.00511509 42:0.130435 44:0.0409207 53:0.00511509 59:0.0306905 66:0.0153453 69:0.0409207 80:0.158568 81:0.0639386 86:0.0434783 87:0.0997442 92:0.00767263 99:0.00511509 100:0.0690537 
-1 -1 1 1 1 1 1 1 1 8:0.243276 10:0.201711 11:0.00244499 13:0.00122249 14:0.00244499 15:0.00366748 26:0.0684597 30:0.00244499 38:0.0684597 39:0.00366748 40:0.00122249 42:0.00611247 48:0.00122249 59:0.0146699 69:0.0207824 73:0.00244499 79:0.127139 80:0.0183374 82:0.00366748 84:0.0843521 87:0.00855746 88:0.00366748 89:0.00244499 97:0.102689 100:0.00488998 
-1 -1 -1 1 1 1 1 1 1 7:0.00493827 9:0.00246914 11:0.00740741 32:0.00987654 34:0.0271605 37:0.00493827 42:0.0839506 45:0.0296296 47:0.0345679 55:0.0246914 58:0.177778 60:0.00246914 67:0.0864198 76:0.340741 80:0.00493827 86:0.135802 87:0.0197531 93:0.00246914 
-1 -1 -1 1 1 1 1 1 1 4:0.00578035 9:0.00578035 11:0.101156 12:0.017341 15:0.017341 33:0.00289017 42:0.15896 44:0.0635838 58:0.0520231 59:0.0346821 66:0.0202312 69:0.0346821 72:0.00289017 80:0.187861 81:0.0115607 82:0.00578035 86:0.0231214 87:0.156069 100:0.0982659 
-1 -1 -1 1 1 1 1 1 1 2:0.00240385 9:0.00961538 11:0.0216346 37:0.394231 42:0.0288462 44:0.00240385 47:0.00240385 55:0.00240385 58:0.00721154 59:0.0288462 66:0.0192308 67:0.0480769 69:0.0288462 76:0.0480769 80:0.0456731 86:0.0985577 87:0.0985577 100:0.112981 
-1 -1 -1 1 1 1 1 1 1 2:0.016129 4:0.0913979 7:0.00537634 9:0.0752688 13:0.0483871 15:0.016129 18:0.00537634 30:0.00537634 31:0.0215054 37:0.0322581 42:0.0752688 45:0.0376344 55:0.00537634 58:0.0107527 66:0.0322581 67:0.11828 69:0.0483871 76:0.166667 86:0.0752688 87:0.0967742 93:0.016129 
-1 -1 -1 -1 1 1 1 1 1 3:0.040293 5:0.0018315 13:0.0018315 14:0.003663 15:0.0018315 17:0.336996 24:0.249084 42:0.0018315 45:0.021978 48:0.0018315 57:0.00549451 59:0.00732601 66:0.0018315 72:0.0018315 80:0.0018315 82:0.0164835 85:0.0018315 89:0.0018315 91:0.0018315 95:0.0274725 96:0.271062 
-1 -1 -1 -1 1 1 1 1 1 2:0.00221239 4:0.0331858 9:0.00442478 11:0.00442478 12:0.150442 15:0.00884956 16:0.0132743 18:0.00221239 19:0.0862832 31:0.00884956 33:0.00663717 36:0.00221239 41:0.0154867 42:0.0199115 50:0.00221239 61:0.00221239 63:0.106195 66:0.090708 67:0.00442478 80:0.103982 81:0.152655 85:0.050885 86:0.00442478 87:0.0420354 95:0.0243363 100:0.0575221 
-1 -1 -1 -1 1 1 1 1 1 2:0.00875657 5:0.418564 6:0.00525394 15:0.00875657 16:0.028021 17:0.00525394 19:0.0105079 24:0.0157618 31:0.00700525 41:0.0192644 50:0.0858144 60:0.00700525 63:0.0595447 66:0.0262697 80:0.0595447 85:0.171629 89:0.0105079 91:0.0245184 95:0.0245184 96:0.00350263 
-1 -1 -1 -1 1 1 1 1 1 4:0.00198413 5:0.031746 12:0.107143 15:0.00396825 16:0.160714 19:0.0376984 31:0.00793651 34:0.00396825 41:0.0198413 42:0.00198413 50:0.132937 57:0.00793651 60:0.0972222 63:0.103175 66:0.0436508 80:0.0376984 81:0.00396825 85:0.0654762 89:0.00595238 91:0.0892857 95:0.031746 100:0.00396825 
-1 -1 -1 -1 -1 1 1 1 1 2:0.0019084 3:0.0744275 13:0.0019084 18:0.00381679 27:0.209924 34:0.0248092 36:0.0019084 45:0.0209924 48:0.0019084 49:0.0763359 56:0.00763359 64:0.185115 68:0.236641 72:0.00763359 78:0.118321 82:0.0229008 89:0.0019084 99:0.0019084 
-1 -1 -1 -1 -1 1 1 1 1 2:0.00697674 4:0.0209302 19:0.027907 21:0.00465116 27:0.0116279 30:0.00232558 31:0.00232558 34:0.0325581 36:0.0651163 41:0.0186047 44:0.0697674 54:0.00232558 61:0.311628 64:0.00232558 66:0.00930233 71:0.14186 72:0.00930233 74:0.00232558 81:0.00697674 82:0.00232558 99:0.248837 
-1 -1 -1 -1 -1 1 1 1 1 1:0.00295858 4:0.0384615 9:0.0266272 11:0.00295858 12:0.00295858 14:0.00295858 15:0.0118343 19:0.0680473 25:0.00295858 27:0.0532544 31:0.0266272 33:0.0118343 34:0.0236686 36:0.180473 44:0.0266272 48:0.0207101 58:0.0207101 61:0.171598 66:0.0798817 67:0.0384615 71:0.0473373 80:0.0798817 81:0.00887574 86:0.00295858 87:0.035503 100:0.0118343 
-1 -1 -1 -1 -1 1 1 1 1 1:0.00480769 2:0.137019 4:0.0288462 15:0.0144231 25:0.00240385 31:0.00961538 34:0.0288462 36:0.199519 41:0.0192308 42:0.0192308 61:0.276442 66:0.0480769 67:0.00240385 71:0.0649038 80:0.103365 81:0.0144231 89:0.0120192 99:0.00480769 100:0.00961538 
-1 -1 -1 -1 -1 -1 1 1 1 4:0.0158311 9:0.14248 11:0.0131926 13:0.00527705 15:0.00527705 18:0.00263852 30:0.0158311 33:0.00263852 36:0.0211082 37:0.0211082 42:0.158311 44:0.00263852 45:0.0211082 55:0.00791557 59:0.00791557 67:0.145119 69:0.0316623 72:0.0105541 80:0.0738786 81:0.0105541 86:0.0897098 87:0.150396 89:0.00791557 100:0.0369393 
-1 -1 -1 -1 -1 -1 1 1 1 1:0.00571429 4:0.0657143 9:0.251429 11:0.00571429 13:0.00285714 15:0.04 18:0.0457143 19:0.0142857 28:0.00285714 30:0.0142857 31:0.0257143 34:0.0171429 36:0.0285714 37:0.0314286 42:0.04 44:0.0428571 61:0.0514286 63:0.00285714 65:0.00285714 66:0.08 67:0.122857 71:0.00857143 72:0.00857143 74:0.00571429 80:0.0114286 81:0.0371429 87:0.0257143 89:0.00857143 
-1 -1 -1 -1 -1 -1 1 1 1 2:0.00650759 3:0.0498915 4:0.0021692 7:0.0629067 18:0.0607375 30:0.0477223 31:0.0021692 32:0.00650759 34:0.0303688 45:0.010846 47:0.340564 52:0.236443 72:0.0433839 76:0.0173536 82:0.0303688 86:0.0477223 89:0.00433839 
-1 -1 -1 -1 -1 -1 1 1 1 4:0.00276243 9:0.127072 11:0.00276243 12:0.00552486 13:0.019337 18:0.00276243 19:0.00552486 30:0.0441989 33:0.0138122 36:0.0469613 37:0.00828729 42:0.174033 45:0.0248619 59:0.0110497 61:0.00552486 66:0.0303867 67:0.0690608 69:0.0359116 72:0.0414365 80:0.0828729 81:0.019337 86:0.0469613 87:0.118785 100:0.0607735 
-1 -1 -1 -1 -1 -1 -1 1 1 2:0.15873 4:0.103175 11:0.015873 15:0.0873016 20:0.0952381 33:0.00793651 34:0.00793651 42:0.00793651 60:0.00793651 66:0.0238095 70:0.436508 80:0.00793651 81:0.015873 82:0.00793651 89:0.015873 
-1 -1 -1 -1 -1 -1 -1 1 1 2:0.166667 4:0.5 30:0.166667 72:0.166667 
-1 -1 -1 -1 -1 -1 -1 1 1 2:0.09375 4:0.203125 15:0.09375 33:0.3125 60:0.015625 66:0.015625 72:0.078125 81:0.09375 89:0.09375 
-1 -1 -1 -1 -1 -1 -1 1 1 4:0.25 13:0.333333 31:0.166667 72:0.166667 81:0.0833333 
-1 -1 -1 -1 -1 -1 -1 -1 1 11:0.0212766 19:0.0425532 30:0.0638298 33:0.0212766 34:0.0638298 35:0.659574 42:0.0212766 44:0.0212766 54:0.0212766 66:0.0212766 81:0.0212766 86:0.0212766 
-1 -1 -1 -1 -1 -1 -1 -1 1 1:0.0344828 2:0.0344828 4:0.137931 6:0.0574713 16:0.0114943 31:0.0344828 33:0.0114943 34:0.0344828 44:0.0689655 60:0.0114943 66:0.0114943 67:0.321839 70:0.0229885 81:0.126437 86:0.0804598 
-1 -1 -1 -1 -1 -1 -1 -1 1 2:0.285714 11:0.178571 18:0.25 60:0.0714286 81:0.0714286 82:0.107143 87:0.0357143 
-1 -1 -1 -1 -1 -1 -1 -1 1 11:0.042735 19:0.017094 20:0.128205 30:0.00854701 31:0.025641 33:0.034188 34:0.017094 35:0.615385 44:0.017094 53:0.00854701 74:0.00854701 77:0.00854701 86:0.0683761 
-1 -1 -1 -1 -1 -1 -1 -1 -1 3:0.0469432 9:0.0010917 13:0.0818777 14:0.0010917 18:0.0272926 20:0.00982533 21:0.00218341 28:0.0163755 33:0.00218341 42:0.00218341 43:0.240175 44:0.0141921 57:0.0480349 59:0.00327511 65:0.120087 72:0.0120087 74:0.00436681 81:0.0010917 82:0.0010917 83:0.318777 89:0.00436681 90:0.040393 93:0.0010917 
-1 -1 -1 -1 -1 -1 -1 -1 -1 2:0.00595238 14:0.103175 21:0.277778 23:0.00198413 29:0.00198413 31:0.00396825 33:0.0138889 36:0.00992064 44:0.0436508 48:0.166667 49:0.00992064 55:0.015873 59:0.015873 69:0.015873 80:0.00198413 86:0.00198413 93:0.28373 99:0.0257937 
-1 -1 -1 -1 -1 -1 -1 -1 -1 4:0.0222222 31:0.0444444 34:0.0222222 54:0.711111 72:0.2 
-1 -1 -1 -1 -1 -1 -1 -1 -1 1:0.0490654 2:0.046729 4:0.0233645 14:0.0957944 15:0.00934579 30:0.00233645 31:0.0046729 33:0.119159 41:0.00700935 48:0.175234 69:0.0140187 72:0.0350467 74:0.366822 81:0.0163551 86:0.00934579 89:0.021028 100:0.0046729 
