svm_type c_svc
kernel_type rbf
gamma 0.01
nr_class 6
total_sv 11
rho 0.000461638 0.000931978 0.000224799 -6.02901e-05 -0.997961 0.000432581 -8.35955e-05 -0.000452191 -0.998711 -0.000554323 -0.000905931 -0.998713 -0.000362843 -0.998697 -0.998203
label 2 3 4 5 6 7
nr_sv 2 2 2 2 2 1
SV
1 1 1 1 0.7346556147621867 1:0.0124069 13:0.0496278 14:0.00248139 18:0.0173697 29:0.00496278 34:0.00248139 42:0.0521092 45:0.188586 54:0.0173697 55:0.0992556 62:0.133995 67:0.0694789 87:0.198511 88:0.124069 95:0.0248139 100:0.00248139 
1 1 1 1 0.2653443852378133 1:0.0403226 13:0.104839 14:0.00806452 34:0.0322581 42:0.120968 45:0.0645161 55:0.145161 62:0.0241935 67:0.0645161 87:0.0322581 88:0.354839 95:0.00806452 
-1 1 1 1 0.4661349054967921 1:0.0323741 5:0.00179856 10:0.0863309 23:0.124101 29:0.0107914 37:0.0611511 52:0.0269784 54:0.0233813 55:0.00179856 56:0.0521583 67:0.00539568 68:0.0341727 72:0.0611511 77:0.124101 78:0.109712 80:0.0953237 87:0.00359712 89:0.143885 96:0.00179856 
-1 1 1 1 0.533865094503208 2:0.119804 3:0.111247 5:0.0709046 13:0.00488998 14:0.00366748 18:0.00244499 24:0.0867971 29:0.0183374 36:0.0929095 38:0.0611247 40:0.106357 50:0.0464548 52:0.0207824 53:0.0537897 54:0.0146699 55:0.00611247 65:0.0794621 67:0.0207824 68:0.00366748 81:0.0721271 87:0.00366748 
-1 -1 1 1 0.4005472305036875 22:0.227273 27:0.11039 32:0.00324675 54:0.038961 67:0.00649351 68:0.00324675 77:0.00324675 79:0.211039 82:0.00324675 87:0.0162338 88:0.00324675 93:0.136364 94:0.237013 
-1 -1 1 1 0.5994527694963125 5:0.0649038 13:0.0360577 15:0.00240385 22:0.00240385 29:0.0480769 31:0.25 32:0.120192 44:0.170673 47:0.0913462 52:0.0288462 54:0.0288462 55:0.00480769 67:0.00480769 72:0.0120192 74:0.00480769 77:0.00721154 87:0.00240385 93:0.0336538 96:0.0865385 
-1 -1 -1 1 0.4820164609053498 4:0.0752212 7:0.115044 13:0.0221239 14:0.00221239 18:0.00221239 29:0.0287611 30:0.0685841 34:0.00663717 42:0.0265487 54:0.0243363 55:0.0730089 58:0.110619 67:0.106195 68:0.10177 71:0.0353982 73:0.106195 77:0.00221239 95:0.0243363 97:0.0685841 
-1 -1 -1 1 0.5179835390946502 9:0.0665499 14:0.00175131 16:0.0595447 18:0.0140105 26:0.0665499 34:0.00350263 35:0.0472855 41:0.0718039 46:0.0928196 49:0.0420315 54:0.0262697 66:0.141856 69:0.028021 73:0.0455341 76:0.0788091 83:0.0367776 84:0.0823117 90:0.0700525 95:0.0245184 
-1 -1 -1 -1 0 1:0.0216346 6:0.129808 12:0.0552885 13:0.00480769 18:0.0192308 29:0.0120192 34:0.00480769 42:0.0216346 43:0.00480769 45:0.00961538 54:0.0288462 55:0.0384615 62:0.0721154 68:0.00240385 86:0.115385 87:0.0913462 88:0.0216346 95:0.0264423 99:0.151442 100:0.168269 
-1 -1 -1 -1 1 6:0.091716 12:0.130178 13:0.0443787 14:0.00295858 15:0.00295858 18:0.00295858 34:0.00887574 42:0.0295858 43:0.00295858 45:0.0118343 54:0.0266272 55:0.00295858 62:0.0473373 64:0.189349 68:0.0118343 71:0.0650888 77:0.00295858 86:0.118343 95:0.0236686 99:0.127219 100:0.056213 
-1 -1 -1 -1 -1 1:0.00285714 11:0.197143 15:0.168571 18:0.00857143 31:0.0142857 34:0.0285714 37:0.00571429 39:0.00285714 42:0.0657143 45:0.00571429 54:0.0257143 62:0.04 67:0.00285714 71:0.00285714 74:0.12 82:0.102857 85:0.168571 95:0.0171429 96:0.00285714 99:0.0171429 
